{"mlp_type": "BASE", "learning_rate": 0.0002, "batch_size": 32, "max_epoch": 15, "optimizer": "ADAM", "l2_lambda": 0.0001, "loss": "CROSS", "mlp": [{"layer_size": 45, "previous_layer_size": 784, "activation_type": "RELU", "dropout_rate": 0.3, "neurons": [{"weights": [-0.11320855027393052, 0.04871722813108836, -0.04188498639232562, -0.029533162026470404, -0.022286502252184086, 0.01249596104165759, -0.0024497800734446557, -0.0027566974998943783, 0.0409564997429528, 0.01221768183326502, -0.09185658926665619, 0.13526814729094833, -0.05789676216868755, 0.00699155006378881, 0.018438501594808577, 0.01880076688917719, -0.033524220064569996, -0.02671146120177585, -0.07855850193796068, 0.059040153948166134, 0.013309155208024953, -0.057803228659248605, -0.07151424397487612, 0.0782135255711661, 0.00145011230570514, 0.020117678338036047, 0.022130356681495277, -0.004414225560530422, 0.026923177588315302, 0.007644754470900648, 0.02499513323427471, -0.08177771942992224, -0.01751204925389879, 0.03698772777437917, -0.04887450439694582, -0.09129567128756881, -0.026804429134687863, -0.02272242601817224, -0.04248414091877541, 0.10507382821608402, -0.03494549399306506, -0.05668542176313976, -0.031701735299470395, -0.02940695188909634, -0.04164730201426091, 0.01336707851543692, -0.02836770103453096, 0.022617796025646564, 0.013314586043152055, 0.0256217522482017, -0.1102053472642648, 0.032494427112859235, -0.06487855265760302, 0.04291958924274078, -0.019318347956179868, -0.01320520721648664, -0.07361692317246901, -0.017466139885569106, 0.0167036371136384, 0.014850317597952495, -0.027846716690334995, 0.02747161272377581, -0.022439994724361083, 0.039150985622934294, -0.06946168407316208, 0.002250542715092967, 0.031222994742595055, -0.03189449176727458, 0.0591433463336688, -2.8556966643026873e-05, -0.0009887315152482094, 0.09652011565990169, -0.01578548915976796, -0.04539231403882027, -0.04017193000158432, -0.05384166014212752, 0.04587009509821914, 0.02453828794282195, -0.004909253361803241, 0.017446708057465683, -0.0705355716768343, 0.02166936190316421, -0.05817560596163962, -0.02285618369878761, 0.018517750286611095, 0.006055576757310919, 0.12205030211675048, -0.04776383327110113, -0.0935418839280007, -0.0545454352611337, 0.006570396621671771, -0.043413242700329154, -0.0309728700170518, -0.009549647198691835, -0.0303124341779656, -0.06726757318016251, 0.09981127363447412, -0.07110388347489394, 0.11395423237603247, 0.035240995404425955, 0.022819713417646534, 0.07442440603725696, 0.01333245199902895, 0.05125838879670792, 0.013811678597231626, -0.11621233939147846, -0.044403358767355565, -0.027614965380203232, 0.012873350796369469, -0.012705344914491063, -0.08655176836879262, 0.028323414777119933, 0.02610790605618188, 0.027210727626386724, 0.029289603902061912, 0.04452395207594621, 0.018057403967988245, 0.007290063872830695, -0.09458797877043015, 0.016817109651655646, -0.07272487067762581, -0.05191826923503232, 0.017127482497254196, 0.05009258972862726, 0.054978453316247684, 0.06896694581294699, -0.06847269506779366, 0.04158818632614101, 0.004058447252721149, -0.06174626120553746, -0.036959525208573464, 0.05771022296173573, -0.06565386446600523, 0.03446890726573968, -0.023572841123720236, -0.02782673790786764, 0.024097368891148073, -0.051820323780037536, 0.051171093560355714, 0.02545412737558857, 0.09822608814561253, -0.04624257678251721, 0.04650971125324143, 0.018873821908161694, 0.03411140746349542, 0.02137971613071121, -0.011996034891521805, -0.06626713564429255, -0.018502763883620602, 0.04028470695607004, 0.007279005628269605, -0.010669194687766823, -0.006266388883470595, -0.044073941127965505, -0.09470486366536641, -0.08189023390829796, 0.03716501191687625, -0.049229784673474816, -0.0737577659612288, 0.06134793712406902, -0.1087132396646308, 0.024508658686906507, 0.038247196886963875, 0.05444939040455498, 0.09723583281740956, 0.06401651926857796, 0.033113964660687584, 0.05982710939038991, -0.09297371006933869, -0.08045680520000809, 0.021686948669057453, 0.06666806946690156, -0.034996647065816386, -0.060350296462083806, -0.00032008059475132543, 0.057213893008830466, 0.007398245236842272, -0.05863704377784889, 0.07836301467985923, 0.018047127176774574, 0.0053678084281947504, 0.029814923073465834, -0.005738247450248505, 0.0038554761475237355, -0.1061593177386509, 0.014475620447312848, -0.011689587664232448, -0.030681954023964512, 0.005460315263322267, -0.011387148433100406, 0.07483609942325518, 0.038566580549173106, -0.03695831785071789, -0.02289653236512205, -0.04124379611146033, -0.06945104112993021, -0.006723916732069606, -0.07390802454097133, -0.06970025793144533, 0.06072753538314147, 0.023232507433042962, -0.035187259662951526, 0.044837623921710236, -0.05198060500361652, 0.014059215089389416, 0.035616027008303984, 0.00397098960374113, -0.02497328968192799, 0.021120346825804052, 3.73223720312677e-05, -0.07426167316151032, -0.017514164426316873, 0.0839228311271397, -0.04764078273902642, -0.09043060988708707, -0.008383031880815196, 0.012248762574690847, -0.08089125569820707, 0.04190491296744609, 0.07343037684740507, 0.028927591649894953, -0.08403311717861296, -0.0067080438348672495, -0.11938006549178198, -0.07343811793905694, 0.013094078850745528, -0.02212871157889583, -0.004154742521865178, 0.06279447531063592, -0.07540164406702922, 0.037379799128997304, 0.04493617652607625, -0.01493904458357698, -0.016600474409511987, -0.0223103741993048, -0.013479643302341046, -0.0716665184749926, 0.041553431168949315, -0.11989529084545959, 0.05721294761522005, 0.026725536810605157, -0.05536470665244375, 0.05377008181655159, -0.09086553843944031, -0.02358994186603312, -0.02592835625242187, -0.03809048136478946, -0.013339506283904144, 0.11210488363445803, 0.0012039313891475144, 0.10101397046856132, 0.03636618650166626, -0.0442665351010834, 0.0026306421515813767, 0.0011617755764180067, -0.013867203159299814, 0.012618888984655607, -0.04419887523992976, 0.03764259149701397, 0.04047116927054235, -0.02229234089429899, -0.07202565034664439, -0.02393830899555915, -0.008936048943278797, -0.017589377955065322, -0.017821183185128618, -0.002652648881424352, -0.08269078059418054, -0.03354506802123581, 0.01583886240145055, -0.02035236310947365, 0.06617323314465867, 0.05656414719389554, -0.10984050553353414, -0.015613631989741408, 0.08793117479441762, 0.06386428022045042, -0.023297522697553568, 0.03545011164995754, -0.023502045154873925, 0.004207922528238243, -0.010239339090640912, -0.068193846355129, -0.011712698899641485, 0.07843060103549011, 0.008948694609965394, -0.02297448273100258, 0.10295152082977757, -0.04657220318700976, -0.07379001629864702, 0.03776314957048067, -0.005527010282271138, 0.11128067803029461, -0.022828463919648358, 0.02181578003882712, 0.049851408259798516, -0.0583697573203945, 0.005593481401310742, -0.02373120371845354, 0.0071077399012989045, -0.0007521322325311217, -0.0399677754632968, 0.009419928812240295, -0.08705670811371671, 0.01151036851000189, 0.04858209905659073, -0.05418607180060373, 0.0006641856658289946, 0.02116497831783776, 0.004652237856836256, -0.04199578480553441, -0.07408405815774449, -0.06205906165709355, -0.0290901250241412, -0.010655465195563221, 0.07270062724132466, 0.07755491438224571, 0.015334008684828685, 0.0705433102747985, -0.07514257322212044, -0.06974474544856098, 0.002631018020530909, 0.0642018488859934, -0.08615740856848216, -0.03126141000294273, -0.018167276156761822, -0.029827842465551358, 0.05834764985871855, 0.0025161673756128903, 0.06641911441498353, -0.05027372339555522, -0.03796035063769129, -0.04775239653416834, -0.0353160277279319, 0.06109882897035789, -0.05702344806701436, 0.0030721484016842837, -0.048091442857418995, 0.010855219744948802, 0.03553257534858087, 0.03422497036715841, -0.037100176856313, 0.027646696395668476, -0.01534881376956445, -0.025463004137192092, -0.09765172173709114, 0.018983899999605935, 0.034633569719024045, 0.016636597514280073, -0.006088596182254295, -0.17444231446234645, -0.025345395791399244, 0.005902331416251381, 0.0017182303701783468, 0.04108566435633957, 0.05591636612751709, 0.01043452437294897, -0.08505083398412794, -0.009148600056749015, 0.03366347187026762, 0.0902711056685434, 0.081334874195503, -0.01539210163873224, 0.020649930125828827, -0.01640435425393571, 0.12859358426767617, -0.05115760570282292, 0.018894038713515273, -0.0035686649411166473, 0.0925054181120549, -0.03685795952957009, 0.060824462082084224, 0.013427600498097676, 0.010963427026309777, 0.020158039693859507, -0.09169989756086527, -0.07828033776546585, -0.10322290915395033, -0.01736261049122639, -0.020568117887352074, -0.006838796735316576, -0.08339359003714482, -0.009731181137199481, -0.04068449116453877, -0.12613338698277085, -0.072663513716353, -0.027037764472875613, -0.044377166818677434, 0.030955220147123735, 0.05278735940624672, 0.02452259001694261, -0.009911356841436047, -0.024167112434905855, -0.07618541560361951, 0.06421123000855282, -0.03787651589899022, -0.028535923213348188, -0.08398857738924319, 0.02623494480524041, -0.07544165626132737, -0.0021983264837658325, -0.01928462448483144, -0.0962955968277096, 0.058418609658052546, -0.0047362967627496925, 0.012230245515658928, -0.005554886790444209, 0.05123984509244352, 0.03450449954168099, -0.03715448202743085, 0.0023226837872237878, -0.04899683304413161, -0.0015462299793883676, 0.025425786185235454, -0.05152756170266402, -0.032405560199643135, -0.0741327628313861, 0.03685110922468277, -0.018026897817187706, -0.021275386047963255, 0.0284101453995393, -0.055000235659337704, -0.003683499935660735, 0.04113477704777308, 0.07071454293048893, 0.02099785831305021, -0.022995895786505124, -0.0016410406134346755, -0.001069346710601591, 0.027947728813749066, 0.028069113557128513, 0.0010965053648885046, 0.025414625848552745, 0.003968280108079451, -0.03389195108012957, -0.04147005240111634, -0.14483727341810687, 0.00574851210233231, 0.04891529024883048, -0.010454916729645361, -0.011209047609784993, 0.060914328384091276, -0.049339097754378614, -0.08123909972883905, -0.08904548985447715, -0.06950503639557194, 0.04833663646095384, -0.04135220889252619, 0.04316525808417493, 0.056067987165300794, 0.005904992205795165, 0.006874064345377165, 0.06251080034225445, 0.040327718830805825, 0.04365485605843094, 0.01642227885203528, 0.047727450884440574, -0.05455629965232103, -0.024205579679025518, -0.014591919060781496, -0.0757579448560123, 0.06798520514244699, -0.06201374983820224, 0.06784621174541366, 0.010493718455924669, -0.10749859108278631, 0.018671834745167995, -0.05523863334542321, -0.007873925854176922, -0.07520326833176795, -0.10688312741953916, -0.09620808127070515, 0.03766592295653308, 0.023174518596866322, -0.04405315630274663, 0.002752724378932147, -0.004781072794175728, 0.07339411558386948, 0.07759707937214338, -0.043304691692217664, 0.06035126772995073, -0.06099160669437014, -0.06530242537662595, 0.03482299237396404, -0.07239882348408988, 0.0785359957515743, 0.06879014237709719, -0.04522056174669085, -0.023419517350030762, 0.03574179685332476, 0.01724940985349347, -0.022811861968772787, -0.0014874005118099814, -0.038812140295632375, 0.022982666772870326, -0.01153566037444478, -0.06116079853722719, -0.06048348820406869, 0.05967438392997812, 0.060257810338602905, 0.00017618608106134283, 0.03562018488295803, -0.06829001619612418, -0.01987003915857022, -0.032999134811678814, -0.002619172162052569, 0.06766488452725221, 0.018060446072029872, 0.06155258376473783, 0.020843856824991302, -0.02117670912468886, 0.05059646178303138, -0.11555474868757241, 0.043230791817970196, -0.024990791246695527, 0.04369841232434041, 0.0878033648860538, -0.06661626426636831, -0.019784026293007302, -0.036736693930109005, -0.01788160141905192, -0.037822567049260576, -0.036544685615958694, -0.07670524434244735, 0.02575694670301286, -0.04209557812047924, 0.026733948985465435, -0.05284280819106997, -0.07836739574106148, -0.02791054978655472, 0.09777615745140449, -0.10354141653393321, 0.018026662459438913, -0.006324392471035975, 0.13622415643413072, -0.07129598949625537, 0.03218626372315876, 0.03463221886664575, -0.0654663525244747, 0.11468840054470564, -0.07613430852136792, -0.06311780916751837, 0.03982417356706264, 0.024614242641918107, -0.07088333794615456, 0.06638434112420882, -0.019639811847893388, 0.02221164139604158, -0.05638786517420091, -0.02988106469605193, -0.04163746572978547, -0.07201305086604214, 0.01102527092316853, -0.08090807291636545, -0.0009403585934100132, -0.05145803162657159, 0.12791054805859017, 0.032576097947024873, 0.07371738413809063, -0.06120534178838318, 0.006032149753603442, 0.036665974736998036, -0.03905713420179093, -0.03275978624736354, 0.06587706009811356, 0.1636188034620173, -0.0018759302607291493, -0.05177612493048146, -0.08677432177472894, -0.026003673837665556, 0.023540172748747767, -0.0016138893983912704, -0.03912364515306631, -0.011247440066964456, -0.025014048832373417, -0.009685142126095659, -0.08039156475819295, -0.028650406988788374, -0.021913118031175783, -0.0387644043330232, -0.06956784396990681, -0.059986426424235496, 0.05261054033964689, 0.04581117227922158, -0.019896620703416704, -0.018568148414710266, -0.0651849611268061, -0.019427126775599605, 0.020242934320191766, -0.05195015019148278, 0.11568277725210371, 0.02106715265448019, 0.04023120996988005, 0.06682303598313138, 0.0044863150344527855, 0.03430812312864443, -0.04026972300221327, -0.049884567628054516, -0.008595000670381076, 0.01926721113731343, -0.062229536276810306, -0.06973099214345127, -0.014426278574098781, 0.03644220082140128, 0.00827409153018059, 0.018542078080742343, 0.03918910477123767, -0.042715585099615226, 0.07671002710330277, 0.10902771490008538, -0.04176935657289943, -0.06305483391527333, 0.01914920167956874, 0.04294833234432559, -0.05811250642848992, -0.0025414357141750245, -0.028418781135520457, -0.07875421894098822, -0.026800051333988977, 0.01226932286763446, -0.059380187284905496, -0.07472326339147121, -0.0278923536064513, -0.03743268269883301, 0.02582372364692478, 0.013585393081082814, -0.04528281996426016, -0.003050013481501349, 0.044472369716474475, -0.023498514098302187, -0.024762640460826456, -0.017151151117353356, 0.01657628590449171, -0.11747006265375047, -0.06624815335721457, 0.020575424401761556, 0.048984752656135465, -0.04490185471937352, 0.036488972157890216, -0.09086724173505971, -0.047286296559952645, 0.03387031328660333, 0.012538791384031042, 0.06493740496682797, -0.02544153507295012, -0.01163383125799531, -0.1052493078793774, -0.03352323862514585, 0.022997159851969148, 0.010262389356351532, -0.1509466310981722, -0.02476689197290348, 0.025037291322933104, 0.044567252240104015, 0.017504319425348785, -0.07383568255844451, -0.04842949822831938, 0.05359182391201309, -0.0792783147220256, -0.009465663995393673, 0.043863541302247344, -0.019050890718191563, -0.09859933412479031, -0.049332872237819174, -0.0841029515622221, 0.039234877620036086, 0.04891439084010862, -0.0016033881052579097, -0.020149534060479375, -0.05791958366985612, 0.012113051760526874, -0.02619194672217333, -0.03763477705250015, -0.005537744608923431, -0.04421856738963669, -0.07958199289155533, 0.006532352205941397, 0.04948593986873446, -0.03986373613553374, 0.046149825983511146, 0.0571878350930273, -0.061632349649852994, -0.02144733169346383, -0.03736233121972326, 0.03481209211126916, -0.025655510341702003, -0.019076872530923276, -0.013072507550317445, -0.017532707694720394, -0.038001267355690455, 0.027013623096132363, 0.03143053568694089, -8.899605251343761e-05, -0.0020405418975928016, -0.0050722126248797985, -0.009819812437177652, -0.0015776028623037163, 0.015611200650185487, -0.06420909010202709, 0.024920239974859263, -0.048255032834562304, -0.08847390870088266, -0.0026747295613252097, 0.06916250207334723, -0.019237061679710798, 0.08102419494196252, -0.017634810381070457, -0.024861347648250594, 0.0024350365046319393, 0.05174029395537002, -0.00959296416446224, 0.05518319046807601, -0.023211692048647384, -0.05020715637113607, -0.08642721610218176, -0.017177756160910693, 0.028517233153264245, 0.01714186343624574, 0.10189317154544775, -0.01073621569702372, 0.030347403949174498, -0.04245724370489291, -0.11403072190908273, 0.03586997029155906, 0.014547882371187036, 0.03376154679115514, 0.007752306168962817, 0.00728385492617719, 0.01033839532924761, -0.06433613230161095, -0.034050924064473145, 0.022667223365418137, -0.08241431105273633, -0.004370506034469939, -0.023407997420718918, 0.048858687925821084, 0.04704321230540972, -0.06288540635379927, -0.03346584651158953, -0.03740785093464946, -0.00488515119243932, 0.012160907671058575, -0.06406124489034924, -0.10596601849867299, 0.004236480454591309, -0.02354570446509343, -0.047755033615529775, 0.012546226731602725, -0.026516986376091383, 0.14802190307018165, 0.05700379919980801, -0.03614955678824066, 0.012091602202664632, 0.111354981713633, 0.014675745850313875, 0.030515569722475346, 0.027474591830557542, 0.032822651806321185, -0.014746204914926193, -0.015947064133918196, -0.007505916726595335, 0.0030011614589036373, -0.06467184976045376, -0.03280065543816763, -0.02684578244438492, -0.05793136326111033, -0.10231126101073261, 0.019076101126039736, 0.06509712356766165, 0.05707244893630085, -0.0002288155972278402, -0.05959628230333865, 0.06765490029318184, -0.030874966606574232, 0.0433007297273755, -0.0037404347272746294, -0.007530983500071251, -0.05291994960534209, -0.006523436221607241, -0.056577898391938795, 0.07254311095487813, -0.030162652131576845, -0.0045097519418905345, 0.03390509834198258], "bias": -0.015199340390362063}, {"weights": [0.06260676961055302, 0.03897593889518749, 0.03393988365428368, 0.06710317565685245, 0.01398878905538628, 0.016053827030897846, 0.06447000751831429, 0.0035089905963916227, -0.01601178325390407, 0.025412528576458995, 0.011552841622969788, 0.02228220571550441, -0.020760609679050315, 0.10588202996916278, 0.009109108252893518, 0.0045337480169586495, 0.01838684096002942, 0.03476042755693839, -0.007594721433130948, 0.008061551171384702, 0.02816742528286161, -0.052529629701215344, -0.013421040981466346, -0.029616162341816098, -0.01568905392743477, -0.023573369100611724, -0.016923531095659198, 0.12878497090148308, -0.04311134023451402, 0.07114527837630259, -0.023548576010611343, 0.0023665792459389074, 0.11381826535668803, -0.039987339692996726, -0.009451212081818953, -0.07027612324285194, 0.13666125422983985, -0.019117238182089744, -0.06910160520097419, 0.04685953458869354, 0.07384280419257908, 0.008560464087193282, 0.0763671117939581, 0.06047056799438713, 0.09237652853643041, 0.006637217685770272, 0.03482203484276658, -0.006826689390211045, -0.05120779991961912, 0.002902331202230463, 0.03781438598612167, 0.0284720790344425, -0.06518727811242661, 0.07003455296031659, 0.02044937099905362, -0.07515642589032835, 0.017166419387340127, 0.09047614128699154, -0.005379066938988011, 0.0579165344904089, -0.01631024337404167, 0.004171520232467087, -0.10930196071765068, -0.020309521448655794, -0.1009824184365224, 0.08408918918669296, 0.03061513322399745, -0.024217975189599072, 0.013194606333920333, -0.03364048669944354, 0.030219284329681424, 0.048142747296154594, -0.013292941322761166, 0.08363480542703938, 0.048578998811357715, 0.03578343642719851, -0.03892264589023271, -0.04370228272234925, 0.0731416744381602, 0.01343388458846853, 0.0049990275528063385, 0.02928819677048496, -0.00035073930486870665, -0.0066636813735096966, -0.06320221709208913, -0.03829652395394108, -0.04877227373854047, -0.050354005179791286, 0.0812674469856748, -0.018144888791874453, 0.04859811343629507, 0.0371620773065433, -0.07602212282984938, -0.06550315545545661, 0.05394109503694313, -0.09473906742341366, 0.02524647981500158, 0.04603650074514949, 0.02183789880293718, -0.007003538645832615, -0.02718684978783494, -0.03527744277169554, -0.02134398365748026, -0.015301859439949701, -0.032478119453004356, -0.028894006197626103, -0.09594375598371341, -0.05943618615164162, 0.03765588521212365, -0.003401304111125597, -0.0010425431992785394, 0.07091563382823858, -0.0051425441674963455, -0.0064662414715547815, -0.0020748791974966097, 0.024239827795816325, 0.013956887130874014, -0.07096857016126082, -0.006735422978999924, -0.0718678696245989, 0.032540945303171295, 0.013214457115962993, 0.06781669929573711, -0.04625422595057625, -0.04644416679036796, -0.11771210992613484, -0.003482825840168615, -0.006097338840197036, -0.014233172747436431, 0.022351326989896905, -0.05775453663707462, 0.015315733139229609, -0.11106713497897473, -0.009636154507878181, -0.042237323013736325, 0.05535435096007984, 0.025068985925552647, 0.006167219612362195, 0.0029182014357866807, 0.036032845878438344, -0.10313965589050043, 0.03530462373311217, 0.10819026231414751, 0.03861634138698991, -0.05862196980665775, 0.07450699563608484, 0.078659574369245, 0.08838056272219806, 0.07257587262912238, -0.02416040373673619, 0.08396018244543495, -0.027414372305057173, -0.04573414861364187, 0.016619465443394994, 0.018182385265541584, -0.07235183777468014, 0.030156181511421323, -0.0005266056020774485, 0.011473235300292648, -0.03225580980785063, -0.10796576695410033, 0.06311616649948672, 0.00450623975410021, -0.01743793400718639, -0.0087064777367789, 0.039449031369742434, 0.00865838887115878, -0.004093856627623603, 0.06471202168343793, -0.0034260155578212646, 0.0441472146672049, -0.019506108904209483, -0.09307850456871168, 0.02024097373879728, -0.12969091551814646, -0.07744927813404003, 0.0029478261939730696, 0.0010322457627187928, 0.04916553100287646, -0.08044822800798003, -0.03111317792739598, 0.042681673324260205, -0.044581461305711695, 0.05794419525030593, -0.04453430057637559, -0.13158411434450473, -0.08311946535655018, 0.05990734383767739, -0.028587751720255412, -0.040593409480411846, -0.0498446159172869, -0.03201751550242917, -0.03097540068651207, -0.026460024891619666, 0.02691785032232075, -0.006500762377557642, -0.06496908005827819, 0.005053297532044136, -0.04402231262183892, -0.05196639129709394, 0.06705948328205608, -0.03784690920603636, 0.008278351356508012, 0.04784155893371815, -0.0966140736980752, 0.026538643997999815, -0.04038686715992386, -0.12017242636621689, -0.01719580710820062, -0.034691414221034556, -0.07397373765530359, -0.08067605787244606, 0.009508695370510944, -0.008925704629678845, -0.030007302710048138, 0.08793904593315029, -0.1394086630192372, 0.01341015320848744, -0.09641346631528722, 0.04797305204428394, 0.02483663364968301, -0.09031320644489695, 0.029818222776104818, 0.007101268517782334, -0.01571912587393433, -0.002590216033516134, 0.022968308341641406, 0.06084375282968257, -0.06817548353396681, -0.027494215205413158, 0.006202874423567542, -0.06151635647960481, 0.03255697019110266, -0.05440361759572444, 0.0009286643291463795, -0.03917655865838108, 0.08053556420062752, -0.047049380541631006, 0.06628552135979976, -0.06661872634391379, -0.08119917140742398, 0.11067775574966048, 0.001584807693177384, -0.05937107806285329, -0.06473432733060197, -0.05637034505260371, 0.047681042453556435, -0.012957164341341356, -0.01693759362646068, -0.022755507387159847, 0.04444042626940034, -0.0071537724564225205, -0.06314277168038161, -0.04745247205138268, -0.03024931818376463, -0.010301038405971425, -0.08312207637427316, -0.00397503231181681, -0.034464147940621026, -0.03712613346639949, 0.024400835581390563, -0.07243911444303916, 0.027136644249387245, -0.018517616153291297, 0.02318061187734078, -0.05399847835287551, 0.008519077031759758, -0.04033676562093087, 0.07462924536552266, 0.004905051398447888, -0.0816468235798655, -0.029305283380245892, -0.05127726377008608, -0.09382548443093726, -0.004378570969829697, 0.029563829601699548, -0.05059342740178154, 0.05680190904070156, 0.163334972038175, -0.007370499196826494, -0.030052056425016554, -0.01448201680454354, -0.05275698632416743, -0.05436051597479692, -0.07460525439253173, -0.044479160569614526, 0.02394115408658674, -0.030201237942166892, 0.09920713556678447, 0.029718101359667678, 0.014571333295600434, -0.11066529813385297, -0.004071854052865379, -0.05262863696553564, 0.05270939283807999, -0.03146306506998785, 0.027123312737367067, -0.04296168768762285, 0.012469177447236338, 0.047014153820220256, 0.10307952951028566, -0.02005757018802021, -0.0047622539883586095, -0.04024868810757084, -0.02340653808372049, 0.04239826096077289, 0.05153689881233665, -0.06979226094334443, 0.033057295141736665, -0.0721587069325375, -0.006994749672080911, -0.03764168146535858, -0.012097583984029003, -0.02365449903700209, 0.034919119573321875, 0.057366336166440615, 0.003919949510048769, 0.006915188356812538, 0.000657956563772172, -0.07017938813877977, -0.017299997361903182, -0.02905968425737472, 0.07846626323866708, -0.043761622459598304, -0.011014810431353146, -0.018288780388997304, -0.0012956455924410903, -0.0408067952428231, -0.03554729159828078, -0.08061650542949467, 0.015876665974659008, 0.048460613085811476, -0.021227017632122876, 0.004786957099502322, -0.05702524275342144, 0.0030336981054549105, -0.021767896984445426, -0.0732731275349403, 0.042226991593839795, -0.07948372767081113, 0.010383745804878872, 0.020841318097457952, 0.024191926296301836, -0.1318367334350957, -0.058173396917094576, 0.015460918863386961, -0.016805461967889863, 0.050016196270457884, -0.03536198209648184, -0.040054767918581625, -0.0632660727200754, -0.011856209413427929, 0.01148652497752842, -0.05087994994576087, 0.021319866422629993, -0.046280028922437697, -0.06444964712159594, 0.054918992218041675, 0.09066360876385811, 0.10410792980576249, 0.03956037621584577, 0.04543919963882679, -0.03412807891351722, 0.007367370661895157, 0.02618783120697112, -0.03983929559301165, -0.02595312847479847, -0.005662681588572422, 0.006975232582619544, -0.02561312672674097, -0.028880420011935616, -0.042759253253893306, -0.017974172521647985, -0.016956576262161592, -0.0206674023241718, -0.07202978694777203, -0.01018720413377477, 0.063875836086379, -0.07718006855859717, -0.055064522619414316, -0.050193946030453726, 0.0029648705016309387, 0.014653192471854712, -0.002949445758134378, -0.06430461404436064, -0.08379851595353412, 0.0220930758821433, -0.02358508390093008, -0.008214290431493848, 0.005982899247457792, -0.03889373707394267, -0.0009495228482649652, -0.010357641546264205, 0.06377794555734302, -0.061055611449083065, 0.00866362783915274, 0.12122798821745011, 0.019468892446715385, -0.009133401530597603, 0.05370876000074845, -0.016651881188249097, -0.019116459536274475, -0.10586325764842934, -0.011076131378936574, -0.05169098010332824, -0.15435164703650522, 0.014142222457142473, -0.04028435293285143, -0.06825474782115751, 0.03714163339122736, -0.012707124359785769, -0.0636215725082372, -0.012357347003030773, -0.07629512585753409, 0.01310502469272824, 0.08361552190917466, 0.0048302126715376575, -0.024855782150424395, -0.0019845902090220788, -0.035668661041002504, 0.03357355424007406, 0.04218778005465812, 0.0624993768295707, -0.053665683926032236, 0.012053507243176751, -0.0636391751521451, -0.02755108267299763, -0.0472640402686211, -0.08539669562329424, -0.034586053912635965, -0.018501166517682802, -0.02614124581562346, -0.10068579022001585, -0.010351242490982694, -0.059846890128810205, 0.013068906856586609, -0.04042420266624473, 0.019279850057018228, -0.04472776501766068, 0.033467244240332, -0.030834945254413486, 0.04096520057655453, -0.03867263031957984, 0.040754525178988574, 0.05490349202731477, -0.15351020163263604, 0.03908738807907691, -0.014286145810314958, 0.011735690135587042, -0.07704356973304964, 0.08668029475833398, 0.05962954762233194, 0.059756504995188, -0.011038168953665965, -0.07230531441308681, -0.023309200919241692, -0.01908468278893752, 0.03142688424718909, 0.0515608065601107, 0.034010929162567385, -0.07395156269829177, -0.059350386113309325, 0.0040215684651432985, -0.013832992833471208, -0.10260451327601688, -0.04099996897069219, -0.024643405372610498, -0.08036482079014222, -0.04006214596159332, 0.13322624416622814, 0.018220811815206867, 0.07452083680319553, 0.007969078738155323, -0.008098067166073837, 0.046770062671101745, -0.03557746839954506, 0.022380491866609106, 0.04934971277889187, 0.08183022059419733, -0.013263504705792727, 0.030726464284256502, 0.06110753810150902, 0.010941823749014595, -0.11948448732858082, -0.07930101596277764, 0.009516366574614377, 0.0191145587668262, -0.07436202923756784, -0.007551767940360434, -0.11623204480450924, 0.04824639942316934, 0.06430415554936662, -0.08455063172354135, -0.0003606604030918046, -0.10125464694000214, -0.15141197191388392, 0.026860174366176538, 0.0014158674210501116, 0.007763395685510389, 0.0027740180056988017, -0.02035813775783105, -0.04180728814294683, 0.01992182567526944, 0.06402467062941003, -0.04606011921515933, -0.08408609053230184, 0.0826409211380902, -0.055439370447102516, -0.07434549259351951, -0.06634174996630479, 0.003008470977801584, -0.015172230650402074, 0.04743828509705329, 0.021296417823007053, -0.008234873952856896, -0.00022436939473319595, 0.05608612331352566, -0.09223628615119163, 0.047126890548578895, 0.0351026253713616, 0.004708508122258373, -0.0012881396138970074, 0.04197485746792071, 0.018229130190520852, 0.04547946105871946, -0.04775449285452183, 0.011256146305481886, -0.0408892181239158, -0.10550265720643053, 0.003976849157260496, 0.08143518194766058, -0.004854838330604721, -0.016856878186807707, -0.006125658274498024, -0.08253142398700782, -0.047757277967763655, -0.0016452719546346554, -0.004773438922519315, -0.012698944799405807, -0.027878548822173638, -0.0004789916027425646, 0.05041575222176041, 0.053232403737655636, 0.024962131212301605, 0.06271824918453422, -0.0030084752362684627, 0.01997251978977323, 0.03302208949862145, -0.10343977446908434, 0.03142161073779917, 0.0022343312339121223, -0.03347040213905431, 0.021921526553694587, -0.05060578420399109, 0.051132231444638084, 0.000465938867409513, -0.03863356123914554, 0.006508525371864162, 0.006295831498149588, -0.03746377251082306, -0.021590203650155786, 0.016680756754581246, 0.08579852062890157, 0.004727610032019638, 0.009572902241912186, -0.004576600834320431, -0.10371886700713887, -0.018609567270553143, -0.004237795823511357, 0.031120026724759376, -0.014441959227562888, -0.0425076190880155, -0.013354902945810682, 0.0479699492654726, -0.07150507100338158, -0.000441704755982607, 0.0719228703763513, 0.0027484562486797598, -0.02499071533720686, -0.058889042207475394, -0.057212188315772114, -0.03552469997002961, -0.049426657096389014, -0.05776890476815894, 0.06713961756984493, -0.03715757261911807, 0.08276710886324427, 0.0725459273861767, 0.08604089186656982, -0.01065953703024469, 0.023182933085683703, -0.0010756072189689054, -0.00027053803440630394, -0.065590910471723, -0.06668762444037907, 0.024211842387054445, 0.03336561113738968, -0.07710470263653739, -0.07816768035322444, -0.03468020391815744, -0.020167058990285276, -0.010183184016560893, -0.0766539227643074, 0.03242134991608048, -0.06104801504113295, -0.03434682982131642, 0.03990782459078046, 0.062325708494815495, -0.024224735545160216, -0.04800422396461607, -0.054402659941600956, -0.02241372164010265, -0.05538753425890982, 0.024905073486773746, 0.01195006430529821, -0.02119844090219867, -0.030098154322069855, 0.061147722940983106, 0.008752801716108255, -0.0488496403818003, 0.006711000915471949, -0.030221834449872014, -0.0873475869156216, -0.014304113576235651, -0.004891135693471863, -0.030106801678789614, -0.03147463270059829, -0.057682160671178095, -0.03772378751451323, -0.04950930710925035, -0.0066989560932939896, 0.06129352376941144, 0.043621835704894606, -0.007847703457601603, -0.09811868192817201, 0.00740041939706426, -0.014914085812310707, -0.050976606407553804, 0.07290010869623816, 0.008473604075349203, -0.06392906359297384, -0.01965144395985719, -0.03113640792492917, -0.07163921170137187, 0.04425275461548143, -0.10300279711715714, 0.0077066541152622054, -0.052305309223938105, -0.025268442324263556, -0.001996041872646541, -0.03978529020022226, -0.04361154283755078, 0.04113062757579937, -0.028528853185636572, 0.013030183451351242, 0.0003427687317143204, -0.03460281703745889, 0.027179692803147623, -0.052400377677134145, -0.003847714130532366, 0.021183736929541706, -0.04848121611613835, 0.03830342346790076, 0.01819777265200508, -0.002166452397555702, 0.042437178961418916, -0.03364991558427458, -0.0826380197011821, -0.10765450768739715, -0.012042285550244952, 0.01910632243520759, 0.03092549558276207, -0.03541434342804697, 0.028718493942413263, -0.02501702648402216, 0.013054698607680267, -0.11034040265138424, 0.04969392245306825, -0.013444187825849073, 0.018981787392233607, 0.07322041520153548, -0.0971785362664488, -0.10785211025077916, -0.07958074481245724, -0.06251294445497066, -0.05947680125612815, 0.05948357049705475, -0.06435676684516557, -0.007558117978163307, -0.028078859987744585, 0.01919679073745085, 0.009465748307088198, -0.10570990661571517, 0.018509072798634008, -0.00467990883373416, -0.000177982204791423, -0.03239994677372084, -0.08625442924522883, 0.022576441667625867, 0.03976090876737748, -0.03615189186539954, -0.020113709990443, -0.016331454337251233, 0.060932705734970276, 0.08563605601157898, 0.03247489913012716, -0.08104608742415031, -0.02591401180048967, 0.026342552273710105, 0.013573482823000648, -0.020796012585838554, -0.038171185352849725, 0.04244532478781639, -0.02253602180646642, -0.07049258872691885, 0.09695343659322747, 0.040111940358834385, 0.02970832823029316, -0.014825787505493597, 0.022583659321790836, 0.012088294613242415, -0.04352867537943328, -0.03842995553280114, -0.05263515041123268, 0.18276849924735805, -0.10801970112213062, -0.002742305713770015, 0.010165765947214979, -0.030027840130655993, 0.015769542683734254, -0.006301389694522517, -0.02893816599013753, -0.032299387093874685, -0.030439331870293088, 0.023891789438576654, -0.0030837401924734623, 0.07282819578313965, -0.010360500599200812, 0.03858982748061399, -0.1162710197132635, 0.013748094344866861, 0.04617154387427976, -0.08502674376015153, -0.029407452530968416, -0.009885587154384874, -0.08455150237552865, -0.04946725010820569, 0.014609950847404369, -0.06016400493253856, 0.005684332620029352, 0.09492794418362865, 0.02871216284187778, -0.03810397360332884, 0.07567037308645078, 0.051362454860444884, -0.0020549253106397535, 0.008665663083253401, 0.03150496542367112, -0.07982898026911067, 0.02893985018745245, -0.022395835815451622, 0.03654248483100045, 0.09236005826690077, 0.009158232645018081, -0.016617698291245164, 0.13019266878991054, 0.05611557071040565, 0.005421525902482186, 0.014357554966988716, -0.02118327672749869, -0.02627635768266724, 0.011836369423085564, 0.011841087786973058, -0.03443481840518347, 0.006555789739652041, 0.06028073176964402, -0.05160257731944815, 0.04245207933444073, -0.012434749502706153, -0.01630666417296531, -0.015058525480466583, -0.09452921067769197, 0.06493196750253247, -0.047387714219941285], "bias": -0.016138443897714}, {"weights": [0.09633840902903613, 0.02379992020831683, -0.09378785226124885, -0.03102111837849741, -0.11044986268570435, 0.009972721538277418, -0.007819359728398492, 0.0785582279167507, -0.006404176176073216, 0.021082179969069085, -0.0740374523046219, 0.006886301968732809, -0.037401917856913956, 0.07972377804898376, -0.08333287377327693, 0.009214132841991737, 0.01328115712172701, 0.010115160442465332, -0.06150439884503988, 0.026320699200922715, 0.002490003921319868, 0.03426553334705714, 0.03991592351963616, 0.08087048964972578, 0.04678165998001721, -0.01184889056555586, 0.07608373204045688, -0.00020116760665164616, 0.03179841320333673, -0.11439972720682283, -0.024203798249132435, 0.08131833720755548, 0.023450899096409367, 0.049777386033911984, 0.05748564658854681, -0.07082075012943433, -0.0077770768426801695, 0.11936358365315519, -0.014123953079327454, 0.02872183263232492, 0.0046947843492399395, 0.0447367897621488, -0.027387840471973107, -0.0634047549727373, 0.1278906200203671, 0.02263418164867175, 0.04811449998131517, -0.10141765557743544, 0.030952509829786333, 0.05745754469923241, 0.05554363011784354, 0.03465678797654979, 0.012178070656728575, 0.0010274775061038855, 0.04786967703277274, -0.0514514284735258, -0.02280258385396173, -0.09647346020671253, 0.04119480913223081, 0.04885659151243659, -0.0209811977411625, -0.05896291754323906, 0.0037070918378279607, -0.006190834505232875, 0.006413722170900902, 0.02129412790273719, 0.1026226652103151, -0.02256744828378247, -0.04981151302488185, 0.01741531647116134, -0.020916545208632214, -0.008220938935678037, -0.04931443796844779, -0.06455929845350808, -0.08630653051009299, -0.025207227042866716, 0.026122442234047052, 0.012251914633177288, 0.07650833112378123, -0.0964581036333771, 0.039749174836381324, -0.04610241288749901, 0.08740249879439954, 0.013414803189774824, -0.009508378995343118, 0.016547298997281263, 0.031122188768988805, 0.06563015323180438, 0.07334519094556899, 0.04638208346994728, -0.1133206576004947, 0.03977196559474243, 0.03277257284198762, 0.021171868813685324, 0.050565005274654656, 0.0077136615860167665, 0.04984667752273287, -0.011977035398872866, 0.00680609736592179, 0.036406931353142505, -0.13842981291411813, 0.04022987471215969, -0.013015561233813996, -0.0290074098946502, -0.08225990953123097, -0.08329176936589619, -0.008850362380507858, -0.011801601442158432, 0.09185272394391425, 0.0003653594016697788, 0.007142991133627296, 0.08879826884735262, 0.018752390662785428, 0.05615948503402177, 0.012361020067337226, 0.008744672189241383, -0.00483093167968348, -0.029654997871932022, -0.028755428799310423, -0.00017503189386473134, 0.10989907851988039, 0.09475261395550681, 0.10247545117574669, 0.0467708459628922, 0.0351095377575758, -0.01214810912744126, 0.008129275166468655, 0.029566999901549963, 0.012352543517181472, 0.007787890855005873, 0.0070558210698627105, 0.040773409034721646, 0.037445741298067305, -0.04696864866663858, -0.005173673037077375, 0.09718176131890059, -0.019386557990152223, -0.1279337485152278, -0.02693264723612807, 0.01780655485435519, 0.03777218126242233, -0.018087682336490767, -0.020136694707026618, 0.025889971082229395, -0.039058597453366026, 0.013795739254236375, -0.0377976529406025, -0.07853362032948434, -0.03476253199504722, -0.02847983179212341, 0.05697123788055941, 0.0717718094536237, 0.0704813491001567, 0.0803582749536376, -0.009102818698611282, -0.009455049729189506, -0.006937913366326987, -0.020312152113188573, -0.03279787536797481, 0.03894941471259175, -0.07052440459007123, -0.046851732980887954, 0.002634278891856321, 0.03366843786437201, -0.015176140016112906, -0.04099071696064468, -0.02922481754935574, -0.02619750902931415, -0.003977189275052127, -0.010707612689203408, -0.06073675795106843, -0.060163508671482235, 0.08937952501093298, -0.05791704513786498, -0.05607555700175151, 0.03284502082479004, -0.02560596149599358, 0.02298270524499059, -0.04608651200506131, 0.05195878688568957, 0.049947693692273566, 0.011508806013614667, 0.08852460527641293, 0.12938614556297573, 0.0614160181097927, 0.030813934866708196, -0.0016131604878102787, 0.1119425438535166, 0.015086922227167246, 0.04750744864962897, -0.02538960050149299, 0.04246371099703612, -0.0133477646815035, -0.038343424847802, 0.048406037105499525, -0.012925351176916277, 0.005972275169005917, -0.016869243122877287, 0.09592305952344257, 0.007767304350063677, -0.08103594735405976, -0.0463323636615601, 0.09035015582314905, 0.07414885470657795, -0.047821901312460724, 0.026763451363751287, -0.0234569152837957, -0.10953926808231129, -0.05902011562954329, -0.008873002150436222, -0.010597145345057719, 0.05560888092703343, -0.06623475837630789, 0.09665555190236308, 0.031948637032397524, 0.10943120493851617, 0.1151598513493774, -0.04239629510521002, -0.06905989946954727, -0.049989001073385934, -0.02731316913109946, -0.04066981152483542, -0.025466872629506872, 0.0340653514601889, 0.005423730531678871, -0.07618815008777736, 0.08900497660183293, -0.0678507810466925, 0.010872241829334653, 0.07296839566663056, -0.05050503239374901, -0.1304732699770367, 0.026686291871151742, -0.046244079586018325, 0.10792941791116596, 0.09384964297400736, 0.050350960431473704, 0.08106836785782197, 0.017678359624394503, 0.03572908563401338, 0.01910777844816871, 0.009803449369806294, -0.019584939653358554, 0.00785320119848835, 0.05710919484600805, -0.09403267727347228, -0.01378971071946206, 0.06626542781182093, 0.061773367440547435, -0.11640658020159639, 0.026140523346106975, 0.023082046421907587, 0.00048538701578032057, -0.004814105306790137, 0.02148117779096203, -0.05391991331859177, -0.046000671521129265, -0.007524678391701124, -0.023805164064203167, -0.04486031588222392, -0.0346543219331708, -0.009597324024394619, -0.02883745186069085, -0.012256302752912729, 0.09780347252035454, 0.06797829055317804, -0.051339248251850766, -0.0279935692020599, -0.05992363204755306, 0.034716747327140265, 0.01391430401128428, -0.024125022541360962, -0.028524806658009525, 0.04877707845908855, -0.06136564006376046, 0.005891844420350811, 0.059575320659116915, 0.13181572956608092, -0.07865294768550195, -0.010084928910399315, -0.046866551261637406, 0.0038581947110220695, 0.06941206810680607, 0.09037807918242745, -0.08381992826694147, -0.0630402741831784, -0.016039641754884544, -0.046176198258752854, -0.03458678103314191, -0.025657851507758865, -0.10487336169550145, 0.010885514112997994, -0.08086122691033817, 0.001517143684031695, 0.01498896227331762, -0.19256085357549102, -0.08112169379414706, 0.05568246754937644, 0.002866403497771169, 0.12518318102329398, -0.11062401174735235, 0.021868617890887516, -0.01838446558643724, 0.059173023988952626, -0.015901238786266366, -0.009249707764346414, 0.043174868294724486, -0.045973139555428734, -0.052878647485809914, 0.022879195102503812, -0.06803002017875015, -0.03567335089156396, -0.07164760610408695, -0.0557834808695547, -0.07824227390404793, -0.06799958217790145, 0.028420324294558673, -0.13466758546351476, -0.0419645345039184, -0.06575856642301987, -0.109639473639871, -0.19596230208466564, -0.02711498843589031, -0.14064802379864286, 0.028976972944120466, -0.045523426666995055, 0.0617576574603502, 0.014370363042227522, -0.024047681489680676, 0.04598518850006224, -0.09354199827184588, -0.08381596890710323, -0.006028083973992524, 0.05613006014076507, 0.04042315741621681, -0.07529084557398222, -0.06437980251285806, -0.0035516076128770144, 0.0536956120839139, 0.003227438337920202, 0.003995080587480065, -0.0719398904181446, -0.05368578872767272, -0.07975773797587016, -0.1120192897995825, -0.02835553808279002, -0.10701826135601922, -0.030114156614406393, -0.13195112705968096, -0.08261505718517663, -0.052444088074110926, -0.06757198772436088, 0.000759890688645091, -0.06752873135269018, 0.11102622427159708, 0.004497132692813709, -0.04232911214369257, -0.0724218838448016, -0.024746382374569997, -0.023075064755932365, -0.07137682599666018, -0.030963416251743134, -0.007081655206938143, 0.020015753725246423, -0.005836834550557103, -0.018956104333689192, -0.02900410381235773, -0.04733312180949333, 0.005770611619639485, -0.03474740706798145, 0.0017416772504001482, 0.04283569041828694, 0.03286287657126729, -0.08866242355242192, -0.19636234400381886, -0.028116035655396842, -0.0976121911769267, 0.0340608041463812, -0.1638851390552007, 0.012543748786990454, -0.0033285335723423804, -0.0032953201896161093, 0.01969061981247499, -0.040023628303297566, -0.01273787124976153, -0.02451429322785007, -0.04216442670704124, -0.1478230940061187, -0.01476832492990349, 0.10083972341335065, 0.013548993548588347, -0.08820672527185784, 0.0361675940354353, -0.06395066428913095, -0.02664461976781308, 0.02646697226598455, 0.030723296741131088, -0.09905455612287159, 0.00308093865802888, -0.027672418324090505, 0.0331759911567355, -0.09434653954303603, -0.11773609969981833, 0.03235637476811614, 0.04969422642189078, -0.10570576926793634, -0.021805428575606488, 0.04964981204555483, 0.04555190058081926, 0.03203316173478507, 0.04288650300206846, 0.05450777875531802, 0.03699934955772217, 0.03897916011896453, -0.004307527918562537, -0.0185390534660652, -0.07594863393658864, 0.05180298369522206, 0.034172379755797413, -0.12051240112993665, 0.016918741218673806, 0.032581633269993415, 0.004005133333457915, 0.08474385345717125, 0.01675935103797733, -0.06820443010748206, -0.18189310759554156, -0.04769510674479833, 0.021223505458254913, -0.03585848900844934, -0.07392257774047424, 0.012302213371714714, 0.03217830595594482, 0.12617900103184745, 0.05786532947363375, 0.0035355242793962136, 0.0265737789349078, -0.005987596960310874, 0.01539638525838681, -0.05696198121778691, 0.0023622584906255717, -0.04512973403160286, -0.1414517226333192, -0.10001731071872585, -0.08479328494557979, 0.06651986140212465, -0.013651230635598978, 0.05624003800171983, 0.04283449053874177, 0.03045245661313126, -0.04152036032516726, -0.07592857119493433, 0.05442849985649054, -0.06358715021438444, -0.0015448723436567076, 0.15265903564408895, 0.1280292176090108, 0.10063882467332752, 0.03509733721863358, 0.048789264201313465, 0.054657628782394566, 0.013800428728537673, 0.04059431109726465, 0.06529956137260455, 0.04931234589321038, -0.06290067930364936, -0.026917382079472557, -0.1474700100808531, -0.04822490343618864, -0.04344173609883127, -0.07084253331159693, -0.06299363099100638, 0.01814906389581049, -0.09468922153195236, 0.06759121631377239, 0.07891351864243266, 0.02967384349031764, 0.008055576811772847, -0.0353607520456485, 0.06918408388559245, 0.01869006467204766, 0.06448378749517769, 0.04454884810096188, -0.006643801850801661, 0.10620346480055828, 0.04432292497088984, 0.023747642002380123, 0.10882022851955038, -0.011103029671941291, 0.0588004007032106, -0.06118178564543876, 0.05094056598680212, -0.03741372386073789, 0.017926837823465228, -0.03999509217908816, -0.008276652676876358, -0.05093767440753096, 0.0010844915810570076, 0.004376493952682217, -0.061156201387219285, -0.03999851054155581, -0.07112443219741829, -0.03521982387106071, 0.015639676224892075, -0.08352540502233845, -0.008319861035254391, -0.01840868122317602, 0.055833236184442615, 0.031755816829672365, 0.037756453658528887, 0.0571515983133424, -0.006953819860384322, 0.021020360060038316, 0.015095662880038132, 0.07788648277082216, 0.0315802886004054, 0.03816080079095527, 0.07069859960430622, 0.1298666974283273, 0.08707669915017391, 0.0130102159783364, 0.07343129096161372, -0.05885138924054983, -0.04069684649163765, 0.07659626174917503, -0.000273051524065179, 0.0046265144750179295, 0.02577834537874974, 0.1188074709777026, 0.03518377737138033, 0.07148314242729986, 0.07351400323980985, -0.07845043451891713, 0.00977417409286841, 0.021925615183896, 0.06857887264966235, 0.07241459914792193, 0.11832807452339607, 0.06928726707741974, 0.11572239653594023, -0.020387217324087308, 0.054547805285090074, 0.14476501671085087, 0.0057383625436433746, 0.07493375746733226, -0.0009309365911225954, -0.10676071334852281, 0.04888173138850197, -0.09150893507690104, -0.004847504682206387, 0.008337434146870134, 0.08617181406653594, 0.06292369335458597, -0.1018335751657994, 0.05032647135944234, 0.0340608347081749, 0.03673378895564272, 0.11254551741635675, 0.00901297862143799, -0.0633715260491151, 0.018465517907785823, 0.025431438595586563, 0.00435631239551065, 0.1066681489230608, -0.058372735207950326, 0.06536975352380554, 0.06940250137134558, 0.010011567403700024, 0.044653346185714385, -0.01139346755516621, 0.01825244740717604, 0.020626126901089597, 0.05633754877950747, -0.07880744720676765, 0.06958180470443688, -0.08180550827857781, -0.037518815473870766, -0.02972055503102384, 0.09184588013476677, 0.03384791966373872, 0.10175993096729614, 0.0038093209265630972, 0.06284556394129862, -0.041871976472481025, -0.004782855611818109, 0.027401624993162805, 0.01200959235888471, -0.01730234152684746, 0.0665357900825161, -0.06561191496782995, -0.061404834465613664, 0.1299205258297748, 0.14527734585719798, 0.08517931740230039, 0.04694418766786217, 0.13146079095631255, 0.010956964359681803, 0.0021415356700812895, 0.008867958559913743, 0.0003336698137609162, -0.10644215045132016, -0.037879083718644145, -0.12093514027361964, -0.06656263667725301, -0.09647905657331662, 0.014518078519981385, -0.03717425972217489, 0.05152859437737028, -0.048296525096332935, 0.009397409335389894, 0.14024986847384052, 0.031344372373723214, 0.1007928485445551, 0.02480856886675775, -0.031815755391736006, -0.04401539051397815, -0.05883596308934252, 0.01905007672249494, -0.030870477884021783, 0.047902726818590126, 0.09012640674815046, 0.06565828674147953, 0.08074794442400907, 0.028657720845872543, 0.08042080227449415, -0.018272810816893297, -0.041497759040600636, -0.04819861446909171, -0.060680447236600876, -0.07610342049236722, 0.02333610410598444, -0.07595610675575552, -0.010549845926619932, 0.016398889431447385, 0.011368933517903851, -0.030469538259198275, 0.028556708092020305, 0.008860519865526257, -0.002440880070596656, 0.11195185656823459, 0.10182572977013421, 0.03653750421013365, -0.03938506762982915, 0.0322546717596914, 0.04035736975796555, 0.017324884686350576, -0.025527917050446, -0.04360617344835982, 0.06198009336251823, -0.030694265264557513, 0.03021227262571297, 0.03294848046503573, -0.056079469374285006, -0.02244014214191537, -0.01010314026989655, -0.07612678713031712, -0.0068972680231001, 0.010580228160495066, -0.06340827885541488, -0.03140123243980292, 0.029280601001891938, -0.004231995701939702, -0.026039181723967752, 0.014914916574835686, 0.03926683571229492, 0.034769237445587735, 0.06941271364693205, 0.05190637369206228, 0.004637837235526483, -0.07672564397428772, -0.08621988677236259, -0.0238855206836193, 0.0025722644657459695, -0.06559848082212683, 0.04641200614666053, 0.03421426571134071, -0.016188325327267338, 0.06960404595244375, 0.06762930972189907, 0.02062007951257987, -0.06672074478071961, 0.074369813488014, -0.013683941077801657, 0.06910592383117242, -0.05569515713123688, -0.04538116760298885, -0.07822251427847648, -0.14156449391398282, 0.058913957119809686, 0.06618010168918062, 0.009184995435553973, -0.03134934206853567, 0.05504983683145283, 0.0062110037976704, 0.018019589757520812, -0.07460288924886084, -0.018172882526323576, 0.04150791061614617, -0.006126313697200806, 0.013935440177866564, -0.00010023245900035054, -0.028251182899989933, 0.11754540207433146, -0.021626851940020498, -0.075230533435592, 0.024918225095361887, 0.011365284510223724, -0.01826427153884727, -0.06448218124883655, 0.056786100663741915, 0.0775081309690962, 0.10828432329651785, -0.050509635770796625, 0.02916468720729447, 0.07793126738615071, -0.07029133241112807, -0.03674554727632073, -0.0547667755676386, 0.011382516045014956, 0.06720081100631843, -0.07413077421862706, 0.06598541730374108, 0.07975900649315262, 0.014293128706466582, 0.021236028186954716, 0.014754412337973154, -0.01604860811700116, 0.0383653607131452, -0.03496149383062865, 0.04557173055977643, -0.009458085367903409, -0.013505521666214167, 0.0168670124779518, -0.04270627799300007, 0.030534785510335866, 0.07116915820334627, -0.013355353493854366, 0.08119403386966369, -0.04515706535387551, 0.016436138502092544, 0.03389800612892669, 0.01696111741109795, -0.09189418977257721, -0.00719299968284217, 0.03252326708914898, 0.05056607881677691, 3.2433287696182604e-05, -0.036905037814661416, -0.030093100526041465, 0.03189830470495942, -0.042446237903078415, -0.10037447932414122, 0.028474832025374566, -0.0821167978399466, -0.07244353644379234, -0.014955214176351145, 0.00834732430440565, -0.09688097533423538, -0.06441633822375126, 0.03983463831540778, -0.035978607797220015, -0.06062950753579039, -0.015300462522991375, -0.09059183122728001, -0.10291144371504843, -0.10629941655550532, -0.0015355283837692295, -0.0877069318718266, -0.0014234763327154528, -0.021046513776420864, -0.02672223241274955, 0.01588420739344235, -0.07437692004926125, -0.06367948938098636, -0.017977107501085308, -0.053828563697674525, -0.06727714810432818, -0.03356908100415053, 0.03259187739629038, -0.04828346452555104, 0.06157342636812645, -0.0683918408606051, -0.05236576655210002, -0.12389798903645748], "bias": 0.008929755621232934}, {"weights": [0.04659434733343631, -0.057605404123018615, 0.04941888292233312, 0.12309710444265223, 0.015621240548216613, -0.030391415537407165, 0.0761667231929866, 0.038678237636857446, 0.08299831424684023, 0.06992205099268382, 0.08261235015482328, 0.025433072700874488, -0.00458231024584957, 0.05728409197185817, -0.047310664371011064, -0.03601212355717014, 0.0603328503462745, -0.05515114787511566, 0.0032291969043714785, -0.03621662443716965, 0.019304177939003526, -0.05015114231981276, -0.0310325179937223, 0.01684138551834581, 0.006780618784355493, -0.019750745281880887, 0.019319984213362097, -0.08074087579540586, -0.003237178114973212, -0.006220786010144841, 0.05601392687270268, 0.04617156465669877, 0.060870181568811944, -0.0729398752885301, -0.003883809390065999, 0.016209497885952506, -0.027771780573197336, 0.009200727298054403, -0.08939957698992895, 0.0046033592970400345, 0.045565516434007344, -0.08322558716915593, -0.030736114154004013, 0.0036553121852001087, -0.005991114173614107, -0.047183824210971274, 0.03778913072527342, 0.008781309269182877, 0.0093086145411348, -0.10444944555301831, -0.04903985324608905, -0.0018123550035014885, 0.00564469605893299, 0.046803947834594, 0.04592037714954419, 0.03663694653572804, -0.0544037373862847, -0.08209584449381517, 2.012255297843487e-05, -0.06448249601305193, 0.007452759320385487, 0.09204339077452339, 0.020185008437854892, 0.06363270859384612, -0.03173647041437125, 0.04693436961702077, -0.05315334958870283, -0.04161603316818923, -0.0678200286438114, -0.10756852367856143, -0.04093514470387845, 0.012779427310104383, 0.05802399824071838, -0.001950869734883603, -0.0701596219563653, 0.12279497977802713, -0.0030018658108002714, -0.04183049963861746, 0.0052921623750097286, 0.0690886169214022, 0.06647435831561174, -0.03025318165055296, -0.013286586613318323, 0.07510905183300576, -0.0298673286846324, 0.06756373570589659, -0.06437864657569731, 0.018089013199374598, -0.005256155492629226, -0.009430234778184816, -0.012675578004702903, -0.046384934160345045, -0.0600193560603386, -0.08815236919664513, -0.0006784676099951242, -0.002178964613585761, 0.026726185616598296, -0.024815206240415867, -0.02331898159697897, 0.05320218585963042, 0.012359909614206235, 0.012216670027652594, -0.0705362723677831, -0.006609694545527751, -0.04196122947260472, -0.07884110924305258, 0.03354163596910459, 0.10708366840427193, -0.04301282893569524, -0.01204139471523544, 0.01799082560676228, 0.006317373959222969, -0.009556175630901971, 0.02402538884873112, 0.04340550019888875, 0.08521555731073419, 0.03864832268953385, -0.057629486997959854, -0.013945226084917108, -0.008765357575842327, -0.03488792051269451, -0.06649521160049957, 0.0372274948407425, 0.03551722398508743, 0.055298495778226806, -0.060044372085400415, -0.11620792913550075, 0.008870873787673806, -0.14821311067176252, 0.006627488631162943, 0.1004391188835926, 0.03250013753698856, 0.06402002280599849, 0.048030183937713904, 0.014898171685474674, -0.010416564071595072, 0.08136445551731783, -0.04111089654741543, 0.005647280553252552, 0.006405189517104688, -0.019447384980048533, -0.07341593406293939, 0.06125705282433384, 0.05900479974565884, -0.06226161592432368, 0.06562942120266761, 0.01735814982387981, -0.014145348770837401, 0.013477235934543913, -0.03731581419323547, -0.01725185915932691, -0.01395104036115588, 0.0022419178163708667, 0.0441545139976722, -0.026470423380301488, 0.018097973574564597, 0.005307402747589616, -0.04776013175725591, -0.0035330635113912765, 0.02652000189988275, 0.08169099042357932, 0.09489086082390935, 0.05642174429606418, -0.09485209348243773, -0.017383058153040185, 0.008521757005295392, -0.049920958701306285, -0.06474241850417646, -0.043509624626506906, 0.037891421864170834, 0.016045244505102765, -0.012648804343413027, 1.0608208647615203e-05, 0.05597596035799451, -0.004191643049405997, 0.014659743337621382, 0.09202497875452247, 0.09199324342025553, 0.014488270572828924, 0.011905923510099904, -0.1143185413710185, -0.010689632395496232, 0.07230444120549197, 0.03453569624741824, 0.10375097957623361, 3.0020229665091622e-05, 0.0496181593912879, 0.016145163120031232, 0.07426378135502099, -0.0819341180139156, -0.050543037349446714, 0.0776042506532623, -0.022386711768763973, -0.01509191540003734, 0.019486470929382948, 0.029718901335746707, 0.011363234747024477, 0.038093171615033485, 0.037845992811184594, 0.1152669394982062, -0.03554994972181777, 0.12772233114913412, 0.07828448860163205, 0.11488453082208884, -0.031445847016958836, 0.026506573244212735, 0.001103841228524037, 0.09685677154188913, 0.04417523389268948, 0.0086083322380949, -0.02149511558278274, -0.04117793554324619, 0.009203879409622124, 0.05972909050184829, 0.02068540747063913, 0.010357309161001905, 0.009081563184212374, -0.013869542793789389, 0.0748192059422494, 0.0027462638505585868, 0.093227245341851, 2.6182556466920612e-05, 0.0032338761754385115, 0.01862756556012866, -0.11550854892825316, -0.09010802697562394, 0.025847397150774304, 0.08157500932392073, 0.0381447264328099, 0.030119280485714446, 0.11259667663775112, 0.14333195321470468, 0.17465576107492312, 0.10851373222126859, 0.04734711446586619, 0.13817052829047166, -0.012294745042923952, 0.12288762100383543, 0.016782392381655888, 0.026480422097491053, 0.03989350563868783, -0.03588540310668943, -0.037113520616542356, 0.005895032782998361, -0.07701591713463687, 0.00930603796058123, 0.0068378458043873306, 0.016133202426728444, -0.04982567990710978, -0.04970999958593627, -0.04679398262634804, 0.0195662498705228, -0.03391981805217466, 0.01482722660163208, -0.001974375232557112, -0.013020190498423945, 0.001745474667839135, 0.06691380567091791, 0.1837076390063505, 0.07321235102592263, 0.0021351035336498922, 0.0017149092528779299, 0.07084738563185781, 0.07082182389523854, -0.04218312803575539, 0.05499501836768314, 0.06480265462146981, -0.035896259134528215, 0.06889327673090484, -0.04971287576771132, -0.013971846565058971, -0.02670343064236292, 0.04722632903587976, -0.013215025487004262, -0.026428682752625405, 0.04139809040318658, 0.03552266180906501, 0.07402456069564885, -0.055214286180609674, -0.007958629906660035, -0.015732660278038362, -0.026169385434079293, 0.042418054018094856, -0.021388616955571597, -0.013440975615727492, 0.022812919280863663, 0.0064601699394022044, -0.06317166460520193, 0.013356251212342064, 0.022099528769574064, -0.0395361458445913, 0.0628557179515943, 0.025712985513207408, 0.023110772323920017, 0.07855696097154215, -0.0541775058693232, 0.04521822765996012, 0.03158125174985304, -0.06285159964994101, -0.07675484617435745, -0.04072421527855189, -0.06942267443604612, -0.05669213380701739, -0.05376663059322636, 0.01620057845615219, -0.015133977615199521, -0.005366602833683095, 0.07747491753319383, -0.03175854775486792, 0.04597161742629454, 0.07307214290688556, 0.01206912541036408, 0.05655289107016684, -0.018461339282875786, 0.08317277434969197, -0.03137866222529775, -0.01399452923215004, -0.013402551558850189, 0.027442966816763024, 0.0713130410783685, -0.03992413830547081, -0.015323534129141262, 0.0462358556080097, -0.03547377550313167, 0.059928837034276095, -0.0026298926768885587, 0.026356365383957577, -0.012080371815340005, 0.003150753570904534, 0.007403015915838604, -0.07277222375316492, -0.04747578695307979, 0.05245614306826576, 0.01836003418359609, -0.05217230797249689, -0.06966761368530959, -0.07980170266139162, -0.009330797560080664, 0.030722481135974512, 0.06945381382509472, 0.0708024975010886, 0.055283111363301426, 0.028489972145559643, -0.08967116628644103, -0.00897764673660179, -0.028026918356177637, -0.09163695564147349, 0.0358709489047023, 0.03686439652730835, 0.07648198040864793, -0.008277262433321012, 0.12103498920034081, -0.06446463328155803, 0.0053179859243999384, 0.11879552085258578, 0.017343821648078555, -0.03656129840649827, 0.05120019059152452, 0.014812337368495567, 0.025532913038217836, 0.0318798260408715, 0.06820501384527293, 0.021323419510318277, -0.12878404723447567, -0.15500430671323567, -0.01048479627400611, -0.08413288876415684, 0.005689423110230283, 0.03075020079143633, -0.022496257108429007, 0.018880899763496595, 0.025247737144832933, -0.03276272851972108, -0.0736279355516133, 0.022729627768675025, 0.10556584498477509, 0.11596192864809543, 0.041717876849472604, -0.019811431169400984, 0.07147528213703226, 0.048082988253999585, -0.019021053676624405, 0.0466704470815514, -0.005604864431996219, 0.02130207999533267, 0.054499332550938424, -0.0590137511751368, -7.600705748965989e-05, -0.016944809515743356, 0.06429501841485535, 0.04119519421624616, -0.003481490873775646, 0.05108057015192127, 0.05377467263232686, -0.021555318821455706, 0.005337673116672352, 0.06946249142187719, 0.0013769883995417786, -0.06706206935238228, -0.08450468453265242, 0.014013436868951476, 0.009910969491008968, -0.05559731057945988, 0.023927166718692272, -0.022012146756182148, 0.01526595199361654, -0.020105931665176234, -0.08989606712227309, 0.03731336542308406, -0.06353770156030142, 0.03007093133652225, 0.02136055132081276, 0.010353846648931752, -0.047061890873787746, -0.09935557572347643, 0.09137523368378224, -0.010606859136781298, 0.0025798753768791634, 0.06947432176377204, 0.05672787658714004, 0.022539592317561318, 0.014304515149369184, -0.014560709340569203, 0.07909679034309011, 0.06313841426650282, -0.045704001174796983, 0.0274349239220275, -0.09686444813995457, -0.07973206707073434, -0.04813284320992198, -0.034051841188873694, -0.014670302499158228, 0.017053746029627007, -0.025069550970168247, -0.055587502433129383, -0.07846272588524499, 0.0198524665457671, 0.03285362692277948, -0.00630471919566991, 0.05779569548533751, 0.01225085737343721, -0.007738025029547272, 0.024804232049183677, 0.07658536744107035, -0.024897343703010784, 0.005716138463926339, -0.05632776512800111, -0.029967452147043157, 0.016398156785532705, 0.07619765441247997, 0.048680953292427734, 0.0029060403430728444, 0.044656568453926716, 0.04751092493868652, -0.010581501401388579, -0.07841261689517763, -0.10719664246012792, -0.04703478521001013, 0.014579414739921654, 0.005350701909178994, 0.012423351870366655, -0.03842812791285576, -0.0497551640755879, -0.026250051896186125, -0.04105178331036145, -0.028471049083082282, -0.0351535722860782, 0.054565165083372995, 0.059282891999958925, 0.05926352273932066, -0.01195562757608073, -0.0008125077453914811, -0.021606347472613384, -0.021501572463697764, -0.016285003370835282, 0.0016163849569704337, 0.00715300342190449, -0.013495522706834727, -0.06085716559918496, 0.1348738044294297, 0.04962099971179333, 0.012031161144639065, -0.10400693621470257, -0.1256101667219726, -0.07662636552090421, -0.04480965204907249, 0.011999947290213534, -0.038192407281333225, -0.034332919958064215, -0.025324372557531068, -0.0022617816133334886, 0.09033252671560556, -0.006601252089881964, -0.04690797128006184, 0.03024349489671669, 0.13288298710679766, 0.06893067965804595, -0.001572280609508363, 0.03509927460729302, 0.06698774452798614, -0.04696568794369973, -0.04191158232475088, 0.0642605498424158, -0.006969496752331518, 0.013148412032752495, 0.004546477175323124, 0.004528692074399477, 0.02166655314110941, -0.01515284661097405, -0.11776026845675702, -0.04465065801762897, -0.13928550024928027, -0.019383010864243388, -0.06843969831901874, 0.03249614557625972, 0.05041706717971717, -0.1520658682458078, -0.09312938301989672, -0.041526144422548594, -0.021748899558105488, -0.007242159646601631, -0.1018864721862775, 0.00903286922352486, -0.026018941078334204, 0.04370268165612049, 0.0738860055647837, 0.02327645959464474, 0.048271493933438304, -0.018978880708573613, 0.02638516254436704, -0.042476626630200735, -0.035752789296273, 0.0744857239337039, -0.05466806156468245, 0.006337152704232593, -0.02442163123106087, -0.09890217245430895, -0.15058874256566826, -0.017622883309099394, -0.011300073163506426, 0.01411157247417438, -0.0704403205009053, 0.019124204804697145, -0.007037910581535872, -0.043465015757294286, -0.08093119364425039, -0.1025447214105574, -0.030567148563232838, -0.13339739937405773, 0.0621190146457149, 0.012941955808470974, -0.005133234081121982, 0.054096564701788495, 0.02028312924843807, 0.011992069864685389, 0.03385948847407025, 0.01774980710094162, 0.029520243019014337, 0.017682450632660354, -0.034427631141370166, -0.049434189575635876, -0.050350255477759794, 0.014889032812798316, -0.0621926471663833, 0.02122741023493726, -0.05659539574834225, -0.06341202230076402, -0.07811550989195287, 0.031838229794209444, 0.013803398437280552, -0.08640772311734804, -0.061794245915030535, -0.11312523425477565, -0.020230540246019484, -0.01617619326407185, -0.014600229043099232, -0.01480109592411897, 0.0287738172219519, 0.011548982888161832, -0.034376457624900714, -0.017267906538847508, 0.00994766828991348, 0.12370148368744001, 0.07137577964771384, 0.1286709566288673, 0.05201186732869387, 0.018683680844284605, 0.06351651071109922, 0.003444835795624748, -0.06027426301837397, -0.09407342879630208, 0.044964212284444825, -0.09074799239651656, -0.006571823840747998, 0.009550100258733988, 0.02240464399930088, 0.016391823360994245, 0.17652651373051767, 0.008293212230980144, 0.019651295628241573, -0.009074152226815773, -0.0702831312230061, -0.07579330059347396, 0.023487867547193796, 0.036877007560083594, -0.08326990772904132, -0.028614567445280396, 0.006328561444162676, -0.048777788781918595, -0.040214704296357914, -0.04937253957400399, 0.02083066175141067, 0.0319656554954639, -0.07503336842793337, 0.05027260183132837, -0.005751013108580086, 0.0750661316250307, 0.06726157687793943, 0.0011257695104104275, 0.041534244500476915, -0.015397256994723966, 0.046031048682069274, 0.01342625801284507, -0.022042407576100657, 0.02993638209390464, 0.05944928484023208, 0.0050738450050022985, 0.01461114580565039, 0.08994610074803991, -0.014121752193936549, 0.09170801942820399, -0.02898102367346652, 0.013796739971498048, 0.08974962532876538, 0.07152862984936605, 0.035632546639505894, -0.07382710349126871, 0.02033505900126661, -0.03526383781532192, 0.03779249295321731, -0.04505671209842646, -0.04500025855525509, -0.086555658419775, -0.02499415979792503, 0.01827486049943712, -0.019105731747708056, 0.08876160722420688, 0.010996287218558925, -0.0164471506373949, 0.08913363761495363, -0.047963957772619276, -0.00774110235220952, -0.035016607924225215, -0.01140173019077882, 0.044085450391840815, 0.05298316857765458, 0.09307068925698027, 0.08117968771844809, -0.03937746686590115, -0.08103296167493085, 0.1444402938322118, 0.04629923266203451, 0.0955163840976205, -0.04198570592677461, 0.08612185502262533, -0.029681950937278278, 0.06389623738500257, -0.009451564063231405, 0.004421598874299723, -0.07241009661378525, 0.011993207473462587, 0.0516440356057112, 0.018702606497357815, 0.018759946126965327, 0.09801426122961196, 0.06806034685784222, -0.01250601323133546, 0.05573133581206518, 0.025952619645864032, 0.0014453263891297924, 0.11027969984489046, 0.06348291231407316, -0.03530848763843371, -0.0005267932260077163, 0.11076788268521388, 0.12827288067459897, 0.15567066341917654, 0.01481336489153295, 0.14037910055271577, 0.08308542157113435, 0.08815627550744314, -0.030831397762870052, 0.05621174795064543, -0.07507119576265536, -0.006973666378201658, 0.0395541356333858, -0.0036872642054506647, 0.014598627061763219, 0.05987056895902125, 0.0029153567405013495, 0.08582770299914078, -0.13351999169163317, -0.010870326067009502, -0.029237670098545648, -0.06914976696129292, -0.03656603785046544, -0.006899425148555521, 0.04729251490606515, 0.016422774189307553, 0.0069938798878104785, 0.0437971592745725, -0.02730516694793729, 0.00263507183612052, 0.05593432517224288, 0.008563296056779043, -0.09158949313251025, -0.0026836189042430685, 0.14367934273988028, -0.059215701698238164, -0.0314679665427916, 0.043419407835866404, -0.020841039041681237, 0.03646308882786378, -0.03086761266182388, 0.024990506957666737, -0.013935937052710696, -0.07629581245630121, -0.0008428712740531813, -0.049179128758842866, 0.0322858188491412, -0.06739955406508723, -0.039425892966958705, 0.019595485965857733, 0.06410390308151154, 0.03926803802419869, 0.08072354759470346, 0.021469800357789157, 0.04415871672449424, -0.025140189914547806, 0.08188021697234803, -0.05547784049339688, -0.028508515068275567, 0.032049088182860834, 0.03281985207547999, -0.0599510064135988, -0.058824169455248786, 0.04424579643551413, 0.016703021751466547, 0.0496234721356059, 0.03024073542984138, -0.05115632669355195, -0.05279303294493765, 0.06362536322407925, -0.035809629603374686, -0.026642241539032684, 0.005467265062687564, 0.04074961202329787, 0.02811502259846636, 0.015545862919625396, -0.005562081847514491, -0.009789944319590111, -0.002873577893737867, 0.06594412591606469, -0.05538354702024014, -0.006339938968169732, -0.11705296772469331, 0.03873576550466696, -0.08348829150367207, -0.07923131836462868, -0.05825981249364223, 0.030987302876513283, -0.029257727555521983, -0.0410775232976845, -0.018644944234845345, 0.0710995113184539, 0.016798877705849608, -0.04171137776724645, -0.01575985500744252, -0.06081148550539672, 0.040992522903009566, -0.05726697063756959, 0.025525413529834264, 0.04601010474023027, -0.005407157362576585], "bias": 0.02185557872535054}, {"weights": [-0.0660020672967454, 0.023581381095737295, 0.022861876209775322, -0.06352172267296675, -0.058362750726043654, -0.0605300959987046, 0.01835953010884627, 0.002243059274194648, -0.0012998562104417188, 0.06069275467761378, 0.08789574612812984, -0.01983849849814828, -0.03022098696656755, 0.07487244231006697, -0.04668354888980209, 0.07407305440722874, -0.019273633764614388, 0.00014367617845580414, -0.05762749322407597, -0.0427345849051499, -0.02240655316037416, 0.01967292469674907, -0.049264692421161285, -0.020084101416591844, 0.020397633122342933, -0.068125408796308, -0.04895425825472285, -0.022423024333877908, -0.02633413064744616, -0.04189074356366021, -0.05092710799228119, -0.06087463256699102, -0.0467412213556806, 0.03655015755498923, 0.015928394065177334, 0.016126047984407962, -0.007920982971666614, 0.09390760123555218, -0.014181676868268931, -0.005933710522434892, -0.060413924462721626, -0.08342007021378539, -0.03480888646835091, 0.013802031513538733, 0.015108956678010025, -0.09124007269858236, -0.01962338077728166, 0.09993247263333774, -0.05375547714600892, 0.005025502394451027, -0.0862665743415659, 0.03174424454068511, 0.021198912796191818, 0.057617813191612105, -0.04162644818879956, -0.042699944704685466, -0.09598918017283216, -0.056612715540191816, -0.01098251759205375, -0.036697889843761156, -0.01764044415259138, 0.0016229789561659127, -0.016364367010392806, 0.016721874773576874, 0.09486742315850089, 0.014935936793149506, -0.11102526922025607, -0.0948877661133264, -0.04387408751963045, -0.020559780218733573, -0.010052864291839112, 0.0614574092449157, 0.07759982852115076, -0.01956186469574616, 0.05461990491555279, 0.0698407750828699, 0.021624735072624277, 0.03603194504755664, 0.036747725981894575, 0.03208027523474742, 0.019043327742952778, 0.032919975589479226, -0.010279520984179585, 0.058201958934207924, 0.07286104461012992, 0.10334517853860635, -0.026164778544950605, -0.027988820080353336, 0.008358227227923122, 0.03299102433312004, 0.04774697942020916, -0.021051805198669643, -0.05948575294724757, -0.04480578643589163, 0.02080485003643432, -0.0138600339698713, 0.056185851802266, -0.1646722294005137, -0.009742048212639666, -0.11761396633672583, -0.005626735422753484, -0.03703483697114314, -0.0797003869009817, -0.0315806535456438, -0.0029095657717001515, -0.07374902966155888, -0.07700342644565307, -0.032283419642769824, -0.002220371032352833, -0.04023637596804774, -0.037306695616028625, -0.03286780516296924, 0.021544050541904773, 0.014423294077016566, 0.013201505722527767, 0.02900879280416968, 0.007299932927828398, -0.05044767938808767, 0.02036223613164373, 0.08333890693600642, -0.0782110388391244, 0.02038674917961307, -0.008495938491593635, -0.08257978919413532, 0.07458490244469114, 0.034472534801685134, 0.05327868244657485, 0.010830453800964849, -0.016805634596052815, 0.019069141903947207, 0.020740254614401665, -0.012897636052088065, -0.07236179762411483, -0.0639936361611599, -0.015567826250693704, 0.018284145215229666, -0.08949152549476384, -0.05959999675181773, 0.03432067895293869, -0.07392862379909948, -0.08850353425860968, -0.0054318298491690484, -0.008249213013873925, 0.02019709819716021, 0.05938158695724876, 0.003087931950292367, -0.014114535526466397, -0.05949077854954446, -0.0095810217051506, 0.09789898440057425, 0.03269719570396356, 0.10583505086773201, 3.053322131481625e-05, -0.0002700970806693966, 0.047620928001807596, 0.061682490909548096, 0.04558428216098152, 0.009819977168350981, -0.03566165724023678, -0.0020113709847257365, -0.007475573712929099, -0.03005209184125606, -0.17475054444286864, -0.13456471563090974, -0.13564669744245772, 0.06331254757805588, -0.01733770127042037, -0.02762521278966323, 0.09491426803493946, 0.09038330706415403, -0.0350315983344619, 0.01568452557790163, 0.031271256137815534, 0.012785933771443344, -0.0777467340945656, 0.09207631965652033, 0.03430760426984455, -0.0083089927503575, -0.010697268407841944, 0.033135384545866904, 0.0557114946915167, 0.1433116262279743, -0.01344785826416159, 0.004570860890268629, 0.15142817417886473, 0.08512117819003205, 0.05030211679992367, 0.018834475455518095, -0.08369676116697058, -0.04825661531893311, -0.09239246439357593, -0.049570507033814236, -0.05991544374092338, 0.002937161699845291, -0.008607495700399866, -0.04062761080583209, 0.06754574386611047, 0.02011904760753048, -0.016745702394160886, 0.05043213719415137, 0.012438091286497784, 0.019476919646030728, 0.02922247318201695, 0.059019686188404856, -0.09412356475489161, -0.0628591051112827, 0.04156693460871354, 0.007306383713167972, 0.03189357603609641, 0.09556651599102763, 0.09850091338432211, -0.003525159132568868, 0.09363105619560236, 0.1190691452888933, 0.034032689427208405, 0.09914164978339905, 0.04595032403224169, -0.07349716746972752, -0.07597665526687147, -0.09290117492317143, -0.09594977811272264, -0.012297409543148648, 0.003135498388873062, 0.03184094757406658, -0.04159439753104172, -0.006450305480927236, 0.026774874104860364, 0.04104633129941697, 0.01616439542204607, 0.008283543669253813, 0.031854634677630556, -0.05261887169785382, -0.014041554816626632, -0.04333436012117695, -0.03595893258886238, -0.061250314482559284, -0.03490879096613057, -0.017091266332023895, 0.11336040678703266, 0.11006127784867158, 0.06133182539222805, 0.08773038666646202, 0.12362875472531572, 0.0004213905478455425, -0.11109608061103952, -0.031604113323832984, -0.12693086449012148, -0.025822184207550995, -0.03212292962624997, 0.03218772498117154, -0.13753439329597153, -0.018127970017379945, -0.010435142370903256, -0.07210539760779687, 0.08206268788062801, -0.027377192725506542, 0.04767677508638247, 0.01930159135141822, 0.01397011293306339, -0.014844378836227868, -0.08303613980060878, -0.10764170456743365, -0.08091379085614783, -0.0005831159881403676, -0.08289351857845663, 0.0026125086334279355, 0.0999308682857984, 0.05310087533685556, 0.0029189734414388387, -0.006636544016192571, 0.050451320717483934, 0.11032391860669692, 0.05011811467236675, 0.05651222636491909, -0.09419298006641456, 0.019253007188251008, 0.020041934892738728, -0.02441784395333819, -0.03226144252448316, 0.04430566296677147, 0.020539150725144565, 0.0822729373461856, 0.07185739794684946, -0.020546097487419288, -0.012087764822088351, -0.013326756822419175, 0.0659784879761496, -0.06027003360775745, -0.03129505000708324, -0.013415480723921654, 0.01545688878977457, -0.07953815898924724, -0.016843007822008448, -0.035436024918324684, -0.02498488989146993, -0.041658646171587474, 0.1344012023486738, 0.05127527112136574, 0.17299903144469017, 0.048447513723770666, 0.0003267030756230777, -0.023268068624074028, 0.08744095077189176, 0.005543614910750438, -0.0762164040742678, 0.002654469561977233, -0.01292757947397881, -0.0009831138559918849, -0.016154060482283766, 0.10398508921326503, 0.04219648714801768, -0.04760094000790834, 0.027516609255163655, 0.008231315225899245, 0.00044958259359717393, 0.017454912160385878, 0.051161190080055784, -0.03254046863112165, 0.01166635088376506, -0.02643531651316577, -0.06357295338787791, 0.06282065965064781, 0.031939846070360926, 0.03225535710005992, 0.022044986277244803, -0.1151371199123256, 0.0012224834361869849, 0.11663022252990181, 0.11597152963652906, -0.016071607806621657, 0.08987989564822445, 0.03503621697783698, 0.024556302546022035, -0.06199351544438723, 0.0521252061909376, 0.010189669510347773, -0.02098660548087608, 0.0227995399725934, -0.06076523120348645, -0.06816518897842498, 0.08168389158758474, -0.030644602659804544, 0.029317339010842387, 0.028227511891324865, -0.032538882438445986, -0.015105184650274278, 0.02573042119274032, -0.04244370010002943, 0.05761040028119082, -0.03491709864228105, -0.08133599777491603, -0.0048883479838791695, -0.013442457010956385, 0.03547869537863851, -0.04022152447695201, -0.013196395462717793, -0.01641857381671106, 0.13865275625895243, 0.00894348937961734, 0.13703102820097124, 0.016910206215818, 0.09995048569616428, 0.024724683171721416, 0.04386498598420987, 0.060121506767730364, 0.04633420178403849, 0.015213832379271994, 0.03310369368567536, -0.024537098446659557, 0.031782591541156514, 0.10208344150032136, -0.004924803149591177, -0.02670223269755395, 0.014301090539113978, -0.01265720972867283, 0.017719629083028033, -0.08062455985721337, -0.008425331106850781, -0.057225295439112644, -0.11270488091971465, 0.00856631358525745, -0.10985270884738495, 0.03581243422475882, 0.020950376248575812, -0.013587046971595384, 0.06232613778385646, 0.033624774831805454, 0.04348827316003663, 0.04890575110494319, -0.10405304431125599, 0.04050256898668343, 0.053923603951577456, 0.0005947912376650261, 0.01853489793981781, -0.016010339059653888, 0.03316127716933775, -0.06458903959235354, 0.06720436202603484, 0.01099521746446338, -0.004563857506364149, -0.006844164425131725, 0.06468248330666419, 0.048012583273718205, -0.04064645161675228, -0.06440456757621801, -0.0431543600927751, -0.14065163208385498, -0.12285407593041799, -0.016646604038858776, 0.032433772593654396, -0.018648433511593752, -0.06034295303988426, 0.0648645308967165, 0.07801012529585395, 0.0006018538139950481, 0.024749053530358993, 0.042765582092684835, -0.05463383530441016, -0.025691804301442897, -0.03864626421583967, -0.03680042495446954, 0.003683741291956706, -0.021787604531977568, 0.0026852421405631948, -0.04801189435646601, -0.0583628683409299, 0.06696825133238735, 0.04327561060040314, 0.0830727495212146, 0.0403292168120817, -0.04172809932611702, -0.03801311412077773, -0.20464932899578525, -0.11572809565039849, -0.21838197383694227, -0.04206607325152931, -0.11531749057842677, 0.017258871370790487, -0.08453756096010787, 0.07900394863964312, 0.010968089029220331, 0.057150771116316196, -0.03501113260038024, 0.1527068000222867, -0.029275194738833502, -0.03610019430131256, -0.010588322397301949, -0.04824450888621629, -0.075105257717966, 0.038832169785064714, -0.00010725826908756023, -0.005751272881274535, 0.05208099096226343, -3.6737350466417386e-05, 0.053353062596386856, 0.1056741715404016, 0.06629366858273958, 0.0514759844971082, -0.040125192447674644, -0.10967238736209363, -0.06835386286863299, -0.19555628527426738, -0.18231829214290426, -0.051599353595158354, 0.08599735089014925, 0.00578533022117432, 0.11137701094479543, 0.08354564525067541, 0.11795469815955123, -0.044363158010124124, 0.004149961870423348, 0.042905846441063315, 0.11168380716478374, -0.015616181521743589, -0.06296431188443817, 0.013799334433026373, 0.05096843250907735, 0.038718531402740196, -0.07324753992111745, -0.032090796347959256, -0.01919611248929761, -0.011871112666259623, 0.004240315584096752, 0.11354098387515091, 0.04157339047208203, 0.05314553630027852, -0.11446398985251394, -0.08100503874639697, -0.10625195465919861, -0.12337793548054019, -0.08679736605749439, -0.14487937602775294, -0.07646259752219416, 0.02303879735513429, 0.03490752750971086, 0.03799593488752619, -0.04310617659233272, 0.005656573580076068, 0.0605529593204741, 0.08920483059406485, 0.029421983527459814, -0.007002669605687445, 0.02133142411948867, -0.01629640548277779, 0.042520133885218345, 0.046545027081305035, 0.04762724700892225, -0.018333922510638076, -0.0034577486014233812, -0.07019338074918285, 0.0023921218813532158, 0.08391245699557302, 0.08378325577394714, 0.00856391706632676, 0.0449909150921704, -0.11176533860445056, -0.05179027826113801, -0.14952246329005503, -0.0327340371919249, 0.001866570584587442, 0.135685130597194, -0.005452360135350472, 0.0023856187214438026, -0.006099101632015706, -0.04302058558494295, -0.025105294386350663, -0.04364144703269414, -0.05990673967904365, -0.03535202716449631, 0.04800599815500487, 0.031368154200440077, -0.02532865911316178, 0.016597343487020362, -0.08327475360887836, 0.07950069161188847, -0.05836544817115792, 0.07642712082362563, -0.029083666108673013, 0.04938236608871307, 0.024132568715002047, 0.0332425847875321, 0.04396706623311165, -0.05376856862603148, -0.0760930315228669, -0.015214015389396521, -0.07830104602792347, 0.007992007606974067, 0.1368046243483749, 0.0100033058209973, 0.0028489308686415788, -0.03124757025466176, 0.042949416526466506, 0.055465761026808356, -0.024748395002387655, -0.01261794115062665, -0.09305959387647747, -0.06988216205708106, -0.09795571406144409, 0.12721493809667864, -0.09339281350722013, -0.017849641897769476, 0.013872749279218381, 0.01828206297784919, -0.09749168969763411, -0.02565020981543082, -0.018469367006639346, 0.08553330771032587, 0.06726581700642124, 0.03458848243206714, 0.04100667728306037, -0.05088088341892477, 0.119737671281532, -0.018338612276135795, -0.07940061800654456, 0.04700842705449125, -0.011834097162187527, -0.041368916011793655, 0.03395012198491758, 0.03614642915267188, -0.046098511643026654, 0.08539484336996454, 0.03812018219628622, -0.03619992073903569, -0.022425231357515146, -0.17507192611950947, -0.03246587413668835, 0.015593429287969243, -0.01639607283597497, -0.058467346826710745, -0.02598484203796807, -0.008912323937365324, 0.02007235057915311, 0.026521935440995383, -0.04056535112839693, -0.02425447674154051, -0.04476885324230368, -0.029403068707498974, 0.04492344493654938, -0.010119223050166489, 0.020558229003341123, 0.0109576660387544, 0.16856845192222947, 0.020266532615364947, 0.10095047400731755, 0.04977044593666463, 0.051806638874284744, 0.08346372248187651, -0.03379990113923124, -0.039629558352148375, -0.07932421689794604, -0.14598466371917324, -0.04848584497594049, -0.033579119002223864, -0.03629429553867092, -0.07089980503760099, -0.03895348368008896, 0.038953225438734265, 0.02303526115767616, 0.0050092971886901705, 0.03973411792611792, -0.017896896491343524, 0.08606772661470753, 0.023894161513487704, 0.061490591100851644, 0.06896362662306045, -0.007277327233163719, 0.004553213546989641, 0.0831972068783913, 0.07328504800872597, 0.005972911343185509, -0.052112723065058084, -0.025068182727049016, 0.011375599187025444, -0.03726185574297104, -0.007192947740882411, -0.12814346239046376, -0.050670515425387586, -0.13588413422256268, -0.09077310396983887, -0.03917352492021175, -0.021657676628078652, 0.05132461461440978, -0.07206572580609841, -0.13512629765150888, 0.01769099339997039, 0.012983095250140771, 0.048234196133258335, -2.3400484751865204e-05, 0.09105084088026555, 0.03367453432496224, -0.018855523247039152, 0.0319729826937083, 0.05712867641947091, -0.025155051811716508, 0.05269150540602532, 0.07924306780096507, -0.033273505901016964, 0.09567029074328225, 0.08344307414024581, 0.08668654793966282, 0.08022930012095543, 0.0632513393863934, 0.02101710331639816, -0.139987775111551, -0.024546752525861328, -0.04526291165456121, -0.09692991883473186, 0.0010751684430196221, 0.04318403047801136, -0.013028002911444944, 0.02625479448226874, 0.009668769958526098, 0.034005450706525144, 0.010668394462808995, -0.027956322871627318, -0.0655148841962073, 0.052459478635705, 0.03695059760349703, 0.056881654994544936, -0.02322099074391471, 0.042443854262776685, 0.09935804514339636, -0.008346478727963923, 0.08905039018365773, -0.03733959539095032, 0.030177841552179254, -0.06932407731605297, -0.12705456345528532, -0.02089875631381073, -0.11000212819122696, 0.05451565136580578, 0.05070230459208067, -0.02279247299748066, -0.09710069406047028, -0.005067343168696172, 0.10174018999558158, 0.0172457083190919, 0.012860016100118178, -0.024814394169396015, 0.07379238040377606, -0.07134075032871383, 0.07222682872029156, 0.010775615556465067, 0.08087230293410072, 0.04011734024706762, -0.0462896385296836, -0.04154248438472707, 0.05654214378313336, 0.01900097889792882, 0.01624494070909912, -0.023785692331863353, 0.05437868717795221, -0.02778758697429592, -0.0019638001201325588, -0.04909534590423152, 0.05971297203550682, -3.3124895524541933e-06, -0.08463314957154926, 0.08074757748172899, -0.05830586449504204, -0.02280691672624355, -0.11362540906200244, 0.029195267554155056, -0.02790529936327221, 0.05176454509262708, 0.022035880842914753, -0.0028290756343048794, -0.00891794516186523, -0.07021518516171125, 0.07138176286922834, -0.05993683698151727, 0.09155739949670848, -0.05269668120401207, 0.06375469811544113, -0.03514316162058123, 0.05464255782753946, -0.03324524239637694, -0.04517020605291278, -0.03405036643794961, 0.02970215631081723, 0.001978459397145917, 0.01707371358545073, -0.011560822770601548, -0.014782865571613762, 0.03859821576925464, -0.0021848898521050317, 0.057775032675958564, 0.06313395910838494, 0.01582899729691785, -0.00056489829933075, -0.021089167770211407, 0.09106469443564741, 0.008739002227728165, -0.05431639173278321, -0.02654065559422196, -0.11685849618576818, -0.17052112092680657, 0.04008025713409077, 0.030335232992764416, -0.027858807884553922, -0.015093607824227355, 0.005598788941183693, -0.026492585630051295, 0.028146900271586835, 0.03484160299901499, -0.05419004864331549, 0.04239836042263299, -0.017736985816849064, 0.03865426210373507, 0.0018741342348934746, 0.019189332886162588, 0.002551218850845259, 0.11412984082680282, -0.023429224212805244, 0.0032514347856441514, 0.009317254123340184, -0.012826350231244843, 0.041857405329987024, -0.00045160336698436273, 0.07732643896684706, 0.09985784435868707, 0.0671768456889016, 0.06278910775055171, 0.07460534091397189], "bias": -0.0021802218468844363}, {"weights": [0.056356903460631734, -0.07883663908565654, -0.06747639740885301, -0.098598989384102, -0.0022498223406201955, 0.04470275407893675, -0.03981039734039319, -0.0546979513199705, -0.03618330561804894, 0.05811012546311677, -0.019626405197750565, 0.01143788013823113, 0.021419524347199875, -0.005740010982567062, -0.06901730933254915, 0.011038205427237742, -0.046067422617508486, 0.0400813002604267, 0.035600715908399194, -0.018965607561572857, 0.020925277930779577, -0.03829687700513275, -0.04454948563425781, 0.017934379006313905, 0.019823592071015982, -0.13993195510169867, 0.001897603062918875, 0.009507735626149368, 0.04145099201292583, 0.014017626824628022, -0.0759585923410448, 0.04212096007904118, 0.09975766689052244, 0.060441923187514485, 0.014859484686918495, 0.08097971849946729, 0.003432320827563863, 0.0020376985399037876, -0.04101507329180836, 0.05932805927792335, 0.009846830530452266, 0.0964846662767495, -0.01842683327320129, -0.0604099678772161, -0.014103608660395306, 0.02599665011554806, -0.055978714224438085, -0.02484953937007431, -0.03526770951172022, 0.05315589086844824, 0.00815572186925704, -0.03355522566314057, 0.05810420506871942, -0.022029819071087895, -0.12032347034057356, -0.037765511205572505, -0.04398559066612638, -0.009633307291096259, 0.008799994118289363, 0.05307353046667149, 0.026343303633730865, 0.035650633151706114, 0.04430702813561329, 0.034638792037690484, 0.019299672919656504, 0.028887952595915176, 0.10781632617031228, 0.1082270663822008, 0.04278495959863105, -0.07490359099257422, 0.04644158651545832, -0.04955342522640204, -0.006710292385298938, 0.058830395745977815, 0.0005382606540784981, -0.025486371155911836, -0.018974282962139745, 0.05245190738142426, -0.11077775167705621, -0.0864539716360912, 0.07540361095566922, -0.0672064392962903, 0.09625554776409335, 0.021900105938012688, 0.024585820931674607, -0.03817728287676994, -0.08624296245539674, -0.009834980378463448, -0.03539070824622953, 0.0019481378309600561, -0.04599692025649147, -0.006907611945048648, -0.03386352553776576, -0.0024969842380678743, 0.002310111317607904, 0.12622539699471064, 0.032911886967941104, 0.013618031532394125, 0.00023040972243470995, 0.03227324662082826, -0.05628633903628058, -0.05837251659866299, 0.02084247390130074, 0.04642054410543349, -0.0019924057241841975, 0.06665671303857744, -0.18621621247797077, 0.01579647415286364, -0.13952933819411487, -0.024156676536255903, 0.004351574324413355, 0.0038822511152954075, 0.10030590044209921, 0.007429811964304258, 0.023048244815053423, 0.04289345678773649, -0.1160667322148902, -0.06003468813839381, -0.0488290392045831, 0.028772216252244912, -0.009943896138813664, -0.0009301616175366501, 0.023988604711434183, 0.0016320159045660231, 0.050495264808439945, -0.04458760352171025, 0.042234861759560365, -0.06705411773099472, 0.05289673878421052, -0.0029538302525984007, -0.07374973749134056, -0.026861033938039035, -0.060862210771319, -0.03404409100570549, -0.1463808977315626, -0.043362034748567035, -0.010564852343763463, -0.12553627599858438, 0.09947430273346515, 0.009632665820535092, -0.08008515218777965, 0.00893831374127013, 0.09361138115715073, 0.03874707195093539, -0.03652413965914943, 0.1065241238658364, 0.005928806610739264, -0.014289005746294398, -0.029759244862107796, -0.05745257334372464, 0.02129445567137284, 0.10780224490547999, -0.057776940016832874, -0.009156001473980655, -0.029007775435030886, -0.09933208066179924, -0.025539526262943105, -0.040045131368789906, 0.046329274696561264, -0.06819282019370164, 0.0021976852170554977, -0.04468435723410107, -0.06225802954573714, -0.1362986456954458, -0.04548882531503599, -0.036443448699568004, 0.053762044172538055, -0.03445299173671407, -0.05269653775895353, 0.020332886427896497, -0.07768969141249715, -0.11104962808540153, -0.04918241331542646, 0.023741571107759964, -0.040458269528837604, 0.00011815640516494048, 0.017818936930906634, -0.1255624219484974, -0.005699690345498734, -0.04270919232524042, -0.03984457611849773, -0.039599399359164116, 0.014438739822334734, -0.06474331309362466, -0.0828068871185289, 0.06441397747468039, -0.10531239822275958, -0.10818598912163768, -0.045860206842697836, -0.05809571749513608, -0.06658788694242451, -0.17174603891658907, 0.034404997622829496, -0.0007050257559218706, 0.060888322049912055, 0.04438804315561746, 0.0688590172898409, 0.05782262740352805, -0.05253864491848952, 0.029045485584835565, 0.025232875745854273, 0.04016539155838024, 0.04752013461925195, 0.09506935495462393, -0.006308210067367716, 0.007630840632083694, -0.018940677691522096, -0.011758110552999407, -0.11917056326889056, 0.020603620198320606, -0.025797351140912476, 0.00614353139416428, 0.07822946923614105, -0.006319501700396592, -0.0007410426610014126, -0.03448010008919791, -0.06592317189921679, -0.05146657884737568, -0.16136628360161837, -0.04160517300728498, -0.020657146857399094, -0.052154388319614706, -0.01477979145608424, 0.023079202681616055, -0.016048102643870323, 0.039461877212780244, -0.003288357785545068, 0.03877992571688062, 0.038192414528036185, 0.039247937355813646, 0.03340798352246572, 0.053872143262342534, 0.02170188131020821, -0.05502001739244086, 0.02451834314496268, -0.003040025085557275, 0.01637430682069614, 0.004739069739272109, 0.08705976619871066, 0.04782973546394276, 0.1091749261439218, 0.0672876685677445, 0.035563982151142697, -0.004439323584605078, -0.014781074720763416, 0.021583294544100254, -0.07245658426297312, -0.08810581556930286, -0.0984445735400839, -0.06439971126138297, 0.0459687070827324, -0.007812865958339467, 0.05426131014861611, -0.004282588134019421, 0.05362531484541163, -0.020518328469553856, -0.026360786901052587, 0.048402215457904026, -0.0350650202475083, 0.06425801164153576, -0.07006131202306148, 0.0075444522191815055, 0.029757402414823775, 0.050014069758930954, -0.01612940044564608, 0.10785022179869624, 0.11089057592003826, 0.019010400476845084, 0.02086475518979734, 0.09372122940600582, -0.03356574297350602, -0.04558707272238537, -0.010655578278318995, 0.0033262703803656995, 0.03431156383691487, 0.010785382998627902, -0.062362253958181284, -0.08149446499637657, -0.010727609573066378, -0.03648377262722568, -0.04811782413460489, -0.0013767698294258847, 0.09496055023358592, 0.026373784169321776, 0.01780040977182502, 0.11219591990049926, 0.11924013501862633, 0.014107270852708909, 0.06831579182289793, -0.02902758042682508, -0.06279238465888054, 0.03538070565603229, -0.03545279634850824, 0.03523986613942612, 0.110147196778837, 0.05141794858257542, 0.15840558218454243, -0.02009726877624299, 0.025592057594985854, -0.015776454784908876, 0.03425045938515856, 0.1184039889307062, -0.008617299434958772, -0.05058710331307811, -0.028894591719266983, -0.008832093335658453, -0.028571811845983532, 0.011244645535545564, 0.008925218301750453, 0.034795481164474576, 0.04639194036287115, 0.07254385006854429, 0.08775427528258284, 0.10430607602718471, 0.02020369838581087, -0.13539809664399516, -0.03613441154274515, -0.0066363417937051195, -0.023177512044696848, 0.003093487023996396, -0.07097512393016102, -0.10920161900729622, 0.11764506845404192, -0.04570585087438319, 0.0639640492078907, -0.03498044230423197, 0.08105140438791623, 0.04493601750497322, 0.023907268804432263, 0.036034743731109084, 0.057944590249147714, 0.05869691468018631, 0.0357423236892993, -0.043205648314042826, 0.03151355758520021, 0.033173653814252746, -0.053580709407484384, -0.08958815062982647, 0.012067623676721512, 0.06777296434043441, 0.1185188371416223, 0.05723204025043244, 0.0020368533103214646, -0.08855985634955744, 0.054583105593249165, -0.05332863211823653, -0.03929308516445204, 0.06049411294373076, 0.03383778140205236, -0.024059939631790324, 0.11178985260307578, 0.05893468868697995, 0.048748729561349596, 0.11549555847608639, 0.11318130697499172, 0.002749287844931868, 0.032693083443647034, 0.10654749768805957, -0.035135366594804464, -0.011422572985185123, 0.012276597413566102, -0.04005810671365129, -0.014862206899347825, 0.06352808952107679, 0.004745128040055123, 0.021764653446735633, 0.05888431265583179, 0.034650004804232096, 0.06911365665977683, 0.01090291761138081, 0.0889456637764678, -0.0402270639289841, 0.0017212640712360894, 0.03298185861566756, -0.09463229252793341, -0.15317356721654693, -0.025732521828827445, -0.06816467420127603, -0.008231694086634385, -0.04782999120822817, -0.040941070883294815, 0.12381680123331801, 0.07996732403849342, -0.03419372821477693, 0.034530795821946604, 0.04496961122749379, 0.10628924147019969, 0.07855043435420164, 0.056530964342963244, 0.05482185678619609, -0.03141017146042332, -0.048604632978228327, -0.028190320568393074, -0.07918561858600814, 0.0035280290169121984, 0.11101445572208248, 0.06692346847765578, -0.057492202222546286, 0.010964453339891512, 0.09538521901807881, -0.00751572378515894, -0.09027751292502612, -0.03753300223439221, -0.06603159133691326, -0.042079356248792624, -0.04326671429648797, 0.013969321245919045, 0.07407374066530864, -0.0496204792508601, 0.017479025898819354, 0.0869124049761815, 0.12734859753840733, 0.10673875266197862, 0.06112256306611751, 0.004367032776716188, 0.018359353534099995, 0.005208800693043391, 0.07124803074064054, 0.05074744973157813, -0.0029657624324245357, 0.02309100038307307, -0.08968135832017451, 0.0239639736990199, -0.027590794711904145, 0.02113399490017696, 0.04295356716403049, -0.007462863323316718, -0.027893753056365447, 0.022597644782228556, 0.002400094368924086, -0.030216506741882428, -0.11342710816241487, -0.1858296115637427, -0.08598700166875113, -0.003359079109202213, -0.03678176925501689, -0.06922426413826785, -0.02185094473725752, 0.12552441419631613, 0.08885283613466415, 0.015504586115181329, 0.05926352661025439, -0.004468389396066868, -0.020001700047197483, 0.014583792430979488, 0.09271309556955298, 0.03154445521063643, 0.028098086307005422, -0.0007418245767664164, 0.047216449151500244, 0.01700514143831208, -0.017071937634509312, 0.05094295890720659, -0.021561226814702013, 0.02480230922052886, 0.03358470879565958, 0.02092840226749357, -0.052303898778048204, -0.0918197540532478, -0.13796425628825038, -0.0032390773170804577, -0.04239393910283087, 0.017956766517730312, -0.024931294562264214, 0.10830630002328163, 0.022062944245750636, 0.09772383838070596, 0.07075801899337784, 0.053811341922612124, -0.0066016577012186555, 0.019602196152429977, 0.03991866799706037, -0.0023112324739426758, -0.01577965967540423, 0.010277573039670206, -0.10254519321808589, 0.005254918479759138, -0.003949546729488042, 0.014122459221804409, 0.0010159013242804279, -0.01749372715791024, 0.0142326486562676, 0.008012016160504608, 0.006112871580085258, 0.10573711305654106, 0.012054231982986151, -0.039333856697320084, -0.03866025941825931, -0.03201467387838384, 0.02313235214790211, 0.08360911105452082, 0.06542292028430853, 0.025940593471975696, -0.03375749650882174, 0.02615982558020141, -0.008481354529492315, -0.02484364468319871, -0.009486075048023183, 0.0274206433417476, -0.02975885711718746, -0.05685272979196204, 0.03134286331891958, 0.03764730439431421, -0.035023757838814895, 0.08815415205626029, -0.0313435673204832, -0.01840361539819451, -0.08099150309799526, 0.008210899892600257, 0.010378270427704343, -0.05061871367850637, 0.0015434769373645176, -0.04299186096350371, -0.09279081264440948, -0.02728547047376349, -0.17209852461212832, -0.09714583018601498, 0.017442643587841426, 0.03986887234098196, 0.060098404015514306, 0.025984803331084234, -0.047033812372055735, 0.03970388154142025, -0.003355307705408325, -0.0914691253854465, -0.018256507996749015, -0.02952334118885624, 0.09648662189094283, -0.002204355186983823, -0.011464099170508899, 0.003056124989393893, 0.06384976086965387, 0.0011097891148064518, 0.02972008034166947, 0.019475361364226163, -0.025698123365711444, -0.02782557256650545, -0.022547307731524524, 0.026227324202571574, -0.10471747770294886, 0.0039319061615064235, 0.022606275433897045, -0.05017514584716326, -0.0982952338779783, 0.039818559555251584, 0.10758585364574154, 0.05547426350298651, 0.05251946774448024, 0.007388956944186828, -0.017180765931061305, 0.029912477203473023, 0.030163950068496644, -0.0816879300574921, 0.005624485467064825, -0.09671414175545681, -0.002827284434747629, 0.07707577771288228, -0.003276763519095276, 0.06230373395220016, -0.0025765890455079405, -0.03328891099664307, 0.0010435214302307978, 0.004806545054939469, 0.08459148730483862, 0.08728297454654611, 0.02642939393579488, -0.02345557854830754, -0.042912420229767795, -0.10811786882956433, -0.12437714655016331, -0.05583062205114971, 0.01014713778122042, -0.05201239450211253, 0.0769913994301395, 0.012272378982460736, 0.0007335569743954883, -0.023976470604019164, 0.0747382244619665, -0.06049714013136725, -0.05370684261062762, -0.1130774475675084, -0.04163923457513423, 0.04249181519164228, -0.10524423540366146, -0.039865328146235085, 0.07176527280116296, 0.02518555482967627, -0.02759425830845802, -0.019564066199342412, 0.053264897759738285, 0.007938911582663424, 0.016443830810551195, 0.0771977840358001, 0.02733298720350257, 0.016325474840671435, 0.005262731240652912, -0.01802515663666441, 0.0029945764023889907, 0.08055649053563045, -0.03018055931559267, 0.0693439691337503, -0.0023631415252382934, -0.04028088897669699, 0.018381790441172413, -0.015127047506149347, -0.0712222757291023, -0.12580306455059703, -0.0608754724285225, -0.03967934551946659, -0.05263885509815064, -0.15668794952145076, -0.05661026942783152, 0.01644382007681939, 0.01229156048237194, -0.030829915992167566, 0.0015166890876655696, 0.05448357218530733, 0.03852709487893821, -0.03511122069620471, 0.024808676439757336, -0.11430297797756636, -0.023886009447557595, 0.08095356773085673, -0.02872057331926034, -0.04315168058772404, -0.11815782027020501, 