{"mlp_type": "NUMPY", "learning_rate": 0.0002, "batch_size": 32, "max_epoch": 40, "optimizer": "ADAM", "l2_lambda": 0.0001, "loss": "CROSS", "mlp": [{"layer_size": 45, "previous_layer_size": 784, "activation_type": "RELU", "dropout_rate": 0.3, "weights": [[-0.03508754276231632, 0.09327846870497698, -0.037796166477143456, -0.011572517392726024, -0.11061074125611385, 0.07236938242708456, -0.048110017017298355, 0.015652368900261532, -0.02776425552272642, 0.010291799838218301, 0.025300282662632352, 0.0365038106147014, 0.05052143741719704, -0.08666899576956343, 0.01706043600622801, -0.0454324736281377, -0.028319066219890266, 0.12903530656422327, -0.019628826098228715, -0.0024037372375574372, -0.012717804891053161, 0.07001672554310466, -0.03541019267535125, 0.03521621327759216, 0.0642591281198556, -0.020253632264446743, -0.021875825655520043, 0.0111222673280944, 0.02726321350056938, -0.029580049866198665, -0.07204398233374536, -0.06188023884790938, 0.04130920920565649, 0.011869608207369571, 0.015526573470673242, -0.056258610641464465, -0.061544124316279064, 0.07303521537294051, 0.03747683408243058, 0.0369664103399855, -0.040043653574387175, 0.033901500004401425, -0.03487270801817514, 0.009187995579995206, 0.06677028035638231, 0.0052347348482428115, -0.07358988247679245, 0.057204238491700574, 0.008575392289173017, -0.007988891984388414, -0.038403785808179415, 0.009684170648774281, -0.019861851833616863, -0.07149657919209366, 0.04012205417417682, -0.051759125585330745, -0.07813215195055809, 0.03819401115295455, 0.030299986710850154, 0.009780377566316518, -0.03791072495844726, -0.07032445386364447, 0.057606178407654925, 0.004886150427096722, -0.05176119235161864, -0.0766569195239793, 0.014172116891965613, 0.08808837584493572, -0.027787314693442502, -0.05400671996754543, -0.01570418506830333, -0.15049995949156977, 0.022788266091729303, -0.04259183918323887, -0.025959313727285556, -0.0818668939436326, -0.021544975709962486, 0.003591210894467275, 0.019566935908524822, -0.07306227468271817, -0.05970795631930807, 0.00694503633103618, 0.0029899544013104436, -0.027633609513054963, -0.00472040478290041, -0.07933532645524181, -0.1017609570646902, 0.01752227826593516, -0.02852379898006736, -0.06418400234444561, 0.004684411294691968, 0.08533461717315255, -0.10888629323884431, -0.04905350999436541, -0.08648116967502957, -0.10490266183187508, 0.014506666025139845, -0.05653223251308185, -0.06853898468097495, -0.057353029910058584, -0.17931670146690107, 0.0359059857131397, 0.04960700793805793, -0.0383398295955339, -0.02827710753347342, -0.006750311087678934, -0.023004277540648883, 0.04162773816045428, -0.02961619058626759, 0.0016642352784034323, 0.005691933297985506, -0.038576082702852746, 0.08956775006089758, -0.02553916343731543, 0.009676375917854618, 0.019207239120353645, -0.0917801906423465, 0.02154249067479598, 0.06975445228685195, 0.11999750086162937, -0.07926649002565753, -0.05696871016720822, -0.030298414996163963, 0.02531184272677513, -0.049741117865298584, 0.031217013158943978, -0.10523567475086457, -0.012196425523630917, -0.059015432864521496, -0.02286154054658977, -0.20174156454117295, 0.013236070001463653, -0.14530002461499125, -0.12697528201266095, -0.05919049623316849, 0.024999750957022407, -0.05098085207104285, -0.15839581483396428, 0.005271666291031615, -0.1000625347977697, -0.08281378639270719, 0.008072991402269959, 0.10721434518098925, -0.07824418580825371, -0.07319937216895107, -0.0022664258662183465, -0.0037198149401453324, 0.013042846613049578, -0.07861563041985686, -0.02799499489954774, 0.028328456520416285, -0.02022976845846353, 0.10136118692551675, 0.0371520052399266, 0.046727609972149274, 0.004543841817316714, -0.03916367524039913, -0.023851752774294736, -0.06125696983891867, -0.035660448789134366, -0.08268987430309134, -0.0502795842268117, -0.05893216202213544, 0.04298522611384473, -0.13426186715451638, -0.04156426405743019, -0.026895118701815497, -0.0714196223753575, -0.004735054562990617, -0.05337241444677459, 0.029642838490780025, 0.12863704534425277, -0.043691500346309586, 0.03569854084429708, -0.029994470839626083, -0.010202750652691923, 0.08108146946430059, -0.05761497469820964, 0.05004145610944546, 0.004019804391860216, 0.022157032422311936, -0.007274337429279411, 0.004144795201918751, -0.041124470801023244, -0.07342770843947932, -0.06329729813427071, -0.02838648739658996, 2.9402378203119146e-06, 0.025514247472523375, -0.021517884646141443, 0.021505042660540243, -0.21218300778183885, -0.0725272843175772, -0.03448344249142977, -0.14639451090985223, 0.07318071599667304, -0.03059916938153222, -0.008323462057869302, 0.06935602661573513, 0.029495541673648602, 0.08616433901432971, 0.06549730860256117, 0.0611760245879709, 0.014564101623818848, 0.18101270355547416, 0.020346955202313943, 0.08003014439738755, 0.04997641369794523, 0.03694120123436298, 0.07228507768022807, -0.021569527559947187, 0.0090833471386416, 0.024421182495787445, -0.08527630130319656, -0.016297354831548254, 0.059075035484551654, 0.00022335427134009193, 0.008104433556257097, 0.05017986213941835, -0.04300285804554924, -0.10338091990565779, -0.04182667396879664, -0.01489080109407857, 0.03173920292845341, -0.07285684102777137, -0.06772112266385072, 0.03987790967244353, 0.09017387842746823, 0.11505262287397777, -0.009850851200108994, 0.06941145691353891, 0.17803891726272913, 0.08695434702214562, 0.0447979418587647, 0.10699113498966231, 0.1078178801593301, 0.02218521264740995, 0.03376156457336326, 0.04961594835942012, -0.010134584400048776, 0.00460633318231798, -0.01617300058832132, -0.03990560038145982, 0.05117344713509299, -0.046357672626933764, 0.08076423034710792, 0.04287618029064388, 0.011964751949357028, -0.0774715680059765, -0.021878789164432755, -0.1447220344557554, 0.004450622673926907, -0.08168611779499965, 0.07451790131974541, 0.02199878968890689, 0.04569998436534644, 0.1359705883412598, 0.21255065759753566, 0.1307208801975787, 0.09962615497478818, 0.15478179072877712, 0.09030679910467274, 0.09032739948104837, 0.06412030023291951, 0.1207103298795548, 0.1626038205113251, 0.0964723678194174, 0.0407642486070267, 0.1289675098344183, 0.13694395003245632, 0.13740972485732453, 0.019233176148990505, 0.005757016310573503, 0.12203448809677336, -0.002774453237048586, 0.015434390390694611, -0.040719760487082514, -0.08056244550290206, 0.026044874038339383, -0.020095068843389408, 0.0020379759140619993, 0.05881112192875911, 0.020617855063770073, 0.0016415441779207886, 0.27581787881215536, 0.1790217333398866, 0.16148828886604244, 0.038035561058935526, 0.05153196465623566, 0.051403822032820685, 0.08124335922577759, 0.04549390397383582, 0.09771174393877949, 0.1287577008865226, 0.11670093515062521, 0.12502940180675307, 0.04474969886823849, 0.010452463646197898, -0.017005562546869513, -0.016202155666278563, 0.02581240521912848, 0.07625884493916898, -0.03835696762302736, -0.0021896373152040923, -0.0484439464498967, 0.033660464553309385, -0.036911830045105266, -0.12854843336550953, 0.039447160555889114, 0.047412959486020624, 0.15175608805488067, 0.05850596844933632, 0.10295034832645802, -0.029573328544814512, -0.04726940371942034, 0.08900735753745877, -0.0630629018329268, 0.06614241617926112, -0.0377769883792816, -0.07766624934278829, -0.057584088634277567, -0.05175701915656198, -0.023738260015759613, -0.045827933141063905, 0.06038085099836501, 0.04249408339475646, 0.0833167260742911, -0.0017835838991925588, -0.07738012131068722, -0.0408047105646382, -0.11446596257208813, -0.12470445646757798, -0.0681494734340225, -0.030498408846518263, -0.025627923478685654, -0.08082926389338894, -0.02984965315240034, -0.09661512692057331, 0.09939287945848635, 0.057748603080882935, -0.06309364753121363, -0.09210566687907777, -0.02777100886946105, -0.028743920925037265, -0.08346352212016661, -0.009083899576082768, -0.1556571929323616, -0.2075635311521665, -0.3542939343303839, -0.22804439929081297, -0.07705365870876017, -0.048724786589369615, 0.023378474097465445, -0.016538251953622712, -0.155894056578658, -0.004635629511697932, -0.13753926817144946, -0.10829134007898707, -0.030734387087472382, -0.029510147994848343, -0.07074958896925064, -0.02004501476477905, -0.028958198410647406, 0.04462204012208792, 0.015525747354772098, -0.026344468293985724, 0.03989837642821726, -0.09434839810208806, -0.07078778328411003, -0.15060465309478377, -0.12607112911685064, 0.086763483597883, -0.059420318168812956, -0.021634106674996156, -0.12934812160635098, -0.4055629730512585, -0.4159028940094623, -0.24344731327913818, -0.14287177337607793, 0.0011937651649861238, -0.03134146403836257, -0.014009599159153497, 0.06257954941413449, -0.10437813607933635, -0.12251453646270519, 0.004842779688090613, -0.11952213844080971, -0.14801505528103412, -0.13893839944421732, 0.1083247603097703, 0.11006425626108837, 0.09392823134652037, 0.02769748146864808, 0.04836818145638873, 0.0068205930427549825, -0.12217320589600103, -0.17587236980071105, -0.10188571496886088, -0.10118277106592084, -0.19532231143024362, -0.1293750519185231, -0.20391958658322537, -0.38736265874874937, -0.29751705450759797, -0.3289185112572982, -0.13582590944659922, -0.04180603009813464, -0.009244346757793601, 0.010127316223982177, 0.06623754313540664, 0.031740393009929625, 0.020828837939294607, -0.051058772420437354, -0.05311150957009367, -0.003193904060826662, 0.09184649695147216, -0.012962150767162173, 0.06777294863981818, 0.1362843191200266, 0.11122173556597699, 0.10043585895880795, 0.03591059943950449, 0.00435666280555519, -0.038801241784363345, -0.1977823852953379, -0.13090842846448372, -0.22112282163200778, -0.2883830363507844, -0.25863768281876737, -0.34153467823729505, -0.2115792987162253, -0.11989325531910636, -0.06710414158040706, -0.026587378728363052, 0.0047353760677670805, 0.011236000338672494, 0.003470553386572564, 0.030492931090714444, 0.08058885014878141, 0.04906643131235101, 0.049236918395312766, 0.14592637957443935, 0.10159748185521868, 0.12676060073534653, 0.0988718142370561, 0.1486183273122106, 0.14495289387766208, -0.043525685650501425, 0.08878058672560984, 0.07072677826050738, 0.1679374302814758, -0.038444872344453394, -0.11167734949035879, -0.16958578739974492, -0.17585894371026556, -0.22215856624968125, -0.26313590704812284, -0.12197498187666028, -0.13213679191973193, -0.051111829985147676, 0.03436767834102561, 0.051486096510101324, 0.13426367585565993, -0.07860941374729753, 0.06213302967515008, -0.0173057468251109, -0.05493756970774754, 0.08283745159944604, 0.06964411810141115, 0.07885252759983785, 0.10392822788652332, -0.013462639536663077, 0.12410065405121849, 0.11838690751354208, 0.05784111844479015, 0.02547471378491602, -0.006340864499073431, 0.16626871494805917, 0.1747504784210073, 0.016487571769030682, 0.0015631170292723746, -0.16099680233060468, -0.1370714827029923, -0.13033164933077945, -0.045076400437956715, -0.09377785178496308, -0.008962597734085422, -0.05349247681898399, -0.09812435214336869, 0.08852566649622463, 0.12952565319174764, 0.11650190557794253, 0.13123034150904728, -0.09404985268169185, 0.027177050389445605, -0.04101084255316308, 0.03565082317166326, -0.03800331411751602, 0.15880955819359444, 0.12700113603155078, 0.01157889532298691, 0.11818721812070869, -0.035659732265806446, 0.08319828660589115, 0.0669644269129178, -0.02795796989368341, 0.11318316893918344, 0.0921663047681677, -0.0423265452025179, -0.10260943679053035, -0.06017401769690807, -0.07077381760601173, -0.02476967833085316, -0.07891584688165007, -0.04785981500517335, -0.08246884661108848, 0.1379008189977256, 0.09767737018386631, 0.13117920494046553, 0.035860925682532296, 0.014259606092267058, -0.017104861704539804, -0.03401080119837334, -0.06138954763980133, -0.08329233704972588, -0.029633031475491525, -0.017974532667269526, 0.04408284381128767, -0.02111882455997239, -0.03599570121921106, -0.017507170875955942, 0.12546031635115107, 0.030647474629183914, -0.11122997062852516, 0.03477097587905091, 0.11125194987916834, -0.036040551030620614, 0.02365138516991748, -0.1201369254114986, -0.04053522779138977, -0.05615175001040649, 0.010066966551718298, 0.07550890536306883, -0.048717663778741635, 0.09553410398138366, 0.09937739717677367, 0.048285602502393644, 0.06445488085766991, -0.04614859233369385, 0.005762322490894608, -0.10629064632670535, -0.0903491908430945, -0.01664934300231085, -0.11863972058674117, -0.08405750705198313, -0.042986606112667, 0.08839305219194617, -0.019312991296648, -0.0071844744928216955, 0.04844599024586815, -0.03369174429692583, -0.06276821681365995, 0.04088968241738364, 0.10958548485873018, 0.0018465218789091625, -0.14744171871709744, -0.067997482201514, -0.0547012471336601, -0.0471122046132596, -0.06917174995229734, 0.07160297257357424, 0.06120981416234047, 0.04797961487875598, 0.13828233037125637, 0.11186717638679557, 0.035437519245551954, 0.037372285951823646, -0.0159799228993451, -0.013591908346539552, -0.10709240380563384, -0.06530030356087156, -0.1427069180367604, -0.08189323174955411, -0.029011461650134268, 0.0919218374015343, 0.03433679161316686, 0.045210558144015464, 0.0077231195739452365, -0.07790669144204339, 0.046569721379376414, 0.010131768964031314, -0.0019149669446489475, 0.052008728777331134, -0.03824229752173065, -0.06830158042711766, 0.00856127031651444, 0.00654894955702016, -0.0009790559567052879, 0.018448832046507133, 0.02303561031852026, 0.06286383652483066, 0.00911540927170101, 0.028805148826872518, 0.0701324725278225, -0.001833028488513747, 0.07453519224346516, -0.013103115185263418, 0.017634370811353845, -0.024059943555617688, -0.007289324849317836, -0.03701483278729463, 0.043818440742648436, 0.06423335774621554, 0.01746607901407588, 0.04778247139550216, -0.01123139888787121, -0.03200440200688399, 0.06916287442169347, 0.09287786228962266, 0.048445709545927224, 0.04982127267713743, 0.0745565329579779, -0.027144471371812987, 0.08876001747036172, 0.012221348907360737, 0.1050973275157703, 0.057837359664180125, -0.014594557577053427, -0.032539715078335064, 0.027373924173305916, -0.03302746843668743, 0.051094940032208554, -0.012094481903837495, 0.010515345281679887, 0.10735735172260406, 0.0020084211297551964, -0.0289850353083276, -0.05027003935133891, 0.06907992107598453, 0.01776113017616936, -0.04143996833765001, 0.14817496778878098, -0.0032957440014660094, 0.02521591800958147, -0.027602685978978404, -0.04927744459395508, 0.03313697513012941, -0.07935905331337734, -0.0713520339235336, 0.14791676976532284, 0.10179858774155595, 0.04375173150323452, 0.04574702202618977, 0.05589399645659034, -0.05230374337215329, 0.038251349316731076, -0.06796405352956168, -0.024529648088424776, 0.05463494500237212, 0.04569108141207331, 0.02764421420620943, 0.05320695040534019, -0.03928400889318081, 0.014353215676673177, -0.043070138232304454, -0.0205040024867723, 0.0932299227253574, -0.09321910094886308, 0.01965508474146319, -0.040160103718094135, -0.034762486739423296, -0.03706064017727352, -0.03931124217784716, 0.01331125617860387, 0.02713176572052369, 0.0629470919113301, 0.08272009168401942, 0.19367711689892306, 0.2356780501735948, 0.06665927267556006, -0.020285415748925006, -0.05169226962564679, -0.018516987959349918, -0.14063693406951971, 0.10897778174001921, -0.06940903835089157, -0.0128111475188954, -0.05471964105926867, -0.07059320668087145, 0.03991697944800799, -0.0569340961010623, 0.03706109062979869, -0.1870014524780601, -0.0852886139401561, -0.0009039854992580087, -0.09098385020559378, -0.12027134905708993, -0.027122961684611924, 0.024029651285739362, 0.04275698316792544, -0.0453803339441305, 0.03399489956411622, -0.06764617905325482, 0.16763330102803292, 0.1452855609629942, 0.027143973148030947, 0.1379435022006911, 0.1202400794777756, 0.054907368926621083, 0.09782166766251733, 0.11109451977652339, -0.002634808471562408, 0.05177921002698531, 0.10847867492144458, -0.04198150851174031, 0.046631684054128014, 0.025897577312971154, 0.0311712615594792, 0.07411294837540468, 0.058811190561482964, 0.06523897127750682, -0.04209098781293538, -0.04382723532363181, -0.2065835183974312, 0.015398445402172483, -0.04333392621307144, 0.025139144507305377, -0.09137313107595624, 0.059871976825139, 0.039273260273512446, 0.04244365510417311, -0.0017156801219722748, 0.008868071593652148, -0.10346809712282776, 0.06245311454164555, -0.040775114581294444, 0.029947922790125772, 0.012573883222135356, 0.05490355526544202, 0.12959764200071858, -0.006977442418391029, 0.08061666132857147, 0.08332980149576988, 0.1673253781110912, 0.20140127068241434, 0.13033732552822586, 0.14270995103441655, 0.11140941988276468, -0.06546694325578785, 0.002830552247528925, 0.01348005933953119, -0.08945898715400892, 0.01158870750332254, 0.0696974795033587, 0.05173139720462618, -0.04568862109803628, -0.07355391912768558, 0.05905400495739577, 0.04206693161998556, 0.005318967152428388, -0.026893645783170217, -0.05074358371486216, -0.009666460766509859, 0.09815980688981617, 0.1784242101938026, 0.04047773240820119, 0.15031711211035112, 0.07270505284571992, 0.1384958415367478, 0.09747367249180057, 0.12166894999288799, 0.010275660354680595, 0.004898877871392925, 0.28281018379016226, 0.09410383203641087, 0.15897556698355725, -0.029417032246320824, 0.014458822500016748, 0.04752236475567391, 0.030229136222426366, -0.044297862153627195, -0.032871485081436835, -0.013362221564416531, -0.04036505902305582], [0.006013437696048535, -0.008555433069914272, 0.01640505800016461, -0.07696746604399352, 0.0865755549995634, 0.048377391454383786, 0.04447030183442214, 0.029977337920230107, -0.023633160544537773, -0.07103590212287278, 0.022324580448067812, -0.06954531115673286, -0.03604726132780155, -0.007358312548213952, 0.0604909973200297, 0.025206666989367143, 0.07360213469104238, 0.028696602538096968, -0.006949351169295209, -0.10462571124192863, -0.03215270857706469, 0.01936820352032307, -0.007784172260793891, -0.03663024671123605, -0.05180736296385528, -0.026382543476234515, 0.05933143128782859, 0.024231970880098836, -0.056842199704983144, -0.042491875845399374, -0.05396493073905603, -0.013662239978859311, -0.012634808318950119, -0.057535352548490445, -0.02771370881185966, -0.02445962108627859, -0.051575255868081926, -0.03320027569425825, 0.12411817514401363, 0.15277365008728053, -0.0021244453676064487, 0.09750399163043572, 0.019377687493751405, 0.10270728232743506, -0.10496516991321514, -0.13595842060919963, -0.06236938042692021, -0.14234641987774874, -0.05404895677558494, 0.02045590484203637, -0.025655828846271964, -0.04352028435982393, 0.004004012706285291, 0.031605338446360466, -0.11242200819083886, 0.010129176391726244, 0.00969302213334254, 0.041653136848408046, -0.052921930733280755, 0.054136018391230854, -0.017395208089897356, 0.02540896242933197, 0.06675411545590985, -0.12792568811429111, 0.06222444933960263, -0.09834232954669647, 0.08712604834604668, 0.13732512510630077, 0.18218937106814087, -0.028295963613471857, -0.028672452943300706, -0.061556333051630927, 0.01922039479644643, 0.032188362173327656, 0.09292853308739144, 0.06145848433644399, 0.06542755253351223, 0.10886505510945947, -0.0050957270948997595, 0.11093501326106202, 0.08315513784498167, 0.010327744542676431, -0.015570560848996048, -0.014212372932166857, -0.026986894963889327, -0.058322599722651226, -0.030056326623954566, -0.10569440897458245, 0.05731881004603054, -0.010256449271897545, -0.1201282529251501, -0.06335848021735181, -0.10552821904318721, -0.12962125922046058, -0.03150570945790882, -0.04338788695445287, -0.08814940780574818, -0.035009190115917674, -0.07912306367241502, -0.05033854080008377, 0.014670013150812627, 0.016202967855579307, 0.10591683901895177, 0.10748070604485797, 0.018490737942505126, 0.21283099967533972, 0.17935326299694712, 0.11922796009304024, 0.05993431252033783, 0.023215283410309942, 0.13509300929722168, -0.019853472796658084, -0.010168307155621786, 0.004791938867050264, 0.006776561953830944, -0.11573404378962183, -0.012800605708553426, -0.15376270547449086, -0.1698779635039457, -0.14645454660657373, -0.14770762328031006, -0.08119824861327876, -0.08283419982064584, -0.028089932036081285, -0.04061608784462411, -0.04538730437743011, 0.02611906254351493, 0.03369322930737712, 0.005271465121194975, 0.07624879922777933, -0.036524253508132765, 0.10268079509885904, 0.154360393497602, 0.08408739554695079, 0.19054234559410174, 0.1917924594253615, 0.11854927810029019, 0.1843398823083059, 0.006619423682195827, 0.06772324893533722, -0.0443114419693427, -0.0041150891922137256, 0.011827068883512783, -0.12283097687223289, -0.014917889556718992, -0.1440692028904147, -0.11526709216779742, -0.16204167971967767, -0.12200568665003311, -0.061624911980471014, -0.02157180111581752, 0.01142096803512619, 0.05626821298777072, 0.007328713588685159, 0.06343586637378527, 0.016812281162400213, 0.09405895802090178, 0.011049581923045575, 0.10942721911703422, 0.20110547216428717, 0.12332495996606861, 0.20794478995728005, 0.24350311064881733, 0.256153781556674, 0.2749574428875405, 0.13510483118973501, 0.03230293504152491, 0.014554490180652014, -0.08598623442178358, -0.041823101940103635, -0.08091603466536332, -0.0818115662797719, -0.1986746266597831, -0.1274089450902615, -0.11040779358248873, -0.04841888766994316, -0.07862036482924159, -0.0575110640881355, -0.0676646642397535, 0.009892504261533038, -0.03985262170752896, -0.0034541388377217663, 0.011578277182080637, -0.033001929218430245, -0.08213578608978457, -0.024156069026015994, 0.019080164882247765, 0.007627332351646458, 0.11734580661263445, 0.16769542321814365, 0.20873888152352874, 0.3810633621718731, 0.383747872812875, 0.2214492882109724, 0.06605693117390403, 0.0036793765041089345, -0.04023782692349286, -0.11661653666958653, -0.0675727447860998, -0.041833458164878386, -0.2638240740597955, -0.17532104764057213, -0.09317547930821907, 0.0392006193923232, -0.005111187438006378, -0.012432771038150497, -0.03198679628870195, 0.013926955084588143, -0.01853319161739381, -0.05207363641179676, -0.08461012961898698, -0.08013552719505655, -0.20277016788921023, -0.08509698505123382, 0.08905770054083167, -0.007785925457065066, 0.07978914499686993, 0.004005598050326656, 0.1473277872206401, 0.23306563881502454, 0.31276468538693447, 0.28628077433378535, 0.25618635325558864, 0.061261725120897684, 0.11611619760577126, -0.001749221377292155, -0.06141482214994257, -0.12814491432551134, -0.169526118360611, -0.07215459484858254, -0.044020587665296616, 0.02133794734091983, -0.026117425682283927, 0.013521698025329813, -0.018124730365926267, 0.03108541894065114, 0.05843355919074359, 0.001964808254168587, -0.09506098821821637, -0.1470449035303946, -0.1583599723367834, -0.12876871474924723, 0.044727096367792665, -0.03113844931250355, -0.046661944136206855, 0.16007984810073395, 0.12965090340927324, 0.2915777516218587, 0.39831099946672777, 0.21548351014321962, 0.15883817656057747, -0.07926331336133274, 0.02015049988572492, -0.0328865777043731, -0.07260511237764296, -0.08873922443895266, -0.16952324655299264, -0.1581325215187715, 0.005936324386349764, 0.00803675462904001, 0.040514451138778135, -0.00420745713235684, 0.005629450453221022, 0.07922801379268478, 0.06218947896314921, -0.03213775804447533, -0.04257542028604924, -0.05888852995338978, -0.05238998038782999, -0.08196212930374892, -0.03299167815459181, -0.02185909995609154, -0.006222609316651902, -0.012674429200864023, 0.03243294106467091, 0.220251271828807, 0.26813785322833034, 0.34980782286065565, 0.09316488402584684, -0.0077350950029264325, -0.030264213446127095, -0.15170953805374932, -0.10729854811675704, -0.14564076178579585, -0.11029022719568438, -0.07478416824438165, 0.09542893990325, 0.059085189126097296, 0.022096685153816197, -0.003442401951243469, 0.09493649168636355, 0.012532768989826451, 0.06791340148880316, 0.06738956781776724, 0.032558477975643235, 0.024416175301224453, -0.1273685062856262, -0.0607340469192182, -0.1341159605968327, -0.09622583636097955, 0.05127993868638432, 0.03747824212692204, -0.03265032417952927, 0.10227550044143552, 0.2923806086730059, 0.26400092047180695, 0.11765698094152452, 0.031041575798607498, -0.04281257449435624, 0.002898009788974653, -0.07584517213427987, -0.21464376026109366, -0.13654778294790607, -0.027338592756444336, 0.03062662198465334, 0.00552208131066269, 0.03659321861982192, 0.02643303093799829, 0.03560597603358955, 0.057645074938192244, 0.11855329161248149, 0.09663843256222077, -0.02335177882015059, -0.002609158422563434, -0.025475150351817147, -0.06753825943404759, -0.0483947589845566, -0.16529344461705378, -0.14009628999720558, 0.0785389682297565, 0.023255413045312024, 0.023952377213157787, 0.1092697666291589, 0.1483241024133161, 0.21157644104812617, -0.022956937944135614, -0.012352907319241248, 0.030089862474026934, -0.210791989400269, -0.17596963067355245, -0.1736251196545745, 0.11437672633250137, -0.05495361915934734, -0.02451077026242499, 0.030630642886681114, 0.12299903542588421, 0.1620172494814451, 0.08180720359683613, 0.03995715899657233, 0.03170124763883797, 0.06625407131766083, -0.011440699839631453, -0.0913980299521652, -0.10598952028058277, -0.03885720285379671, -0.04339244555173555, -0.12677088102334053, -0.010443207679885857, 0.0024319621127858924, 0.03537443511938575, 0.11921012150975556, 0.05548566513038365, 0.124430026485152, -0.11484103922803963, -0.09718428670889731, -0.014888789719878765, -0.15162483957958087, -0.06994337256830759, -0.193697955443149, -0.11655396677700777, 0.0639542992625985, 0.10060551558606139, 0.06373838610024762, 0.09019264997780287, 0.07170440256972052, 0.16866230052589912, 0.1701683016997087, 0.07146823917039473, 0.04179274538231398, -0.05620662577146312, -0.004289797125216028, -0.10663207043342854, -0.09993855189980143, -0.037362821926732, 0.013011149331920695, 0.052799968987372436, 0.08157803555326032, 0.10036695638480984, 0.13289354702426134, -0.11971981656529303, -0.07316891369778727, 0.04657294774012549, 0.041111297316430165, 0.0016641303788225963, -0.09737917748883149, 0.025976894080150637, -0.013849465683116787, 0.04931937145760953, -0.03356811904194255, 0.005791948045509365, 0.003954474469713349, 0.014652056928370133, 0.0554573437544792, 0.10747677273823635, 0.12849448284470275, 0.0789271642739689, 0.032092327948077544, 0.08462621474228352, -0.016956572193826413, -0.1284910082967078, -0.014128792402045847, -0.034843954821374055, -0.00991691421968872, 0.03472875634151666, -0.009104337515024557, 0.1177481822379749, 0.03018218988571656, -0.05565066039760457, -0.13998866509181337, 0.03601518951331165, -0.005934898969647355, -0.015729275382558364, 0.03801061959102141, -0.02919169400166461, -0.05922113144673738, 0.0152385908286145, 0.020522595276359974, -0.01035617084392893, -0.015808468986831498, 0.018635369229608022, 0.07395021582886209, 0.04698905738793088, 0.10654526178392519, 0.1546462365376828, 0.10032158304547202, 0.08930313027575097, 0.038354851967273604, -0.031455118278468766, -0.01750069347028672, -0.10070788097758675, -0.0017146382970149709, -0.020777023569484146, 0.026979283130809228, -0.034518077752733925, -0.008271461138566211, -0.006054060017582827, -0.07441497491186402, -0.029390006007623953, -0.04697074197462294, 0.04168683409456225, -0.19042523098580333, -0.1338008771151951, -0.09633811097663841, -0.09164838724137873, -0.038310020682291265, 0.021746438682848056, 0.008621654821364412, -0.0778420675658558, 0.03712049090523924, 0.13039378781417857, 0.06661430242664756, 0.16435502984400413, 0.10320507197006797, 0.039371239242653, 0.04965982850152275, 0.03517418676073315, -0.04079365107845513, -0.04985996459720787, -0.04787497524837133, -0.09281063907919351, 0.0607347977018096, 0.03548363067867217, 0.07366553394328378, -0.016004082261813185, -0.10247764397230448, 0.041524727338616604, -0.005103332749568511, -0.16904375167092894, -0.0592322860611492, -0.16180100360776511, -0.10006047309679761, 0.02070621825422866, 0.023489962002856912, -0.0182500115370169, 0.06732421977126977, 0.041936276545153674, 0.10864187261812906, 0.13127907057108787, 0.07769478874458204, 0.17889862720204947, 0.09419138479581324, 0.0021761906155671118, 0.047325879344580185, -0.128446824336347, -0.05525629991831257, -0.0003428165750371816, -0.037487436602115586, 0.04179501778320194, 0.06786149859210687, 0.02866361587799437, -0.03335111290269002, 0.015058081521329326, -0.18295425839275078, -0.05470809079581833, -0.1392274042071236, 0.00025675402265822056, -0.028250143555187453, -0.21455235792286909, -0.03542630071453396, -0.02783691889631464, 0.0143414521627611, 0.09770736451901489, -0.02172764447846393, 0.023559562179679413, 0.06204049734667182, 0.061356999822000116, 0.11762816371396075, 0.07240990729205099, 0.06116450039094009, 0.005464492009791612, 0.0012647135783583412, 0.013759150611988168, -0.07180964891580591, -0.016696041636329557, 0.05610258103330675, -0.024230040299147826, -0.08471655797634808, -0.07459309112095085, 0.07866319117499969, -0.005947413805040719, -0.05057770438756266, -0.047150774088197234, 0.019970945613548032, -0.0802122984695464, -0.06188603997900412, -0.1796707618448644, -0.178600729196151, 0.014224966183139977, -0.028695187185361355, 0.05174049138867662, -0.009137854373825556, 0.04655425757561994, 0.11719689000449163, 0.12319758950011044, 0.06607108382341999, 0.00498785405602105, 0.013193495382952258, 0.022880032320637525, 0.15291933910044336, -0.08421727536015246, 0.0243699846619853, 0.07640836616114514, 0.027576329335339086, -0.034872335643872855, -0.01920165006356137, -0.08330994215446531, -0.09697549032888055, 0.003901620709510675, -0.044282979581499265, 0.02261420443843942, -0.0872908929580252, 0.04311552127410581, -0.053381970834841065, -0.17923143535881186, -0.20158794182462336, -0.09925246989717042, 0.0370309889274307, 0.02994599620272487, 0.1180276671325122, -0.0161803699714026, 0.10717559395024444, 0.12931855045893012, 0.0843774593550005, 0.11677274174413053, 0.05206378731283904, 0.018957480431078085, -0.017959768809210328, 0.07990269212145723, -0.014143349006333038, -0.05654160703057062, -0.07486584504291326, -0.004354251033470481, -0.03245632944541579, -0.025299310692807078, -0.24752763728785887, -0.19077298952489588, -0.0694622868868671, 0.002162381049322432, 0.09319532979241633, -0.014645422134728069, -0.08656345238126897, -0.16854302821841805, -0.10328690289141598, -0.10243054915569706, -0.09056162386693199, -0.09666575680440365, -0.02285693722838124, 0.0926595892596086, -0.036249422124082574, 0.05796604390220659, 0.07036889556017274, 0.07409725942053842, 0.0276286905391566, 0.009065532125654007, 0.07963095497872298, 0.08695703085375565, 0.1377545294842246, 0.0604292158996082, -0.031017342855532884, -0.021288442831435956, -0.000953013124608739, -0.020540474832595877, -0.1374409659809177, -0.05860755478130555, -0.0067767178122809585, -0.06183038088807877, 0.04675964709978873, 0.09157075322597963, -0.08107087804970904, -0.12560983117245328, 0.024793260673793678, -0.046868008878921015, -0.05396006190886761, -0.11585481885407568, 0.022871251077074124, -0.07700689035205774, 0.017088331170555245, -0.0021955434690002227, 0.06309814701885809, 0.04892984480641549, -0.045525714484659426, 0.04352605492480149, 0.05786924444302209, 0.1483284389434885, -0.03990882275946599, 0.03224270718642843, 0.0186691436164173, -0.04961234605567534, -0.05687209350095436, 0.05336199957754078, -0.008225609796027092, 0.05890241223852104, -0.014495722405466675, 0.06530833901429026, 0.040625362686197375, -0.09626940025849771, -0.04290772065148343, -0.10948943013189266, -0.027884199739089188, -0.15952654281507575, -0.0187514189911266, -0.11043919615491073, -0.013550590502607013, 0.037630856727820565, -0.02162467244078237, -0.024492773577449355, 0.062084496415165544, 0.03506158931562598, 0.056523073556894, 0.0814326384985233, -0.041231834033664955, -0.0059184689797574215, 0.050971575678303384, 0.0023204140506934644, -0.08970303925467264, -0.07002143782216841, -0.03271130201963294, 0.011075034194244921, -0.08622562249566212, 0.10115570604453378, 0.08279714617638202, -0.021242551564400084, 0.00727534003881247, 0.042773560397242935, -0.010174227897121555, -0.11763006472762662, -0.080257219188013, -0.2539513673557892, -0.35678179513260605, -0.15603913965301125, -0.20564013115606966, -0.05536983939707099, -0.13562381445620414, -0.017013692256400124, -0.005157391102699453, -0.013044033872111359, -0.08648535978367856, 0.017523813883882737, -0.07707890703831605, 0.03829296397605571, -0.015410020950238584, -0.0586193390699925, -0.042076981191178066, -0.178254767547861, -0.0902369530034234, -0.022148534460493013, -0.07535464876147815, 0.051712590599704435, 0.09268844742107464, -0.0014918585526800777, 0.1196433989353449, -0.019976332140905, -0.07027050026503906, -0.06897150014767142, -0.2819912482367987, -0.4055615733505541, -0.48686675628299164, -0.3656093170248165, -0.310830294593779, -0.3097775185475335, -0.25079920110023723, -0.23362705002529927, -0.2342911327618809, -0.2625788611422677, -0.23205061673384725, -0.2184023130926481, -0.2057758443352855, -0.2147793752204984, -0.20546839364210784, -0.3007740653104318, -0.2490122224603186, -0.18783769973269718, -0.1864046853357716, -0.04555992806794391, -0.01347981576328459, -0.06720375425023929, 0.04304654269352388, -0.04746806492206687, 0.04396562783662017, -0.031790718316181805, 0.05265376306137594, -0.08217647227961963, -0.09826101680464126, -0.2857855558542296, -0.2681197633512863, -0.323488924758787, -0.2144009804133131, -0.21876669357168066, -0.2781748526303846, -0.18869549391751517, -0.11086518303678795, -0.17517268455750717, -0.43511438326789353, -0.21653699876639923, -0.1807942750648889, -0.24444171865557077, -0.2530956150569991, -0.09668863562207874, -0.1307226914722623, -0.20481951060759146, -0.1043991825658369, -0.09045983171961003, -0.20521262671158388, -0.06985699294536978, -0.00037419593810744726, 0.02975468568728976, -0.05803772636230552, -0.017856547249125353, -0.013384117317829814, -0.031516200493403354, -0.054210481386197544, 0.028038323904926228, 0.002097817625969684, -0.0974196606519536, -0.03963502743672617, -0.08210066452022596, -0.12092688862311428, -0.005660222317464914, -0.006801537297145454, 0.04122661581381833, -0.16647326036420662, -0.16886153948026839, -0.1296812824977238, -0.08615563126901836, -0.06289829649917157, -0.028390527120960452, -0.10684503101388387, -0.12790403134101716, -0.10788138104020863, 0.005641923053007032, -0.02448888557078528, 0.03489455456029088, -0.02784514856913734, -0.03159583915349276], [-0.0804379764028992, -0.054482884268110335, -0.01870234276259549, 0.003346722531962806, -0.06277754142965651, -0.029731145549699693, -0.0740386734462093, -0.048796980889208724, 0.05068039899039959, 0.08242012270867062, -0.010264077089547637, -0.002111642368620328, 0.0304100581324802, -0.01617212567097306, 0.001857363073343456, -0.030320290498224746, -0.007728633559378094, 0.0075974726755051476, -0.07736078001187793, 0.04886146127255904, 0.06239319361795306, 0.02522306821732884, 0.007245337418870006, -0.041897933567692044, 0.1075465368348907, -0.01645417933130047, 0.051460147935288525, -0.05063092653091945, -0.05068822115060281, 0.018690207158013783, -0.04304519709404461, 0.08916300829105361, -0.04233251996836487, -0.11412464462204694, 0.007422241195682911, -0.02040058032341831, 0.005745381177636754, 0.09491856759411274, 0.10083404567082667, 0.2561047079402702, 0.18602412750030284, 0.09503655622328322, 0.11848170211071021, 0.06769495665434637, 0.03235292059345148, -0.12971073976154776, 0.03944143366812858, -0.02763949150840331, -0.008445571209504925, 0.06302964226577125, 0.0927700735839759, 0.09537003496035108, -0.05008200941619557, -0.0006036611244574117, -0.008771345125186064, 0.025823170464, -0.04170473510679267, 0.06086523355318395, -0.028325616410192732, -0.12163949746092088, 0.15389390590982083, -0.0014635109599672048, 0.1486352841427893, 0.15606169241916187, 0.01933923890222548, 0.10093216112521622, 0.12864391421334517, 0.21032703038604977, 0.1667514225785177, 0.138771979683801, 0.2310188422160694, 0.10822527569246508, 0.14782871587582508, 0.17230185365164405, 0.311441851632342, 0.2383507253047316, 0.17192272489544239, 0.18337329931819957, 0.1720860718289362, 0.044701651840849926, -0.034856691354727284, -0.057958939512832736, 0.08693122509601689, -0.005733621859469048, -0.05728587118204212, -0.0004605115098059252, -0.0331397528302511, 0.07104190007318904, -0.019625820619359403, 0.0488008049786118, 0.0749855469575841, 0.006039556955439478, 0.06389280924465543, -0.16214214074944544, 0.04150391224383584, 0.012990494525759781, 0.07929688578385719, 0.10377436594996597, 0.07651262666533297, 0.1346851079780234, 0.11580764046307022, 0.20985650743459766, 0.1700892622433976, 0.15802513281899755, 0.2168658069878464, 0.11506328616694404, 0.045586164331340724, 0.03805966436320949, 0.0228028533452923, -0.004976491949402513, -0.021931528247200054, -0.0738120742090473, 0.009273493355024887, -0.0054967032653641555, 0.03671547100967952, 0.045058852134860675, 0.03185790164359893, 0.05318159186618061, -0.06497845631399463, 0.19478858287318176, -0.04166361392030515, -0.058008053303891555, 0.05400638027809101, 0.0032263079120434363, 0.03705230999518651, 0.030454384645176365, 0.016244391266282708, -0.0584253136018786, 0.025819350135553927, 0.03509919309051995, 0.06251221601857815, 0.05107440958659143, 0.0044067873061885456, -0.03864695986778494, 0.055745107619569405, -0.013201596797847307, -0.025284112670627922, -0.05033447112534588, -0.06343057666640631, -0.042785389755520806, 0.04991694050700775, 0.04123528045403272, -0.10074975822109654, 0.12069126935547374, 0.12855155154613146, 0.04519583251311789, 0.1046603693267214, 0.0004524907263651516, -0.037205752988982696, -0.04359180877670285, 0.043890264198783877, 0.006521449451072046, -0.0005230349016977204, 0.06070669035724898, -0.016400690031569753, -0.05000823504633761, -0.008051001871570908, -0.011453385510578926, 0.026112153595800998, -0.02542596275754936, -0.06049241552531866, -0.03493259011364751, -0.08655943331682535, -0.1577087101574213, -0.13714355396167682, -0.16363352618176832, -0.14489816083801715, 0.1137845318481819, 0.04171809112570324, -0.04063810847461876, 0.12786689060587225, 0.14723189768865427, 0.049998807950026626, 0.01788885819598936, 0.06474185768320721, 0.08941059737844437, -0.09075383044335666, -0.0071553735345575445, 0.012904114628206986, -0.0038761970999538747, -0.017943782325073668, -0.027789333173339988, 0.013405013177186047, -0.009290415625367972, -0.07252369582080673, 0.023857238731829083, -0.015047810937197986, -0.05135996501911004, -0.03829831195659144, -0.08819351048448527, -0.04061446531392995, -0.24659951679419811, -0.34808505016240915, -0.05249625830255593, -0.05345273384919512, -0.03315276891499777, 0.007785080595610818, 0.08421706343711492, 0.012463436593042799, 0.06161007827998236, 0.10060803540720283, 0.03352149925865701, 0.11548316605779915, 0.008147142329305941, -0.041742592035180416, -0.0038505403438195544, 0.028173392393827858, -0.003519480652745335, -0.05678388669454136, -0.0567334160599718, 0.07537309007170143, 0.022928853973719722, -0.009226523655613965, 0.06708954947043361, -0.036447574436073854, -0.008689466041095632, -0.11356858857469931, -0.05168489256308577, -0.1747603253591323, -0.16090916414719414, -0.23246015293711444, -0.15925532623566713, -0.04518175610735367, 0.04441926935853635, 0.0852129611253804, 0.04706441356463568, 0.056033714015450674, 0.06808964588536341, 0.03637427779703374, 0.008943596235942156, -0.03487289536617789, -0.0414052878546197, -0.11239167034742659, -0.15879285775456473, -0.03722484665748327, -0.1420316938523854, -0.02257494166282842, -0.0498829529630077, 0.01367145098813025, 0.04377129711831119, -0.015715247952070677, 0.10020775756946664, -0.1261096326932272, -0.060727988552502436, -0.011675421254136903, -0.10259430343819671, -0.11197520281986019, -0.05999614944612298, -0.06619515159783668, -0.1971127531640508, -0.12443575927340955, -0.004854543925752509, 0.029345740045662413, -0.017272355022826893, -0.07050308867298703, -0.022492507178232316, 0.10398350700106655, -0.03318070796858908, -0.11665766461759967, -0.04211576399914597, -0.11702162625705886, -0.17304960386429238, -0.15295576699104055, -0.08374288737857945, -0.08687129530952595, -0.017611551613305458, 0.14392957471804116, 0.1339518393603492, 0.024950526226009878, -0.00191167397189845, 0.08753877016915079, -0.09602342164739604, -0.05267075473473024, -0.04547351641522386, -0.10115872417283402, 0.023561474590596328, -0.1368907404724352, -0.07818670549842757, -0.20444748123725737, 0.10777713889627992, 0.041866431597710085, 0.03310656083543476, -0.030414328832840454, 0.017871425807310118, -0.06293063469338006, -0.0537566825804428, -0.11882370316572388, -0.16314654881673782, -0.08461304470661173, -0.16804820305977108, -0.10932812231115682, -0.10761741832568197, -0.0761936456975667, 0.08188595139949564, 0.164179891341434, 0.1458106907691994, 0.04405109724058249, 0.008220606096518797, -0.05980123790117573, 0.0014392707560415287, 0.03570948847472161, -0.0028585704816353535, 0.058344098745396505, 0.01679941462287059, 0.06866958185524247, -0.07067058621484222, -0.03488585692146544, -0.04970722903618551, -0.03419695592321721, -0.08869590687619752, 0.05584891724787947, 0.022949765791118952, -0.08321373164609165, -0.02425449066816078, -0.09103176548217747, -0.1006877412689433, -0.06279088195425221, -0.016850681454259463, -0.05043932153530222, -0.028240036501750315, 0.045523992892601686, 0.14495537701551306, 0.12555656603999757, 0.1367014377450533, 0.009420268023238636, -0.05087314000017791, 0.006447335077370982, -0.06663318380543992, -0.008518069708999924, 0.01914933504407629, -0.057634254726416506, 0.016310156460758334, -0.08037948835061622, -0.017936144432955842, -0.08550482763633628, -0.04394022501855165, -0.023760543348851353, 0.03768798337323043, 0.045884873361555494, 0.01604362536529712, -0.08452374109962252, -0.03822242198029468, 0.06389667287234808, 0.03299415789996064, 0.002198070135748813, 0.06492348688699928, 0.00708545417568572, 0.09395592781213336, 0.026051160261160663, 0.12355379744972134, 0.11627567684503969, 0.035233561154924604, -0.02581059734109926, -0.07361558400504777, -0.011541251674891617, -0.008775299208486511, 0.08643670604286638, -0.022009061788135963, 0.1345792725230491, 0.1127322690596192, 0.08255832472278672, -0.13291806484287072, -0.113558526030504, -0.1111279429621582, 0.07985625366763272, 0.030468057340971307, 0.011111261323865824, 0.004230819380639791, -0.0920194116139154, 0.013928163100354071, 0.032936915698949736, 0.04961313502018948, 0.02939396393792518, 0.026606523005686993, 0.026765737691840187, 0.11304677507561292, -0.026433675643224394, 0.006678311619390958, 0.010909575283178046, 0.023313546472018342, 0.003020753810542181, -0.03067026029897958, 0.09700759646209801, -0.0391570371070715, 0.070917090391488, 0.1157775208496134, 0.15229332042428687, 0.09248302098853804, 0.1672756985951964, -0.15148475291894847, -0.06696643605148896, -0.08842267985088886, -0.06896872155406022, -0.018292652663342034, 0.06367224356214293, -0.02670217576956351, 0.012251933548985858, 0.18040101808713974, 0.07583027510409779, -0.0035883707683878334, 0.02484677811640795, 0.03806400684747341, 0.1455731109238952, -0.03519841264620697, -0.04436732659444968, 0.0324563791437799, 0.0808406929303908, 0.023829978781074946, -0.009168194506183888, -0.043380880301955464, -0.06737531063626503, 0.049343794667375214, 0.06762325493173679, 0.09287942228584607, 0.11055904019131868, 0.1380180161991145, 0.1384500895525597, -0.18678354840521538, -0.15636348712080234, -0.04305105782593536, 0.07224918452307037, 0.006879929900855821, 0.03712277851319904, 0.0026914891856184694, 0.006566312757099953, 0.06195568235193066, 0.0912438095166053, 0.012420083655685943, -0.06204395491467959, 0.023739956298944247, 0.0135735377242933, -0.03834680452061695, -0.14036360119043362, -0.04201603150608037, 0.02196872864284418, -0.03436019269142823, -0.0968840367515913, 0.0003028266629012709, 0.023710996036059678, 0.014894774730067712, 0.17565060841823465, 0.11096057788679975, 0.2385716898009453, 0.07928602987907568, 0.0472284525771933, -0.296412386464723, -0.11469629069540725, 0.004538801288664774, 0.10199337986878307, 0.04678485302700296, 0.09799079589697363, 0.08983725712949457, -0.03435196882411251, 0.09275144220998169, 0.07394709701492592, 0.053424177355532065, 0.09029612258072896, -0.07783494672661913, 0.03476159019072508, -0.030115112924765982, -0.1740074492835597, 0.04110173388376378, 0.044173589419051036, -0.12234128247263817, -0.04037841619494785, -0.03188044171816226, 0.07374196551903481, 0.07819639781961771, 0.18847999976832586, 0.15009902742969666, 0.18667071943811733, 0.0987193319609765, -0.10143014380864807, -0.30525799922054875, -0.14987091308136086, -0.04508967528405763, -0.08222503019767999, 0.016040481945455574, 0.07942821214949547, 0.10804681908130945, 0.0760365359548731, -0.029496489387083106, -0.034290977920775324, -0.08450563614003445, -0.009514634825857592, -0.012371519279219853, -0.04002248344789949, -0.05306515481438206, -0.20451399559483519, 0.01586801332189571, 0.015060715769475727, -0.0897998645662118, -0.07880108006646998, 0.03668759726889456, 0.011163391732823465, 0.01751035163698242, 0.08909307779096752, 0.03214431297067744, -0.02589472810907872, -0.06336805471453434, -0.23183047913242433, -0.3728993773898474, -0.19831580294768938, -0.05031975265076297, -0.015968550927313082, -0.06529323174922323, 0.1050643101439888, 0.13591700246187824, 0.013850686468644636, -0.07393412286641891, -0.07835928300116311, -0.07204511951636448, -0.1134357429325187, -0.07350022439537561, -0.03060673632985926, 0.01575972301061719, -0.09913999692632282, 0.03043034187373024, 0.007173049833525065, 0.01815610104647963, 0.022958848466664124, 0.052350706378042004, 0.026539615397636326, 0.05183051290528895, 0.03990989096412839, 0.009495985439430027, 0.11261146003668687, -0.14058736824234813, -0.24698865318658478, -0.22705095644637155, -0.015083752005572595, 0.017664394333697445, -0.01860861741007758, 0.0809934636782428, 0.19573383352138918, 0.2403046146305231, 0.05771449786863461, 0.010340433525934776, 0.00022618986450744627, 0.04593351889078377, -0.09179456921105783, -0.07627995032540925, 0.02538458539530556, 0.04433795525044163, 0.06610512511580002, -0.004541520355177941, -0.016482663255751328, 0.06853352967032675, 0.11538464296799217, 0.0986700258373605, 0.14251135878338264, 0.027060879087462623, 0.029029177234960256, -0.07018185404744072, -0.025684037724917185, -0.18613127264282908, -0.18327965424037548, -0.062887313170692, -0.05615315788926203, -0.03400506424089026, 0.01596661847603434, -0.05354385216608941, 0.1349018164939406, 0.14870884487600178, 0.11613742289127052, 0.029102671797924817, 0.05971609932917499, -0.126116571538034, 0.022708426090267863, 0.01105791438897448, 0.011727258689986312, 0.042260468853885735, 0.01220118596306697, 0.08540023896207018, 0.13507989371748153, 0.13524211864434596, 0.11789593306759674, 0.05791262229020322, 0.03137953516946142, 0.004884363206526727, -0.06475509870737542, -0.045492665383948895, -0.142744191173319, -0.3507420418340865, -0.10437291409435766, -0.07592183322657112, -0.05010597866100839, 0.05360563987624546, -0.11442423740814982, 0.0341760114143322, 0.12049531841852185, 0.2784771834187243, 0.04864769675835109, 0.06826104126911307, -0.06787726230574867, -0.0045656286270321965, -0.013039671854837185, 0.02788712130847224, 0.048987806266580454, 0.056171027856707426, 0.012239498162560994, 0.03078772695372909, 0.0951327445780338, 0.08003737160574662, 0.03707767590223972, 0.02939271417325297, 0.030029612792605152, -0.07491499258303368, -0.08346244653168916, -0.07879174900979119, -0.19789876461513323, -0.2606856329569323, -0.26882292108654976, -0.11176677968189459, -0.03922811544672755, -0.009153058089380897, -0.04421761984661325, -0.019474455344801366, 0.11644946517795784, 0.10248075999505815, 0.057864681341892994, 0.06589204131921426, 0.043176880790430375, 0.10129990308584692, -0.014699662160515518, 0.08742955647486682, -0.050941424482538585, -0.0159734790206959, -0.002571963220146343, 0.03944374800471887, 0.013882353551846738, 0.015852820980790504, -0.001460559907167993, -0.033723464829380094, 0.026554280454028266, -0.08829355578217289, -0.10345008265979345, -0.2416149022351886, -0.1027307383650566, -0.20285443199886138, -0.15490594996828116, -0.14984663132615364, -0.042850890997231605, -0.06626739489989335, -0.02784283767522152, 0.07986237216305206, 0.06132215097822356, 0.09961825802552361, 0.052065124301223155, 0.09209034527224923, 0.04697596743796968, 0.10439309317418485, 0.06860069454000403, 0.09928122824054272, -0.04526464644672695, 0.02359456463067948, 0.0385273669088354, -0.06981618053419276, -0.08607916171328571, -0.04503905370843187, -0.019055951442001916, -0.09674029719643792, -0.07957458886632783, -0.06407616274092759, -0.10729678805401506, -0.0856256196336885, -0.20279845396489934, -0.18927617774478242, -0.09965387977792564, 0.02004453076661091, 0.01591223642270806, 0.06421711700159494, -0.015386991729863044, 0.021929710692704506, -0.03717257815691931, 0.09173620922932771, 0.06842440845007355, 0.0938760063317464, 0.025412531325018296, -0.0016342646558084606, 0.14583030327056198, 0.16775561527325653, -0.056771273190424056, 0.0009621769792604253, -0.052577990097211647, -0.05118753124459643, 0.00739395122019954, -0.037031225037983645, -0.13637998188562903, -0.03970368040809113, -0.11123931098432548, -0.12823900887220283, -0.05951972967625584, -0.15024361557355798, -0.09572281729922678, -0.08942969294357038, -0.021142952680287336, 0.019170831731500988, 0.009063395756520438, 0.0777247458907604, 0.05655883562881617, 0.030287426507604704, 0.058303277268513594, 0.13782192586378111, 0.0050276584255283426, -0.04046790926754805, -0.05776350470548055, -0.16378230433624683, -0.08093259628027327, -0.022683142149803524, -0.04421658221883133, -0.07375155821139047, -0.08635869981861151, -0.13489188217973264, -0.11760745155255067, -0.1327929371665922, -0.16768008284802752, -0.1844059308270577, -0.2149276384213951, -0.1023260105753249, -0.08385203191022203, -0.11609976774128909, -0.059495375737111215, -0.14818790503817061, -0.13112336578023534, -0.027616877509921495, -0.005037497886826375, 0.016288117816758634, -0.031717096278139206, 0.005895463221392577, -0.09277613040481489, 0.08695306824599022, 0.04415947426967533, -0.10534839986350947, 0.10170115311399726, -0.01916846307904142, -0.1012593363831381, -0.08870470370159161, -0.15341335965515637, -0.2040948522748148, -0.11852686331046891, -0.0620004767960949, -0.04771470692776039, -0.15525874298735237, -0.24014122070584462, -0.11737711217693747, -0.13998970926758608, -0.13395366069630238, -0.05554609793950213, 0.026182831325955287, 0.04742145965506723, -0.050017889063969534, 0.037646643910416645, 0.07996518255698937, -0.014885981474592105, 0.05221043132328246, 0.08393767835547086, -0.013612578094057446, -0.03997627537259444, 0.014579581435812198, -0.03087994763085339, 0.06870663996254983, -0.046910820457733454, -0.02738321501721161, 0.06099491032578595, -0.014365673570937954, -0.04724764439187688, -0.11753907320335079, 0.07986771966112836, 0.08117406769221013, 0.1497063765993116, -0.044305013431930725, -0.05257772624580251, -0.09812210793137012, -0.06905662881075501, -0.010895459961913677, -0.08976529033352894, 0.007796956479126934, -0.027703516739443716, -0.05846406802020045, -0.04100734745314965, -0.08660021880538704, 0.09674684433271448, 0.030607829572737114], [0.09720801199154787, -0.047061592720705175, 0.10699646155036523, 0.040913747103807206, 1.938419756283508e-05, -0.037707632613956224, 0.041562122077689376, -0.04774960931716302, -0.022626698848198287, 0.06505252632159247, 0.044409548298731005, -0.06694605256897015, -0.0003035290925359914, -0.05247024148732841, 0.04815421822788563, 0.023496395082507306, -0.03451119203894826, 0.052990792308390065, -0.07964746783864257, -0.06346290011711979, 0.09788700721837484, -0.011324227553987692, 0.04297264768562711, 0.0151389161841945, -0.032271060877376016, 0.0019876614187727014, 0.013299012433258256, -0.06376004925856274, 0.018963283241073225, -0.03427608222041314, -0.032399165763436, -0.06631157154163678, -0.00837898142005829, 0.06921938053379159, -0.037350979894882556, -0.039922651303919615, -0.11209182241861734, -0.14175154107457896, -0.1486526530716295, -0.20051962980012386, 0.04121349423791474, -0.058928263249877315, 0.009989717739007647, 0.06744325575661303, 0.07807823501090459, -0.09525990697451471, -0.011770162039562606, 0.09340933076766449, -0.046205742033392415, -0.0663013760388822, -0.02885490520749898, -0.09788058056589448, 0.032831868632694876, -0.08910297858703409, -0.10798021123951777, 0.024710552564612853, 0.03028324467319632, -0.0027508602020125277, 0.15100280256904666, 0.0638093307996128, -0.08073813884990362, -0.10295465071676163, -0.12658937708842805, -0.10867280343685554, -0.20277590882045549, -0.01724568676495378, -0.19408683655971454, -0.04987367701657429, -0.08079100759693326, -0.07741914595628921, 0.02947676151208315, 0.06464428055144981, 0.0444322136173947, 0.07885012910316669, -0.016571004780676038, -0.1585174862064479, -0.16676395010602266, -0.19400960498933864, -0.23478695022326151, -0.15628249958531873, -0.039922353588761235, 0.016022631703938202, -0.0030459675634117818, -0.012935834466170968, 0.0620226981442912, -0.0060855816683117805, -0.11588972895074996, -0.037247321573710995, -0.1822070302301085, -0.03924145988813359, -0.03100689771338605, -0.1336785506952575, -0.06046967639988056, -0.0411948501558063, -0.09016844537887325, -0.12952815123146036, -0.012925510661142767, -0.1835119986812315, -0.001078335150006633, 0.06492194663290285, 3.113005421533364e-05, -0.10292615504925987, -0.15899232877230357, -0.11976762413787606, -0.4033347362304926, -0.3690551155155362, -0.36418084861012673, -0.17385490645713186, -0.22026037350134361, -0.040749006192759805, -0.09929543106612783, -0.0274447230485687, -0.040017993684945956, 0.04089388020636355, 0.04663903258922002, 0.012568595598137763, -0.10281574394969323, 0.013387852482875894, -0.048075279946778564, -0.09619300083507155, -0.09306337870439126, -0.09119012252929795, -0.07840710030330711, -0.04338564589277608, 0.02273549229863164, -0.10944560216533214, 0.010712906197376153, 0.06409638915024635, 0.05454786616495078, 0.11939783636312543, 0.019343438059792495, -0.016650962296003245, -0.05602500685371808, 0.032940302212179064, -0.08785560528688455, -0.05637486338017744, -0.16072989291350395, -0.1419285092995842, -0.1351030144703079, -0.12681181747076578, -0.01669859210612175, -0.015030760629074377, 0.02430796582009973, 0.030407243508389838, 0.012911679170958638, 0.021739759598092948, 0.050379428837108116, -0.08808105570685837, 0.005620858231423623, -0.042050778230013706, -0.10157578050404606, -0.11656700638374054, -0.17426245622622735, -0.13627511526485364, -0.08354740890416815, 0.01706449531683116, 0.0028663494259559387, 0.0840955674171747, 0.06547455321185641, 0.0386923658560638, 0.07809990858281303, 0.10435643387958153, -0.02940194356861995, 0.0009166515546207989, -0.10428574705400356, -0.22834749355783224, -0.12100507953952383, -0.167820827581517, 0.04654823079709268, -0.016503651602888615, 0.043813356818705726, 0.07026570148425505, 0.0791234218761258, -0.028235934262281534, 0.023934523857496184, 0.05275719955772025, -0.06943921654375171, 0.004144420458082335, -0.07066531674095854, -0.1355153043171525, -0.18634929585625687, -0.12864999687851023, -0.1837297861466, -0.07050314522462263, -0.03214231684737533, 0.09962376805356052, 0.09047232907502124, 0.0455222421738828, 0.07912388444279851, -0.006480550664603346, -0.06433218084313735, -0.06738880925927193, -0.1562203830763731, -0.07109184954676528, -0.11585465991824904, -0.03905787168540713, -0.08039363932542118, 0.1378668908009706, 0.01846161576920784, 0.0560820825315365, 0.10238822491521153, 0.01271192247521557, -0.01055004579221903, 0.06920150681702544, -0.04173175252323715, -0.042091751467440534, -0.02957705072253797, -0.1511566757128106, -0.2543927419241122, -0.28630928091039665, -0.13529907507457353, -0.14690140719068986, -0.02452019452695553, 0.055351321837993024, 0.10936496930856945, 0.06268314354005686, 0.009407085357166788, -0.07130206732591762, -0.11241006984886745, -0.1296775306470763, -0.23036150580320405, -0.033967830084024854, 0.005010133715191605, -0.05021869507217926, -0.07594137712088123, -0.08351199292928853, 0.02401305268919946, 0.051721324050386284, 0.011478591921290521, -0.09511327589180694, 0.023965011833158696, -0.010552402211119855, -0.07946279339173584, -0.022559066093051035, -0.04073068051879876, -0.023370914311298306, -0.15765840542371, -0.21288497562142578, -0.1139994175719811, -0.032320751443753536, 0.04432853357166102, 0.05927241270295258, 0.0996227929058944, 0.04363026140287756, -0.008893775563530399, -0.19499646907859527, -0.2568955336577776, -0.19602704668654436, -0.24531974510361215, -0.1974981934754821, -0.009537230892841595, 0.05946470243913049, -0.0363188925065947, -0.049675752049431164, 0.021698152785871547, 0.10028454307993265, 0.08005315763695818, 0.051294335416642085, -0.03151727124731429, 0.042222500170972524, -0.023735193077444615, -0.005669142043321476, -0.07022195790982143, -0.03080499279951754, -0.1465289220463821, -0.2790591097113387, -0.08136033945580125, -0.006984168620646278, 0.13079381513490762, 0.20701487835213564, 0.09215976592158577, 0.014023852495976956, -0.0005328126125892497, -0.20656187402056322, -0.3684280758439355, -0.24782464416517302, -0.1991416389014779, -0.127832404804869, -0.11898652490402428, -0.05974099898763055, -0.031143572560298784, 0.11269336445726966, -0.006419672320276682, -0.04971781721903043, -0.009983625996486181, 0.08667541298813622, -0.09717509790910853, -0.00961393957329064, 0.09217643883646294, -0.05489341627659747, 0.047735064083721045, 0.03199159135265118, -0.03025112834175896, -0.23567546781193366, -0.026334504892137067, 0.08681228550325429, 0.12269878178166094, 0.07804070775284881, 0.06687917355902277, 0.010348203805847413, -0.0897156994389168, -0.27811446028216397, -0.31875188059618986, -0.19371528181764802, -0.24471681452636102, -0.1443042212831924, 0.04820270604230463, 0.03433130262128671, -0.018934755974991314, 0.06215276076524932, 0.05669481051845665, 0.05528437043775647, -0.003118575675375621, 0.013776532754553471, -0.0826693661452682, 0.07586982921938537, 0.04061157444821857, 0.03715797145469479, 0.0815311093174904, -0.00984834573355454, -0.16035816647959422, -0.09053033685527226, -0.00026329929771043046, 0.04488273556222566, 0.18286790495859445, 0.06089193277066637, 0.0213717136474087, -0.04939278633941543, -0.25414769404769144, -0.19301224413042922, -0.2848279459492659, -0.2850918597051352, -0.12466674748857612, 0.024783101575592482, -0.0784340852604152, -0.06462301707364358, -0.0525410946266978, 0.07570471941535653, 0.0581997370873646, 0.05452784205217952, -0.0804215904840848, -0.04907042148248804, -0.06159917092433187, -0.012443018227436691, -0.08584997261859051, 0.019078195714258152, 0.0946334896733575, -0.0538626466692279, -0.1650790170059831, -0.13935328661976057, 0.010497035373102285, 0.07196404491813607, 0.045934194037042964, 0.1394811699242834, -0.049854192996330086, -0.042529184299964475, -0.062241668164873795, -0.07939806074035519, -0.19197432267401357, -0.15903957734443566, -0.04894567110035548, -0.025519975716648893, 0.10115784589190893, 0.05297258632554021, 0.05797809768209076, -0.0032712857685607637, 0.034294388062331656, -0.05569242540987839, -0.009129895614990806, -0.09314485943111786, 0.021687736359615073, 0.1432647814016632, 0.09494445521733569, 0.13915985283609986, 0.11255909932618034, 0.007646900234435363, -0.21631059874869776, -0.02131747664352813, 0.08716079990180989, -0.00010701624209892333, 0.11013420698752241, -0.017815634419122837, -0.031224631864470734, -0.032036897463517455, -0.059243583262676994, -0.13992460201029364, -0.07475838691046678, -0.0715432996182503, 0.03571810283974964, 0.0075642854295219645, 0.011158694552164818, 0.0515657039758252, -0.05790181850587812, 0.10211486040219131, 0.06326038349032827, 0.14657710107592026, 0.14308449207683807, 0.12422593048254739, 0.11848794792639253, 0.05941766987633757, 0.1543946096617791, 0.154967077387988, 0.022290940180047635, -0.03200716991954914, -0.08175636832544944, 0.07688596896195321, 0.052462247104595267, 0.08421608507923883, 0.038741208360633723, 0.02904192070367253, 0.010477398701109164, -0.026808466443917617, -0.006221475764775046, 0.04662250485667599, 0.025259516973547284, 0.08452466076031097, 0.10440713535550283, 0.05434587844351459, 0.1406879190278872, 0.028153624636345832, -0.038234082682788335, -0.004330873625766695, 0.04239506405453474, 0.14502367379621514, 0.12841521716168325, 0.10438361935191813, 0.10437430202584362, 0.17688004404278357, 0.1278222894151258, -0.04324713677097666, 0.06660256611308331, 0.10277726576686894, -0.040946284909735675, 0.04415174191909186, 0.20534514869898002, 0.02625486597393716, -0.05377932696993612, 0.08159073169063932, -0.017019340208590927, 0.018281797877362973, -0.018630029562950044, 0.016611517042382732, 0.012563031898540895, 0.029339129803687823, -0.006476985730337335, 0.09900308983603313, 0.0914497990234561, -0.0013421044847179721, -0.03876617528128211, -0.0831019030889948, 0.061551781637059884, 0.06379378589558, 0.04393562033573594, 0.10802678671992592, 0.09133992865557536, 0.11442526658893114, 0.024040497094503045, -0.028464411298100286, -0.03268913819274868, 0.15300168219349364, 0.008084935673704153, 0.12564270954769752, 0.073379899784848, -0.06992822727001717, 0.060566319432980506, 0.07389523311962892, 0.049571771763950674, 0.084334403192829, 0.10355912170726471, 0.18430456032457262, 0.1821253436479329, 0.09350957304086746, 0.09500266078441334, 0.005055427302188085, 0.02829255056652814, -0.019266088095391015, 0.016671818301158277, -0.04594549384813628, 0.03480265521185275, -0.09301396249761748, -0.12342181057172522, 0.03186726079269577, 0.14650219646745874, -0.009572148005579591, 0.007095297419762809, 0.061035019719861576, 0.058608860797538395, -0.044097261365372106, 0.1406165872252293, 0.14669256978014938, 0.09350656517978834, 0.004957337704883127, 0.011053205222031941, -0.004289340929249052, 0.03586113270251632, -0.03781989444644532, -0.033881680604871206, 0.03784932760119493, 0.07226236698462664, -0.013902524126632647, 0.05803184811978466, 0.011743096726331762, -0.015245310636188787, -0.010540221825022159, 0.0731769972519645, -0.0006937400910594008, -0.050961496224737966, -0.1552547544682497, -0.052079630016075316, 0.07503336839893221, 0.03481504313125816, -0.011313889314011122, 0.0526455013943035, -0.05838944293886702, 0.04640261478858399, -0.03751870381821355, 0.061089537508340855, 0.04627803957067081, 0.01128316306436453, -0.08976968020588763, -0.08027159188757385, -0.025571359439830542, -0.06301593652689551, -0.13003716023924858, -0.012041229993803387, -0.05496166082408505, -0.09149121296455519, -0.08254256398454062, 0.10948597119083817, -0.015208660186217268, -0.17689254650428674, 0.025397672713982467, -0.03173745688548291, -0.05249245589805608, 0.019393078257093074, -0.032331412783116756, -0.026972876650221658, 0.008725155172781633, -0.11249848357405769, -0.06421845050296912, -0.06937739336354218, -0.051093558436888176, -0.026518365035260102, 0.055266488030215215, 0.04065847032415227, 0.03439065554863243, 0.009248102896555959, -0.0969750394222464, -0.12347681937948156, -0.04617201005983967, -0.037296444334789396, -0.009837054830447639, -0.08440104489887668, -0.025901621205654087, -0.11709229434596218, -0.18466655031484117, -0.08253250311669764, -0.09222791488666852, -0.11856260933598162, 0.08025246602537865, 0.05184822015343664, -0.03213600617953337, -0.044035171990902136, 0.008346473642677928, -0.024650991500987457, -0.11003979694217991, -0.05884973678598548, -0.05213472387786935, -0.036287562200075785, -0.00415423140107909, 0.01410195122795433, -0.041737054909063334, -0.07263405215865967, -0.04247747151774939, -0.10677330503195143, -0.1493003500005411, -0.08996612727551805, 0.011854945189467486, 0.0746526937212779, -0.020583207011904487, -0.08386461015000339, 0.011858571729058848, -0.04929880735966216, -0.02175108000548415, 0.010860688765753305, -0.030172147054006133, 0.0073061955530276095, -0.08536100885432675, 0.042429156105455015, -0.00936214173473808, -0.11712083638786773, 0.022762593285742552, -0.06738082758638954, -0.05230691211510447, -0.08453647888573738, 0.021412287111676597, -0.0629591076702031, 0.045075934643139144, -0.06475436790706514, -0.05743704298677562, -0.08163590091686576, 0.06377417382235817, 0.07049707117671855, -0.12846885480815654, -0.04692862871998577, -0.0008575758311491756, -0.019973678227347056, 0.0213325290748866, 0.044643276289904985, -0.013436352891477436, -0.01654116962168511, -0.006284248816371377, 0.04074692497642928, 0.03180169467291098, 0.13722842226268062, -0.067454171017966, -0.07950431796116667, -0.02866039018238708, -0.040032312621991986, -0.053138270222562685, -0.05893726160557441, 0.120976915051804, -0.007289105661316039, -0.04809957942792016, -0.05547395467151795, -0.008496749514479436, -0.00611248233747036, 0.017616264574371383, -0.06776618316959881, -0.0995273279261517, -0.04007717980542113, 0.023689433999458567, 0.00926464265634828, -0.07529544183498492, 0.08862419868101795, 0.05912440397428849, 0.023449423563951428, 0.06852976458844987, -0.06279156500265456, -0.04914760617978967, 0.06108738194661093, 0.07107278008624872, 0.09150344687023565, 0.05144446297358785, 0.012425336506347306, 0.03989985618142059, 0.017301750079119486, 0.0696006952726732, -0.002012762962007526, -0.019521306313744703, 0.0014630126613200737, 0.07471805001955734, 0.051313680606462304, -0.010764118091709839, 0.010234623632753704, 0.04858788756294576, 0.01427176922895275, -0.004652234853418876, 0.048816532698101434, -0.014920106173861438, -0.025520354452091283, -0.17420694272428738, -0.015786344052330564, -0.006006938615549545, 0.03287763234050187, 0.04176886883625363, 0.041231942517640216, 0.064748327735688, -0.009678607322637539, -0.09519746865299376, 0.07480479275640324, 0.07162177583847482, 0.025514072288673178, -0.04317593092093135, 0.0739209934822627, -0.05186058455630778, -0.02836211777287324, 0.0016673009169151688, 0.0023691302337603736, 0.05781285341451508, -0.0516530168232614, -0.0651399511858771, -0.04988438140385225, -0.14622504680151965, -0.010619410751339785, -0.018867545929753985, -0.0063708270157077146, -0.04211648427765749, -0.025607084916259782, 0.05201522211325925, -0.00783367227381747, 0.06122018939698564, -0.012399946291644185, 0.014385970651797971, -0.10411375393410432, -0.11193376527324642, -0.04302050155466, -0.01188182571190002, 0.06626874431506888, -0.08289989072617764, -0.014149544202031641, 0.01882494057110578, 0.05278069326880914, 0.04509247643958906, 0.044704787136735764, -0.06830159462031009, 0.01809458640404336, -0.07494394997185674, -0.13356781216109517, -0.08384640644275995, -0.21633069947372507, -0.022491997206643338, -0.11508558345819439, -0.03498567052680267, -0.03439086666819001, -0.14953418324054488, -0.11041411753354777, -0.2508124152235151, -0.12186225333044562, -0.23723216831512334, -0.1764722355442487, -0.15062266664221713, -0.10110609855474473, -0.1355278295690483, -0.10957362864240028, 0.04074559845636426, 0.011419033956603283, -0.054785950872459924, -0.009028284939915891, -0.021317912426308833, 0.06007295748122883, 0.02664689554058002, 0.006354719386486443, -0.003209744305437637, 0.033887661963612155, -0.06705353425262038, -0.09732992043207093, -0.06685611143487726, -0.06337971587974874, -0.11423098038437615, -0.14467391295376267, -0.27678490132112604, -0.06869772147417359, -0.15265438306202656, -0.106983554457697, -0.1067047120926131, -0.09383150317095428, -0.10666106511370602, -0.0700920588214031, -0.11853830214156263, -0.1012617936669364, -0.015389772054896651, 0.08859827708107487, -0.03329186961551911, -0.01241291271403131, 0.023413890883512138, -0.0108951330055613, -0.05586852452255114, 0.040162353359910904, 0.0424490101618785, 0.041524874194491544, -0.05081163879398067, -0.005973569533854809, 0.025800134593442634, -0.06543145290947684, 0.028310941843966958, 0.01569225565954821, 0.04871652816754739, -0.1073600268486572, 0.013551149767524372, -0.1332001326099101, 0.025402224310063056, -0.06185418313240649, -0.07527221198489206, -0.1064161462809785, 0.012096488870934162, -0.022779989801376105, 0.0034042759536251654, 0.009288179678986961, 0.06194570551819536, 0.050900579038496874, -0.021115543087696278, 0.07497140112922408, 0.009444936174736759], [-0.05442991009586562, -0.03789031441215926, 0.03470379460675269, 0.053041119961733434, 0.07186121869366403, 0.030836439658114077, 0.03113765043998311, -0.028872384743504117, 0.013280616093154332, -0.08003904160385433, -0.12221719349758958, -0.035348603728307, -0.05939493058187765, -0.041712172803148886, -0.11080448075412712, 0.015830531103399575, -0.04177949485445571, -0.04815525233670839, 0.09708870061385706, -0.05319895282885178, 0.004802094095443533, 0.03429209321922891, 0.05312665716026318, 0.021714838134438367, -0.06770839084936989, 0.014965936114024922, -0.12972681193784089, 0.05498792922305417, -0.046666657521700204, -0.07485680747422221, 0.03314788736296422, 0.0064184755184557366, 0.04621208132185081, 0.01705673512325111, -0.06645868441206823, -0.013460462104267979, -0.10295035229841544, -0.06408174359809848, -0.10784640402352508, -0.16801531174998433, -0.1550581086341046, -0.02771154987552795, -0.06271847290674819, -0.06558777236669615, -0.10787176383219245, -0.09767353005954624, -0.04358065525218741, -0.02796956378963765, 0.039941406899635025, -0.11170587592551265, -0.05119718223233826, -0.0434251276867986, -0.08837174325682245, -0.026496454520431124, 0.0833391622901189, -0.0009822929813193034, 0.0012340625076521056, -0.019228622836233066, -0.02983357383294746, -0.04752016046502535, -0.05743946271259779, 0.020485447654394896, -0.06314892949562684, -0.049888148416133815, 0.01781645200556422, -0.18060257804489732, -0.25507089632586855, -0.2259882099547298, -0.20078974790975782, -0.14225148124730452, -0.3244492669496699, -0.24754836823045295, -0.2009882241900585, -0.10865417958602308, -0.07686496622139784, -0.13896117754652065, -0.1161750405030912, -0.10739628306234178, -0.15437302631818667, -0.17282226017057448, -0.005904129916065266, -0.04435993372006411, 0.0017383666836149167, 0.023283460412195527, -0.006133194998417854, 0.07983734144494418, -0.047730728175200694, 0.04540454113290753, -0.021330563034100875, -0.08561711339288527, -0.16049636102937562, -0.08213152384561562, -0.21948155261223162, -0.23861303643476897, -0.3387975229879191, -0.22406037109290883, -0.2847850563121969, -0.36119508412201246, -0.4171193062877154, -0.19048520875854627, -0.29670827288894525, -0.33319986943739754, -0.2890931989469464, -0.29210514730539966, -0.24570494805073106, -0.13292970510969337, -0.1485211670678863, -0.13246589991297772, -0.18656526043351518, -0.12011365958689744, -0.006968642636883039, -0.025655191961795356, 0.02479410873362342, -0.014465487378491642, -0.00681442748379525, 0.0634547936137743, -0.1279574742888163, -0.037247161402437945, 0.009809970280925775, -0.026851830908616772, -0.2304661355702492, -0.12988254438131372, -0.1814388797683146, -0.11536892048365922, -0.19505064968964977, -0.1874749144031036, -0.2583892809524517, -0.11204086540629825, -0.1611369290411381, -0.09590799226109205, -0.10981188202986192, -0.12820106690317665, -0.07406535148025425, -0.1942587510719591, -0.2158384134815643, -0.10937484282967491, -0.0538774059776178, -0.013084623964596162, -0.030909995416058742, -0.14901555921443604, 0.07720236308394014, -0.06524680111015474, 0.12930155475419453, -0.041424259319269456, -0.046661435145015445, -0.057445391248791444, 0.05942195238091942, -0.0694419592990786, -0.20572857490194332, 0.012843699844909975, -0.024735739481797737, -0.07548461020059903, -0.06303145933552037, -0.1118625967373197, -0.1141158051492566, -0.10636498620441262, -0.14762698504980942, -0.11165762072497128, -0.11757738094860444, 0.054232342445460595, -0.11845610520790459, -0.09500522884407063, -0.009342281642352956, 0.12840731072641914, 0.11824214329543632, 0.023798419061247435, -0.022408862797259024, -0.09526980519061042, -0.010056515651156155, -0.06787590068415542, -0.005930623452215957, -0.04225362700188402, -0.058617400136938516, -0.1377339827191627, -0.033066670575891695, -0.11583932659616752, -0.1835900146668949, -0.11820279958309221, -0.0342190066203262, -0.08101678042207396, -0.04583191682329514, -0.07963603248501198, 0.05778078026251622, -0.03704853474508607, 0.03586981312244212, 0.0505215913985248, 0.04762747191216118, 0.08687676464698478, -0.033272335358807525, 0.000544334476210131, 0.03008466540708312, 0.11893788810183907, 0.14957311645665938, 0.07236311971557599, 0.04444549728416605, 0.05313137262614613, 0.019575981882013864, 0.10119803685203753, -0.04111492057008772, -0.07820376032561059, -0.07006967112688564, -0.1076882182294638, -0.14332412875272435, -0.07374330005906078, 0.07378550949254341, -0.010084897886737033, 0.009431208832855026, 0.04723421409049127, -0.1042054828251702, 0.04803356614745817, -0.0008882111670307296, 0.09258511530048313, -0.03501087198609449, -0.06562079417560808, -0.05559493183488175, -0.030448119441676323, 0.048421618705868454, 0.10266639785591328, 0.0914091127012848, 0.1287769227660077, 0.2526153512105804, 0.11485888745056985, 0.08755168438823174, 0.015012915361921871, -0.018744453279460286, 0.10756261684749527, -0.017756442624479455, 0.05081199383978449, -7.557817038214204e-05, 0.030027290844796103, -0.08062366541892708, -0.03955410092659506, 0.032660884771710905, -0.007949364070723322, 0.0005316919846780135, 0.12091910932440424, -0.00824054224614535, -0.030883244569572758, -0.016838885906813726, 0.042708434907335675, -0.012356398605212135, 0.04930093057159303, -0.03596872067096249, 0.0771534927095016, 0.13849548845816, 0.11662170007235853, 0.03387324860595184, 0.20667988691398678, 0.27825954367331895, 0.30731988622736106, 0.28391351032690393, 0.08603538544749095, -0.10844060592890808, 0.04643525025572805, -0.02932623895529724, 0.05228462500385679, 0.12789943918322863, 0.018975599235160283, 0.018079508880390525, -0.08276059838303772, -0.011546648283726325, 0.00871048967603973, -0.05129324759321541, 0.08285844241774751, 0.04586076146050723, 0.03142576756204062, -0.02667219189471539, 0.012388113505816745, 0.0250113435423722, 0.042597021024825384, 0.07346906163214151, -0.0022127638453892946, 0.09246687248947111, 0.08402529816810377, 0.08951526663207099, 0.22038544248440153, 0.33824985547950737, 0.4203966209401247, 0.22491178672238052, 0.06476122084345902, 0.0010477687246172919, -0.09498128235907453, -0.06933542014111123, -0.01249038166571456, -0.06875981294016385, 0.023140134233502134, -0.01176051699802769, 0.17580307052586264, 0.07668843565244923, 0.03274779616968702, 0.08681401838484071, 0.03749381923703224, -0.033002731714673425, 0.03282274036610757, -0.035556313033846765, 0.11955830583969496, -0.012897240583229126, 0.0527920233951184, -0.02213444501361337, 0.021080007695838236, 0.03496936285648466, 0.023738976884292395, 0.11679069269575727, 0.15235567571104444, 0.1838760363105862, 0.3271293640817111, 0.27919996987654616, -0.09627177142880947, 0.12049150819899988, -0.07709231618897905, -0.12953233432784814, -0.11280804762260352, 0.08079973976449868, -0.04466428000039889, 0.043344000392348966, 0.08980739193356502, 0.14208866342754006, 0.064388634256618, 0.1002806135448838, 0.061327651594904484, 0.006727070563947942, 0.035231999004780926, 0.1398978179674208, 0.036526207496708624, 0.1195968690702097, 0.050532869365401516, -0.003995352778630191, 0.03864057530763047, 0.031116809653092298, -0.051737497293557436, -0.1375670591820551, 0.010454425146144732, 0.007221025893038606, 0.15123401040107598, 0.1708411994308039, -0.03852401304606053, -0.04125458212113628, -0.10381891064511106, -0.0245041334605437, 0.030172600435891626, 0.16071899526529548, 0.20577123589888652, 0.0905196050383089, 0.0206789041836622, 0.0920741449527421, 0.13170527656598383, 0.08166452574111385, 0.051956417778235064, 0.0036246700091690652, 0.12834956161361466, 0.08301720988775009, 0.09836045726061858, 0.023107929564278828, 0.09279107576945977, 0.07719565022756174, -0.015448850156345124, -0.21258632987720125, -0.06201261907067553, -0.08283612416696148, -0.2595348215726442, -0.2224418102265749, 0.06163612071703031, 0.00023344982808341875, 0.11172382966273832, 0.04499662746638349, -0.06436375799612803, -0.023566707541652736, 0.10495268119211232, 0.10495268111420006, 0.14550945009784652, 0.1427211648992454, 0.09997853319767987, 0.03673685516054921, 0.1790166193595044, 0.07427926078115427, 0.10419712900520993, 0.02836433247747107, 0.012419153267376064, 0.08480220963899862, 0.08063475681207573, 0.06385112704614539, -0.007348027709199231, 0.000272933664726869, 0.030607127240147292, -0.153990752012768, -0.1949005127274366, -0.15762483871686914, -0.13238198054945316, -0.29613567298387117, -0.17277478933020826, -0.11435951378681129, -0.05800619234224575, 0.07986779257731977, 0.0060339045174110425, 0.00040389969861561766, 0.04835495545895241, 0.15649124190411873, 0.028029411610125187, 0.15041180131587747, 0.05271776029572193, 0.09484630642223846, 0.0402679354530984, 0.10202700328519412, 0.023412750365205053, 0.00875894561947657, 0.08522210076493002, 0.09410991291030316, 0.18969329859279135, 0.11148277022135232, 0.09050273450065183, 0.13388612161571795, -0.04438520588585163, -0.05545587037760793, -0.09127878056565852, -0.07054266371971231, -0.2033325366600217, -0.18035967635513003, -0.1290346486744688, -0.10982068348427555, -0.05217263229040728, 0.010493725473493821, 0.03163094242107685, -0.014075406080899579, 0.06442197355846382, 0.05215081192782261, 0.01922749565756344, 0.004746120777013803, -0.0027157303382789252, 0.005798045582860547, 0.06322665597316665, 0.06208808441604898, 0.04253458760386864, 0.11457586226478006, 0.11968992543231974, 0.05133632760275003, 0.09787609453395897, 0.029115920822479418, 0.04479142582559094, 0.037979698060050346, -0.0396303075851552, -0.005174522848200827, -0.08526779626445115, -0.25268980922132855, -0.09037748773775157, -0.18065232411297233, -0.14944819760764938, -0.1409113858758255, -0.07734827627090511, -0.043138198509095844, -0.07833256218319998, -0.0806488471514169, -0.0744919003665767, -0.05899903624794913, -0.10100325411198541, 0.05879927486719875, -0.07085291005639799, 0.04890403756861273, -0.09719163118387843, -0.0793759454397204, 0.05344071756175792, 0.10152976907657921, -0.03562741963977183, 0.05977762791825423, 0.025834186410413906, 0.11304101520276733, 0.06437122125332136, -0.07730273546430269, -0.05643846528578039, -0.029874607364827763, -0.2335484300077367, -0.11244732963965719, -0.2944432159271322, -0.1902226843341815, -0.33043430489181697, -0.1704172616976669, -0.09855973836405556, -0.015521938746732172, 0.007113526084185173, 0.06500545370245188, -0.14676721500792445, -0.18848708353912003, -0.16290718741030472, -0.10975464315237884, -0.11933053808614051, -0.027713380353906546, -0.06010277829808233, -0.11623931289003209, -0.1631192647042519, -0.008070835448242858, 0.06414727714943576, 0.045186047315795654, 0.1335410723230549, 0.022440054892437545, -0.03879447731878864, -0.05994210276623709, -0.07933764332116593, -0.01570297047471555, -0.10398649009281768, -0.13154060610766824, -0.30212645105401853, -0.3414442323315582, -0.3603266188139846, -0.18083858735675973, -0.07918406567173247, 0.07294203148613929, -0.011050405312282392, -0.09930971746427376, -0.025740396670965837, -0.15967074787491736, -0.14203278233270544, -0.038789044347735814, -0.1361034805339148, -0.21938440134321766, -0.1277975465967686, -0.061393877593849, -0.08061643900040781, -0.030063026859991817, 0.058958801092584286, 0.03461720209482331, -0.0019432186385025844, -0.047067839721029, 0.03177278018020212, -0.11050984661138658, -0.02331530162178426, 0.10398480146309039, -0.16475109447607128, -0.17763892336246276, -0.28454292924858654, -0.3245750952629951, -0.3536278241059666, 0.009427989811874158, 0.04539085575739967, 0.02998736939322105, 0.01605998262669043, -0.05992685780894698, -0.11391630280065784, -0.14179826241964175, -0.011455012250530899, -0.049657493497858515, -0.016481553279383422, -0.19790693712191287, -0.09816055326307745, -0.1867260153479158, -0.11076753108814211, -0.08017832136379202, -0.003786222029344038, 0.015361262683608462, 0.060453279716064914, -0.03756733080501845, -0.08281574844737878, -0.016839954438015003, -0.0451224451304305, -0.09675046078202584, -0.09071214107705072, -0.0997672018700415, -0.22093074462566792, -0.32097453046986724, -0.21095120181567667, -0.08447559844832463, -0.004378731462174643, -0.16789056869497423, -0.09150611705208361, -0.003008566486795515, -0.09879597021406229, -0.05054759853246181, 0.011226009449158005, -0.1107344075017115, 0.10380055411200101, 0.008581472301964594, -0.11099480618914452, -0.1897899089467226, -0.11262516486691415, -0.05603609307182832, 0.06963879028228265, 0.04360924696201882, 0.010010821542962432, -0.04228321467038079, -0.08240048913548487, -0.06337629161685482, -0.08185552892448263, -0.0421170427460193, -0.07548824488249781, -0.1193752264245874, -0.29568661443716426, -0.2575599772055141, -0.19482362823218508, -0.06060568739586921, 0.01607291024776502, -0.04646475060747983, 0.000832217862179368, 0.010091695973607264, -0.020089903795153175, -0.029979772232174975, -0.1045591446375077, -0.0715608652235767, -0.05137626103470961, 0.0011634398985904597, -0.09402149685357301, -0.03471067644452771, -0.05505512992010062, -0.08265764907935148, -0.06297785162077109, -0.03245194267507799, -0.07152726199763054, -0.02154004721138154, 0.07760735449316493, -0.025337645756504, -0.012392710831950858, -0.06833560797274044, -0.07047742557386233, -0.15091488473127126, -0.18828659465387468, -0.16481842028649055, -0.20864800712227516, -0.05639714862804499, -0.012653427030452384, -0.018489106247573325, 0.10762746350895612, -0.016800391910183555, -0.11982222638294032, -0.035927620318688416, -0.1455433871976319, -0.14265494585287256, 0.03765965227805721, 0.022637215467068605, -0.053041757450862946, -0.004809730432825493, 0.003906450811801377, 0.014246137884834881, -0.00038029956490324957, 0.050782718210291844, 0.02199515583818381, -0.0701550989627792, 0.0461060684200071, -0.008836999124754972, -0.02530073860879836, -0.07205388789712741, -0.1533698954046559, -0.06802919330816144, -0.08339811542421735, -0.08539561884816319, -0.046450473739570314, -0.014955257521517329, -0.05779420723603793, 0.01391250109228413, -0.1333033805992216, -0.1239265880928065, -0.0372792653026364, -0.03146688573638767, -0.05940960349378716, -0.11718290907103274, -0.11740493701164233, -0.0901013646454662, 0.06080843948545492, -0.05064800464129973, 0.0396901925292324, 0.03545600790613264, 0.01755540522296012, 0.1110020681467351, 0.1605703671532326, 0.083939210529659, -0.05524247890155074, -0.04118077414373782, -0.00785501790834923, 0.10374811558966611, -0.014715870208413473, -0.05508082327945033, -0.08367085279373787, 0.08216095146370608, -0.09821478922835952, 0.05515789412359179, 0.014429526691506546, -0.03247538643142019, 0.014219005706390411, 0.021678460315895823, -0.023173029976204868, 0.030744864186449797, -0.0024332328149103575, 0.05526733078610062, -0.025101571241587385, 0.027962314308792802, 0.012733228640763525, 0.03851520972982137, 0.0586297643105149, 0.06000419174493243, 0.04109196205110442, 0.20874626191077292, 0.10837940912208736, -0.0005761114711542237, 0.03533938310507674, 0.043276292191811006, 0.09843598884475414, 0.2733877608420831, 0.11891954181450079, 0.022884892236249073, 0.17082929053685214, -0.1588593721154818, -0.19440757870229003, -0.09533843770053373, -0.007932683592421434, -0.04289451867687053, -0.04088947301260599, 0.03592784477709035, 0.006101656406459629, 0.09445652636042559, 0.0017613127803394555, -0.017105614917071396, -0.012527219320963491, 0.07418976602484037, 0.0343584621679793, 0.12235081081448833, 0.09349766271490939, 0.11560533807443829, 0.09589155641493144, 0.11213610123297836, 0.0910028384756749, 0.17325395753079018, 0.09857612831015818, 0.15180324589103647, 0.13574218756946665, 0.12501563023152487, 0.1713934884792064, 0.1581148747698109, 0.23405575005162949, 0.10107595755991662, -0.1555376888456401, -0.16121178236768294, -0.011629266289005714, 0.009135147058103563, 0.00018148717634008588, 0.050023052973689364, -0.08316040756558217, 0.04359957679467207, -0.0763138892674061, -0.033432611075123124, -0.08193804538695465, 0.014378697788158963, 0.03395956898173713, -0.0754610245233696, -0.011242294612399064, 0.01804969791875568, 0.0799911850239548, -0.055565003047959076, 0.1633641476131303, -0.03253205529488769, 0.07692389394273805, 0.04151085330315751, -0.05099677197473284, 0.07088731538845207, 0.2520821604248595, 0.09307689863742052, 0.10830468297696377, 0.04424340453025743, 0.006634394948596719, 0.056308843073656405, -0.09241732955334264, -0.026150012996204685, -0.0032294016779478535, -0.003749878277188585, 0.01599914189896481, -0.026590178612692514, -0.04830423199112039, 0.03027045910766722, -0.01369960251651535, 0.030177827894652877, 0.015379973337389814, 0.04499572694867591, -0.08578726436024739, 0.026890234366023953, -0.023907521908206303, -0.10947368107774345, 0.012342484220289373, -0.023309856636240512, 0.00530647943902859, -0.12335384944489794, -0.008391477932239115, 0.002606945148544789, 0.05169962830798152, 0.0688919300274564, -0.04786168823570736, 0.042908686335009195, 0.020339005733651945, -0.007886754832110125, 0.030620776659162866], [0.03068784662050932, -0.08904554325016523, -0.08842536782983826, 0.02278035575338311, 0.003002874308749679, 0.006140864856823551, -0.011687892357993758, -0.03649936714393148, 0.04019629157018476, -0.019878849287352455, 0.06029185906121777, 0.027050213636309935, -0.11414501447608018, -0.10858196322991691, 0.001931701027184563, 0.016865252034461632, 0.030385991345993544, 0.051919505679930596, -0.06828424903251595, -0.02721855137808174, -0.05550334704052022, 0.02304664527465279, 0.07240816281547244, -0.039272986416393624, -0.007683229687354804, 0.0355614079487269, 0.10491178689027254, -0.033409315396012, -0.0017313541184406703, 0.045765619278773054, -0.06093712519090408, -0.029518456340534693, 0.07521881697432746, -0.008101071270478972, -0.049138956436856326, 0.05843940276750874, 0.048093157278564655, 0.011223973534398045, 0.006161456195166139, 0.015705399443873173, -0.021322201822781203, 0.03095932017726688, -0.01903947510967432, -0.001589970368468483, -0.029669187455728854, 0.13840361671185103, -0.021486520432227905, 0.0008409456047314352, 0.033633646127437675, -0.03189503907401777, 0.02584106736916301, 0.02940789786810333, -0.034905611440821015, 0.0034556660967645287, 0.013853154215946739, -0.09986214308971988, 0.06467404574766387, 0.024170213066193307, -0.025022199514680567, 0.035694011618239145, -0.02516137226094498, -0.028156982903577335, 0.059021343954651084, 0.055006075552134104, -0.0050264174592868135, -0.01487139904354984, 0.027705683788500624, -0.058304365522691116, 0.005604584898675319, -0.0061891362772967095, -0.03476446879184602, 0.08808521116144889, -0.015943226826190576, 0.060968619973900864, -0.0023104948270959535, 0.033734244593137036, -0.09234748133329462, -0.012801587636223959, -0.08700184500156738, -0.055879316557637074, 0.10894584610046364, -0.04975712935744, -0.027696898909396483, -0.011862891733819787, -0.03398018643576636, 0.04983647960009969, -0.06056230956276484, -0.029717358518460024, 0.053027255829806455, -0.061422794719892905, 0.010245757860281169, 0.030109629259975734, 0.023185433000693777, 0.08325082624377164, -0.020010643195409173, 0.04666650456430403, -0.0516081728816484, -0.03182116833738682, 0.057803705735106126, -0.03449642839307688, 0.026436774800594975, -0.015860298049938604, -0.021833069344888354, -0.09851621981478977, 0.01937937105364165, -0.08263557621103647, -0.03120984651195061, 0.01990512918899515, -0.09250952502195306, 0.06722954137518011, -0.03910397264329999, 0.05604657287976974, -0.0021214678133370155, 0.04823722190322811, -0.014868913406515472, 0.02141002402647041, 0.032217666578357555, -0.03299334067548854, -0.02132303610052329, -0.06886171501997877, -0.05399121747107036, 0.08220620585931916, -0.07319206829631578, -0.018901608833272136, -0.05436820719214193, 0.09363520367269365, 0.059348153632723576, -0.10604450217173202, 0.025905098395143305, 0.10875167600963882, 0.020229340687465035, -0.095367652687105, -0.05654845673333673, 0.016967530563669855, 0.09676081824039037, -0.01368152043272157, -0.015608687565824994, 0.024832636897467272, 0.0327288290463533, -0.011977601008606176, 0.09791162241894961, 0.025080883814115492, 0.005208242066480714, -0.008447373224701045, 0.06476456835896126, -0.06888628505994907, 0.024901631253042532, 0.027525528149591177, 0.03188724006073787, 0.01429263663017782, -0.026081126643641473, -0.04725480982522358, 0.005672657460715347, -0.06977216419006838, -0.08421437572190059, -0.04314452761541029, -0.019243780812821718, -0.03753416294847706, -0.06832080314344006, -0.012876389657123479, -0.07483358693398748, -0.023799885635997546, 0.030367378541731854, 0.09154270835237971, -0.040204475904457505, 0.0011991286716945225, -0.02863706350441406, 0.010523225021491903, 0.011782702553114366, 0.017156495649775946, 0.02183823669243938, -0.016773997440337345, 0.03308976513972869, 0.03337540182237377, 0.05716336577648128, -0.08918804251879903, -0.0248148656909374, -0.02592089874746665, -0.041276154472537276, -0.04940567334376461, 0.007513220914544373, 0.021700434397216636, 0.05442833761464442, -0.002902365845159762, -0.06443504585706068, -0.0217219065022821, 0.07156136943331534, 0.0045962936788216625, 0.045602337652090603, -0.07758695796151362, -0.01865767525966323, -0.028251711592531255, 0.00864207463474076, -0.011295951025483577, -0.06500493566317926, -0.06601685991300649, 0.038903265161083375, -0.0458700188500618, 0.10815554660126968, 0.08809773635183533, 0.09873474241924121, -0.03277295029588047, -0.021186195284012777, -0.026261095953575654, 0.043484293852417505, -0.06417737066811803, 0.018007248548535883, 0.017441216468106882, -0.008345651724755763, -0.08149755008776949, 0.06220909354593476, -0.0015806205513632927, -0.057943443710761475, -0.05196903849794313, -0.08809944284554116, 0.009634293770585382, 0.04514904997715339, -0.0269136739313965, 0.01661714880748082, 0.1154637729900138, -0.004408854365512652, 0.0388917719024503, -0.05598974779282739, 0.056698133451356214, 0.08867758262273429, -0.024751965983988933, 0.017513030588489836, 0.03908170081547271, -0.006157943941312784, -0.041123850899514175, -0.04927306837147025, -0.1150340870436863, -0.022353728515059252, -0.11400494818272902, -0.11562835032120825, 0.050884323411728785, -0.05204438609413898, 0.003942782392521721, -0.038721868791707865, -0.061423043919670545, 0.035086889958448844, -0.013171374179431506, 0.04439985045526411, 0.055618283579806034, -0.012655632626734593, -0.01854884196165657, -0.07295028111183474, -0.028361148890348496, 0.010903886121759713, -0.04315442641105136, 0.056596872194917526, -0.0676179437624156, 0.05985030743782708, -0.0060031941957679955, 0.02038607352809344, -0.14231538363269833, -0.054978778908205975, 0.08033105991750548, -0.03189480796297623, 0.041656298928180596, 0.05889393457704187, -0.057778108183080615, -0.04324873054370008, 0.013886787171537074, -0.00753408649103186, -0.0382653655495803, 0.00906466776563795, 0.005737084181447338, 0.014049521964990262, 0.07690268210671534, -0.06172915643406347, -0.08001902645604335, 0.010857827868392327, 0.005135558477357817, 0.008086678543344761, -0.06257266075205867, 0.012594791262000606, 0.01165267798995098, 0.07484504673064818, -0.04668390275613744, -0.07742014807719669, 0.05421261010216333, -0.019574260752033407, 0.021496310212974313, -0.057484476185221164, 0.00863699889641319, 0.027968844622330683, 0.042527102530981846, -0.02847777543278898, -0.02683040078330326, 0.040062110935618345, -0.012381210416391984, 0.02193049660764887, -0.00023961488137667854, 0.007064349582117985, -0.0626391584967894, -0.02345475102147784, -0.049818779556731176, -0.07128540734082116, 0.07443269346219662, 0.012115133585013453, -0.008370411395670511, 0.04008012640602848, -0.08026076048478975, -0.04411120277925704, 0.03322758711896377, 0.026234847654736267, 0.04593867691457635, -0.07579824517239675, 0.03398547663608877, -0.027175010571709977, 0.006899936562820166, -0.0188790424222674, -0.06362531101347839, 0.03896046758604223, -0.05659687216490292, -0.010352949520771995, -0.027068019115706235, -0.0634157633175873, 0.030818773216694, -0.03734982580965871, -0.03034193602088254, -0.0338518349049937, -0.08100000326841011, -0.05589782490572572, 0.05086096641865177, -0.10441266045286936, 0.015085391964617941, -0.11671106204715898, -0.016759820346244018, -0.05513394781339758, 0.005183516815865026, 0.07914638126666852, -0.005014860032705332, 0.0737547895883391, -0.0042380612543095175, 0.041682129433792244, 0.06186292278604979, 0.01593377524438748, 0.0596988863801536, 0.013902847341754437, -0.05477665500724686, -0.10712135791328813, 0.05367308616875211, -0.017681489760489198, -0.0319324174723373, 0.07652981182008134, -0.14980247421968312, 0.0434713045666757, -0.07150306175103001, 0.011736917271906762, -0.09187295730064517, -0.028668211982526007, 0.03552488515431471, -0.04834108554593426, -0.0674420299265026, -0.00886707931427312, -0.008298268879594022, 0.033615859089438045, 0.018610268241463532, -0.030001866162564794, 0.04045623454975865, -0.029422957544643608, -0.015269976634987921, -0.08821942250601778, -0.04810478623795797, 0.11385702887020926, 0.015495903072102685, -0.09143877387259663, 0.022207686871638033, -0.034154599257717994, -0.026421824195203784, -0.07090923270493164, -0.021814031463135392, 0.03964005449832858, -0.024081337541097363, -0.10213032466169684, -0.04757457120681774, 0.01931080220064681, -0.10021537491463027, -0.03579158881844909, -0.038170474811310015, -0.01109467278472896, -0.013288323954793497, -0.07132109429384129, 0.046607074299373684, -0.07347686183476973, -0.007042785486023045, 0.05416338006911345, -0.04462754446599808, -0.01590952657694809, 0.050654763818191624, 0.02202799929358426, -0.06572952190558938, 0.06189464517967035, -0.017312089357981644, 0.04622425677934002, -0.031566860323217726, -0.05908840660112014, -0.1273194279844473, -0.00774992960150317, -0.056533759937876224, -0.12298320461990776, -0.04430632086786008, 0.0735468959450655, -0.0469650541317554, -0.107264990914823, -0.04899343658228806, -0.020699283433626276, -0.05523862990852418, -0.04878172872047096, -0.003595047873091225, 0.07808086506517652, 0.04209962042866721, -0.016131048255574484, 0.04026564894115146, -0.05378184223502131, 0.06729295895198228, 0.017276215258468314, -0.05925807148870609, 0.08629911073852853, -0.05441871517562754, -0.0025537982740959438, 0.021309404527058574, -0.06653619774417088, 0.03978450687473118, 0.022124400307059484, -0.006284943945076577, 0.04632039416558398, 0.02760677287841274, 0.024930288863941306, 0.00877334869638241, 0.025964022626039064, -0.04213348293125722, 0.018678350617634315, -0.058767329546823524, 0.034258372400770946, -0.019639252892568328, 0.0067534299724540375, -0.0519461681015347, 0.03775358831224783, -0.01074172879182233, -0.005286822016642093, 0.009931243935337614, -0.011312288407944049, -0.02471805196958177, 0.028857072224365156, 0.03036535266380988, 0.051543921718965775, -0.04852979853218904, 0.010170740979619699, 0.016349053371336675, 0.016071485193224176, 0.02488874423367167, -0.026350072338909663, 0.028353913845403783, 0.02224817985760101, -0.07268635044289448, -0.05512478805407925, 0.025752311580675674, 0.00283685101400359, -0.020919111159537086, -0.00931937902767815, -0.06614034864528559, 0.12039907666614974, 0.04107695390274797, -0.0070426885500223906, 0.032512198875293497, -0.001610951831396968, 0.007191594340580044, 0.04599875114521824, -0.025284521480775115, -0.005034691501904842, -0.005515939095836447, 0.022881273095298336, 0.011664445773952852, -0.037534562645754437, -0.05756850641253616, 0.0038925849715950203, 0.0251973886208934, -0.055581789552620685, 0.0033277689514426166, 0.05554034271562127, -0.03547860908948233, 0.04272777678957449, 0.042339733310913286, 0.04436408988450516, -0.044982494098783306, -0.021236529128289904, -0.03748725649089842, -0.04066783823611535, 0.07602987851095133, -0.028163534540024834, 0.09938804881999219, 0.013995472901975874, -0.005483671877538644, -0.008770860940163968, -0.05209015168403124, -0.06027633750141904, -0.03673011395400115, -0.01764197833347574, -0.03288428974263306, 0.0555863969670369, -0.004376810509626162, -0.046488233414183976, 0.002252774392211896, 0.003379691660212074, 0.09324101446485018, -0.0001478189340214418, 0.034546297145887056, 0.0016486850514937784, -0.031756089675924144, -0.05242802414674991, -0.05023136866827006, -0.14164468687581505, -0.0020049849481033884, -0.0016760355676479516, -0.04189631239765131, -0.08404669205923246, 0.01892791707614733, -0.014781175879535572, 0.0463987165493174, -0.030768127013862685, 0.0009054125505067913, -0.07809160171076601, -0.025218367281034333, 0.055325197251718895, -0.0061230175093892605, 0.04531971877343551, -0.0897503942544767, -0.014868422767750786, 0.01975137299261036, -0.053148070510160406, 0.017494572522086367, -0.09520502403804712, -0.10989698055690272, -0.01948203255055894, -0.04053851712549034, -0.08492806281738288, 0.017437227027061294, -0.005945221104775435, 0.038093468831480556, 0.028007234217646237, -0.029713958576178184, 0.011807442728072663, -0.01357099482510528, 0.02997152152588793, 0.0032733351126440478, -0.007817761087313607, -0.010197604602546921, -0.06110285932024448, -0.06975425702586585, -0.028356250375488577, 0.01799620162932231, 0.040058958010636844, -0.0156153007793032, 0.03924102576119453, -0.006827446994774347, -0.050169481523426096, 0.024059091429472344, 0.06351279066624246, -0.0005916609286592745, 0.02136236788929749, -0.027682133871594117, -0.005938880362191137, 0.0001223187274478987, -0.06315585514913731, -0.047288142432037036, 0.004480976819988833, -0.017090065390833378, -0.026227442188384634, -0.012762080526228792, -0.0682720245507351, -0.04204366830818564, 0.043974560165819875, -0.12211756119067453, 0.014596307602840345, -0.01759244819845516, -0.0905462140562449, -0.05228269213025388, -0.08293098866449021, 0.09398571316599041, 0.029753770918556344, 0.04844042100473018, -0.1080739652764285, -0.07677496207545251, 0.08334125784957513, -0.011078692770843236, -0.07132421169236593, 0.057391492613529646, 0.007344716364292125, 0.01013135434521405, -0.053585610640273305, -0.013972955327731545, -0.03431037752284646, -0.033103824388181054, 0.016556463167463936, 0.03156329353479952, 0.012440051421230355, -0.07474582547577921, -0.0542824000533075, 0.06326184438039173, -0.051527527259148484, -0.048884808414998614, 0.028975209969663556, 0.029037523320159724, -0.041673128267623274, -0.08244968942988447, 0.08424686642414093, -0.043528336454364484, 0.026269893530146433, 0.02934941698531488, -0.04791441601736351, -0.029674152759184298, 0.008940127932174599, 0.009450580887780016, 0.053276996561946594, -0.11695059940302052, 0.1073806520057916, -0.007652551482984239, 0.03719524279335743, 0.014509092371167225, 0.04185376370979445, -0.049943410963729014, -0.028747739642711767, 0.041722290770868864, -0.024489569694102806, -0.050070407296782235, 0.008051601123284825, 0.0628834489585124, -0.03612231388902515, 0.0593680865537295, 0.013398603055433757, -0.006187902261460564, -0.09034462528810322, -0.1176649265681867, 0.06026891083679653, 0.02440369884409029, 0.022314456330284425, -0.037894072304270714, 0.029860481674372594, -0.04905805530475386, -0.07966190406900711, 0.031057909473052252, 0.030885511678562756, 0.011028237151871954, 0.03875078069982738, 0.015679477284378733, -0.04311718224678186, -0.03838620599487605, 0.009750042213532121, -0.06859031423330814, -0.04705814716926455, 0.057655160516889764, 0.006135730467937358, -0.09200648994193399, -0.05883098586735687, -0.047875560930539456, 0.021832805017877058, -0.05266536215620259, 0.04399836875387387, -0.07585629751610931, -0.007434870100132869, 